{"HasData":true,"NeuralNetworkName":"Jumper Big Neural Net 8 Layers","StartTrainingRate":1.0,"NeuralNetworkDna":{"Weights":[2.255505084991455,1.69541597366333,2.681133270263672,1.4671400785446168,0.903407871723175,0.7601454257965088,-1.64150869846344,0.6382603049278259,3.6641392707824709,2.4337997436523439,-3.8812389373779299,3.7767200469970705,1.1207362413406373,0.06765028834342957,-2.6863460540771486,0.8033171892166138,-0.1384202390909195,3.3021557331085207,3.688002586364746,-1.661838173866272,1.6391215324401856,0.6783434748649597,0.8677037358283997,-2.467691421508789,3.7802746295928957,2.042090892791748,2.363454818725586,0.02779841423034668,-0.5681676268577576,0.14235112071037293,2.025999069213867,0.023525893688201906,-1.9126555919647217,2.1579580307006838,-0.34963807463645937,0.4596068561077118,3.014019250869751,2.1306588649749758,-1.3800976276397706,-2.08685564994812,3.0015933513641359,1.4742000102996827,1.6252553462982178,-1.544516682624817,2.5777618885040285,-0.10272009670734406,-2.9922239780426027,2.425568103790283,1.106748104095459,-1.1774815320968629,1.8622791767120362,-1.0650211572647095,4.722314834594727,2.8861501216888429,0.7309566140174866,2.408458948135376,-0.17979294061660767,-1.1020214557647706,1.9984288215637208,2.67635440826416,4.298799514770508,-1.2053990364074708,1.364590048789978,-0.1486181914806366,3.885251998901367,1.7545175552368165,-0.4101763367652893,-1.52615225315094,0.3946150541305542,-3.548335552215576,1.3724037408828736,0.907433271408081,0.6022135019302368,1.4361165761947632,-0.20203833281993867,3.5512454509735109,-0.23397356271743775,1.6180377006530762,1.0767463445663453,-2.0794241428375246,0.21633747220039369,1.0187302827835084,0.7859378457069397,0.054056525230407718,-0.14405441284179688,-0.03827345371246338,0.10683256387710571,-1.1725562810897828,-1.3179072141647339,-0.17669686675071717,3.81673526763916,0.8984351754188538,2.9826297760009767,1.08449125289917,-0.6760376691818237,2.8960280418395998,-1.087643027305603,-0.47623810172080996,-0.16165724396705628,3.581333875656128,1.970171570777893,2.295703411102295,0.5652724504470825,0.0005904138088226318,5.276642799377441,-1.4922930002212525,1.5472651720046998,0.03522689640522003,-1.965052843093872,-1.5249574184417725,3.493783473968506,2.9128060340881349,-1.0541177988052369,-0.3111000061035156,0.8721883296966553,1.2354353666305543,-1.7298696041107178,-0.9477595090866089,-0.7924981713294983,0.4095177948474884,-0.8976573348045349,-0.6795326471328735,3.60748028755188,-1.0561531782150269,-4.155884265899658,1.6223657131195069,-0.19009685516357423,2.0766725540161135,1.019269585609436,1.6840424537658692,-0.30890536308288576,0.9470670223236084,0.44971776008605959,1.2669563293457032,-1.3373562097549439,3.521491289138794,1.126977562904358,0.40399712324142458,-2.929198741912842,-3.161965847015381,-2.1360995769500734,0.8716325759887695,-0.49674493074417117,-1.4717772006988526,3.696187973022461,2.418698787689209,2.4744863510131838,0.9109539985656738,1.0356746912002564,1.8995840549468995,-0.9969313740730286,-0.41031891107559206,0.2130245566368103,0.2010384202003479,1.4660248756408692,0.5135414004325867,-2.678661346435547,-0.5320758819580078,2.4908041954040529,1.8539206981658936,1.6342564821243287,-0.465820848941803,1.9826695919036866,1.4514797925949097,0.8172893524169922,0.35542768239974978,3.223355293273926,2.6311275959014894,2.8900842666625978,1.4797041416168213,-0.8124205470085144,0.14215543866157533,0.8473872542381287,1.0221199989318848,1.262585997581482,1.700317621231079,0.9025620222091675,0.11443164944648743,2.729989767074585,-2.20731258392334,0.9633595943450928,-0.42162978649139407,1.0907150506973267,4.4607720375061039,-0.5446619987487793,-2.8773648738861086,-0.4812402129173279,-3.0498838424682619,-1.06817626953125,2.85097599029541,-3.3289663791656496,0.2743205428123474,2.2243926525115969,-0.061174631118774417,1.5419809818267823,-2.7705936431884767,0.7038524150848389,0.24921879172325135,0.568473756313324,1.3013677597045899,-0.8363279104232788,-2.621208906173706,2.0764944553375246,-0.8456538319587708,0.021076560020446779,-2.7470080852508547,-1.1593208312988282,0.9450113773345947,0.5124369859695435,1.4874379634857178,1.6257990598678589,1.4148770570755005,0.3178664445877075,3.516279935836792,-0.6825854182243347,1.671865463256836,1.2470593452453614,0.5650167465209961,1.6160693168640137,0.6196858286857605,-1.255502462387085,-1.2849286794662476,-1.443986415863037,-2.5353095531463625,2.423584222793579,-0.6770475506782532,2.184234619140625,0.8459839820861816,1.908231496810913,-0.6568328738212586,0.3644484281539917,-0.3231660723686218,-0.334708571434021,-0.346561074256897,2.3348865509033205,-1.099853515625,0.4762614369392395,0.7217885255813599,2.2712388038635256,1.166197657585144,2.2414419651031496,2.6586217880249025,1.6958367824554444,1.536810040473938,-1.6452871561050416,0.37516868114471438,-0.8732600212097168,-1.1208839416503907,-4.748237609863281,1.519652247428894,1.8334144353866578,3.5048484802246095,2.7229413986206056,0.02581113576889038,-3.0390281677246095,5.13524866104126,2.7461066246032717,1.9942617416381837,2.1125683784484865,3.8419981002807619,-2.1015284061431886,-0.5880683064460754,1.3337880373001099,1.6142171621322632,0.9470126628875732,3.4315743446350099,-1.6507683992385865,1.0743050575256348,0.40530863404273989,3.7946958541870119,-1.851771593093872,1.4181495904922486,1.3716230392456055,1.0211507081985474,0.5827785730361939,2.85653018951416,-0.3971126973628998,2.8595988750457765,0.9629707336425781,1.7652873992919922,-0.36608079075813296,0.4013912081718445,0.09123837947845459,1.0778331756591797,1.8503526449203492,-1.0893081426620484,2.007206916809082,2.723311185836792,0.0442982017993927,1.7106075286865235,2.0678558349609377,2.0271236896514894,1.216046690940857,-0.3182157278060913,0.3123074769973755,1.8237991333007813,-1.5439437627792359,-0.256784588098526,-0.8586603999137878,1.713930368423462,1.8115288019180298,0.3672139644622803,-0.8133214712142944,-1.4418444633483887,0.11973118036985398,0.7711881995201111,1.0398592948913575,1.2797467708587647,0.3894321024417877,-0.8203144073486328,0.709831178188324,-0.5473712682723999,2.7017738819122316,1.3185709714889527,1.468575119972229,1.7703537940979005,-1.2005060911178589,-1.0713815689086915,-3.398563861846924,-2.4340438842773439,1.2386232614517213,-1.1165825128555298,1.6443653106689454,1.0921320915222169,-0.3119988739490509,-0.7358406186103821,-1.5457078218460084,2.856013774871826,1.8569185733795167,0.3072863817214966,2.801715612411499,-2.7656800746917726,1.0276137590408326,-0.08485107123851776,-1.0214369297027588,-2.5012338161468508,-0.8294093608856201,0.7074858546257019,-0.6967906355857849,0.5366297364234924,-0.4305207133293152,-0.43264126777648928,0.23832260072231294,-0.10337348282337189,-1.363292932510376,-1.684939980506897,1.2616969347000123,-2.589447498321533,1.3349533081054688,-0.12374818325042725,1.9039498567581177,0.07087104022502899,3.8760464191436769,-1.4745454788208008,0.37885117530822756,-2.066277027130127,1.7182725667953492,0.5486217141151428,0.6175031065940857,1.4727232456207276,-2.9758994579315187,0.6851001977920532,-1.5639674663543702,2.2914538383483888,3.2659964561462404,2.0192980766296388,-0.9565176963806152,-2.6046905517578127,5.357423305511475,-2.0046210289001467,1.6101713180541993,-3.6215827465057375,0.175381600856781,1.9587247371673585,-3.767218589782715,3.7071313858032228,0.5054616928100586,0.15285488963127137,1.8355200290679932,2.623210906982422,2.1741251945495607,-1.141556739807129,-0.7315784692764282,1.0766648054122925,-2.4247310161590578,0.8939905762672424,1.2192635536193848,-0.36751505732536318,2.7040159702301027,-0.08040833473205567,1.3544502258300782,-0.7902003526687622,0.9289721250534058,0.9815551042556763,-1.8467743396759034,1.7360131740570069,-0.7124871015548706,0.16271093487739564,-0.05971458554267883,3.7788662910461427,1.3221409320831299,1.5500038862228394,0.16017413139343263,-0.7549676299095154,2.914787769317627,0.2669534981250763,1.1568663120269776,-0.049500659108161929,1.4417412281036378,1.871399164199829,1.442817211151123,-0.9719392657279968,-0.16672243177890778,0.625728189945221,-0.20559436082839967,-0.04988521337509155,0.4370768070220947,0.6834445595741272,0.06865197420120239,1.0236135721206666,0.007869720458984375,-0.30934178829193118,0.8566965460777283,3.3588929176330568,-0.1632746309041977,-0.7290235757827759,-0.4119131863117218,2.053285598754883,0.7348676919937134,0.4034880995750427,1.3852300643920899,2.6175105571746828,1.2066560983657838,2.5336482524871828,-0.17975902557373048,1.8158001899719239,1.9778575897216797,2.540217161178589,3.230100393295288,2.029971122741699,-1.351994276046753,-0.023194849491119386,-0.9081913232803345,0.9915547370910645,1.1933125257492066,0.30330711603164675,-0.9826522469520569,-0.6685025095939636,-0.25327712297439577,-1.1307895183563233,0.6278204917907715,-0.7632556557655335,1.542176604270935,3.774494171142578,-0.6922624111175537,-0.6520744562149048,-1.8012452125549317,-1.8859373331069947,-1.8288438320159913,-0.46849143505096438,-2.4240658283233644,0.1892867535352707,2.0152297019958498,0.2089119553565979,0.7299596071243286,-0.13739946484565736,0.22091710567474366,-0.929284930229187,0.38408297300338747,2.1783995628356935,1.1448335647583008,0.5655091404914856,1.4519121646881104,-1.572864055633545,-0.9329335689544678,0.02869543433189392,0.8401252627372742,-1.4859590530395508,3.379948139190674,4.047598361968994,-3.0717380046844484,-0.4993179738521576,2.4739725589752199,0.07123342156410217,0.849846601486206,0.09584426879882813,-0.47257593274116518,1.099810242652893,0.9182968139648438,0.8415466547012329,1.3404582738876343,-1.0689538717269898,4.195066452026367,-2.258434772491455,2.8237411975860597,0.24657823145389558,-2.5714070796966554,2.874366283416748,-0.32767483592033389,2.543783187866211,1.662189245223999,-0.7543590068817139,-2.6138734817504885,1.8507435321807862,-0.8516713976860046,-0.2849571108818054,-0.3992474675178528,2.0336947441101076,0.5977618098258972,-0.38509809970855715,3.49813175201416,2.014740467071533,1.2722700834274293,-0.20477744936943055,0.6554995775222778,1.5995476245880128,-0.3924850821495056,0.12228778004646301,0.5495835542678833,-2.6693122386932375,3.066648244857788,0.861409068107605,0.9258730411529541,1.7616645097732545,-3.3075640201568605,1.0589708089828492,-0.7409677505493164,1.4319124221801758,2.8844985961914064,-3.5946500301361086,-0.3755761981010437,-1.406211256980896,-0.3039601147174835,0.6456794738769531,0.5157893896102905,-2.358238935470581,-0.7681499123573303,-0.7566351294517517,1.6728805303573609,1.9693883657455445,5.197362899780273,0.2848932445049286,-4.247958660125732,-3.6558027267456056,2.892324924468994,0.0131492018699646,2.5748538970947267,1.2462959289550782,2.1707918643951418,1.5451830625534058,0.7778300642967224,2.721311092376709,-0.1329534500837326,3.989741086959839,2.027740240097046,2.4841713905334474,-0.5556689500808716,1.0842844247817994,-1.5927939414978028,1.9029970169067383,-1.0592254400253297,2.465902805328369,-1.6507364511489869,0.04441991448402405,1.4067282676696778,-0.6554301977157593,0.697590708732605,1.9331779479980469,0.8436144590377808,-0.16945776343345643,0.1655207872390747,0.6271660327911377,0.38905197381973269,4.354428291320801,-1.2786742448806763,0.016298532485961915,-0.5466717481613159,-2.5319173336029054,1.4950861930847169,0.022790521383285524,-0.12338554859161377,1.1698601245880128,-1.8579903841018677,-0.2929774522781372,-0.7162930965423584,-0.0776771605014801,1.749397873878479,-0.3595321774482727,-1.0615787506103516,2.8594722747802736,1.2896733283996583,1.7546305656433106,-1.7486050128936768,-2.530539035797119,3.514023542404175,4.416806221008301,0.32617253065109255,-0.33411556482315066,3.051440954208374,-0.6412779092788696,0.326064795255661,1.6157679557800294,4.026662826538086,-0.98752760887146,2.2437615394592287,0.7396713495254517,2.854846954345703,-2.8668928146362306,0.530634343624115,2.4462718963623049,2.9719536304473879,1.588014841079712,0.8704105019569397,1.0290112495422364,0.9909948110580444,0.5691046714782715,2.1377079486846926,2.2649528980255129,2.114046812057495,1.0839229822158814,1.32051682472229,-0.7086754441261292,2.772634983062744,1.5969585180282593,0.4548872113227844,1.1853922605514527,0.822650671005249,2.936509609222412,2.053953170776367,2.446870803833008,0.3700551986694336,0.25801199674606326,0.09070256352424622,0.7918914556503296,2.7057266235351564,1.5725352764129639,-2.1413681507110597,2.0310702323913576,2.5876502990722658,1.5391662120819092,3.7676196098327638,-2.4740514755249025,-1.3979277610778809,3.6241490840911867,3.3883676528930666,0.19019800424575807,-0.11443838477134705,0.7321254014968872,1.5721232891082764,-0.6873540878295898,-0.136607825756073,1.8439133167266846,2.534482717514038,1.4105632305145264,0.9878630638122559,4.09766960144043,-1.770179271697998,-0.28119251132011416,2.108570098876953,2.3593406677246095,4.0044708251953129,0.8126355409622192,0.47165319323539736,3.846513271331787,1.144659399986267,0.3698307275772095,-2.3137590885162355,1.0693598985671998,1.6606590747833253,1.1829854249954224,0.4208892285823822,-0.14809787273406983,-2.2417914867401125,0.5798649191856384,0.9003310203552246,1.6857174634933472,3.3790132999420168,0.8195039629936218,-3.244440793991089,4.14521598815918,-0.6595985889434815,1.6479004621505738,2.774117946624756,0.6590702533721924,0.42892980575561526,2.7575113773345949,-0.5903459787368774,0.9510447978973389,0.9531425833702087,0.8065792322158814,-2.3377063274383547,2.847259998321533,2.156132698059082,1.9993581771850587,0.583045482635498,1.0537797212600709,5.198131084442139,1.7427475452423096,2.8586318492889406,1.88508939743042,4.167905807495117,0.310680091381073,1.449202299118042,1.635278582572937,-0.7156621217727661,-0.5617177486419678,0.05268877372145653,-3.1030213832855226,0.25597819685935976,-0.7755658030509949,0.8506838083267212,-0.8608002662658691,2.424755573272705,0.8487162590026856,1.1522347927093506,2.6050708293914797,0.6198944449424744,-0.7466177344322205,0.9958897233009338,1.9563987255096436,0.49420323967933657,2.1174392700195314,1.7421810626983643,3.327664852142334,0.7471078634262085,-0.05127054825425148,2.4864261150360109,3.089846611022949,2.1236345767974855,3.5929319858551027,1.9825059175491334,2.326491117477417,-1.0061732530593873,-0.7270923852920532,3.065361976623535,0.46403321623802187,1.9136930704116822,-0.9412599205970764,-0.7372064590454102,1.1764246225357056,2.1370344161987306,-1.4350258111953736,0.42809730768203738,-0.3238714337348938,-0.08069181442260742,-0.9244638681411743,0.5414552092552185,-1.909079909324646,-1.2317875623703004,4.087998390197754,0.1871020793914795,-0.6829729080200195,-0.3356989026069641,0.05684143304824829,-0.23349666595458985,2.512289524078369,0.9330169558525086,-2.7679014205932619,0.8487989902496338,1.0568580627441407,-0.9289010763168335,-1.527937412261963,4.513730049133301,1.6128599643707276,1.4127399921417237,-2.123344898223877,0.15967899560928346,2.172513246536255,-0.3042481541633606,3.0382752418518068,-1.3619914054870606,-0.20479141175746919,-0.09459999203681946,0.025463104248046876,1.0907137393951417,-1.1880601644515992,-1.444019079208374,2.394540548324585,-1.0905708074569703,1.4721908569335938,0.3247736096382141,1.1829216480255128,0.9105938076972961,-1.4665710926055909,0.32237863540649416,-0.17010964453220368,2.4188339710235597,3.3634350299835207,-0.48966723680496218,0.7932656407356262,0.1136067807674408,0.9293091297149658,0.9311939477920532,3.242204189300537,3.180276870727539,1.5146561861038209,-0.33876314759254458,-0.4571659564971924,2.3936166763305666,-2.0956995487213136],"Biases":[0.0,1.0,1.0,1.0,1.0,1.0,1.0,0.5]},"NetworkTrainingRate":0.7938276536982895,"NetworkBestResults":[161.63685607910157],"NotationCoefficient":161.63685607910157,"DNAVersion":12}