{"HasData":true,"NeuralNetworkName":"Jumper Big Neural Net 8 Layers","StartTrainingRate":0.5,"NeuralNetworkDna":{"Weights":[2.0023083686828615,1.5238488912582398,0.3174910247325897,3.858863592147827,0.23513999581336976,1.010183334350586,-0.687569797039032,1.5619816780090333,-0.011945411562919617,-1.7870086431503297,0.13572347164154054,2.7143595218658449,-0.6554211974143982,-1.8950799703598023,3.4518659114837648,0.9916138052940369,1.6316709518432618,-1.6334707736968995,1.9943718910217286,0.0345332957804203,-1.3870066404342652,1.1911101341247559,2.0521559715270998,-1.3582260608673096,-1.2291035652160645,1.069969654083252,-2.4914731979370119,-0.8730553388595581,-0.1551586389541626,-2.117741823196411,0.1468963921070099,1.815159797668457,-0.26698029041290285,1.5771152973175049,-0.13612864911556245,0.28375816345214846,2.783154249191284,1.038545846939087,-0.02396029233932495,-2.142671585083008,0.9549680948257446,0.5051538944244385,-1.1507289409637452,3.3412556648254396,1.4434491395950318,0.6625285148620606,2.0069379806518556,0.9972900748252869,-1.4235258102416993,-0.15557222068309785,0.4325011372566223,-1.290921688079834,0.36049413681030276,2.187617301940918,0.7127930521965027,-2.01190185546875,0.9472845792770386,1.7455909252166749,0.630781352519989,-0.0025166496634483339,-1.4199044704437256,0.6390266418457031,0.7040693163871765,-0.02582918107509613,-0.26572152972221377,-0.35878461599349978,-2.475442409515381,0.654701828956604,-0.2567661702632904,-0.7601303458213806,0.22096231579780579,3.3560492992401125,0.5461963415145874,2.551187753677368,1.5466699600219727,0.25389668345451357,1.202532410621643,0.9113346338272095,0.18321184813976289,-0.9494675397872925,0.3524380028247833,-1.1776611804962159,-0.33237162232398989,-0.3984617590904236,0.7366358041763306,-1.5117324590682984,-1.4980967044830323,3.1363539695739748,-0.05104841664433479,0.5093403458595276,-0.5970052480697632,0.6342617273330689,1.5351001024246216,0.025982633233070375,-0.43409401178359988,0.1271982491016388,0.23397697508335114,0.06245081126689911,2.174154758453369,0.6160005927085877,3.4302399158477785,0.7704041600227356,-0.04814307391643524,-0.8785099983215332,0.2959570288658142,-0.15160202980041505,1.2470088005065919,2.7407493591308595,0.1692446917295456,0.6881663799285889,-1.0633398294448853,0.0907328799366951,0.227262943983078,1.4872479438781739,1.8943262100219727,1.8545324802398682,2.8580398559570314,2.2929179668426515,0.25084102153778078,0.17308126389980317,0.5582753419876099,1.6582167148590088,0.4629323482513428,-0.9387601017951965,-1.4549798965454102,-0.07638627290725708,0.03635472059249878,2.2823824882507326,-1.5190765857696534,1.5266361236572266,2.8391335010528566,1.2340060472488404,0.7329076528549194,-0.08036242425441742,0.20471027493476869,-0.02915261685848236,2.2997758388519289,-1.0216948986053467,-0.39761507511138918,2.075364112854004,-1.4618332386016846,-1.7729758024215699,0.6273999214172363,0.33235350251197817,0.9165722131729126,-0.45687347650527956,0.27286437153816225,2.6584901809692385,1.2664520740509034,0.020365707576274873,2.3245415687561037,-1.429699420928955,-0.7521765828132629,1.7238738536834717,-1.3071439266204835,0.8244531154632568,-1.5505939722061158,-0.19931401312351228,1.4098210334777833,0.18470290303230287,0.6123731732368469,-1.161834716796875,-0.42246368527412417,1.619365930557251,-1.203994631767273,0.18619604408740998,0.6736887097358704,-0.1741889864206314,2.7815284729003908,-1.2246506214141846,-0.6237502098083496,2.472731828689575,2.081594944000244,1.9088010787963868,1.2825486660003663,0.07352672517299652,-0.8702843189239502,0.36369454860687258,1.3165074586868287,-0.4984312951564789,0.9931347370147705,3.0619945526123049,-1.5539770126342774,-0.8306131958961487,1.3099948167800904,0.5813405513763428,0.43969905376434328,-0.19547057151794434,-2.0259690284729006,0.14999601244926454,0.6194375157356262,1.3138339519500733,1.3109734058380128,-0.09082476049661637,-0.4811417758464813,2.372147798538208,2.0154967308044435,-2.2296178340911867,1.693972110748291,-0.6711936593055725,0.12931464612483979,-1.3756299018859864,0.7681097984313965,0.6836553812026978,0.012266822159290314,0.6569867134094238,0.6238117814064026,-0.6458669304847717,0.49589475989341738,-0.8060474395751953,-0.7273335456848145,1.7251700162887574,0.9657107591629028,1.5621544122695923,1.1951804161071778,2.7074170112609865,-0.6687341928482056,0.22462281584739686,-1.0766398906707764,4.509735107421875,1.3873072862625123,0.729533314704895,-1.4835435152053834,-0.7535123229026794,1.2770607471466065,2.986912727355957,1.3491547107696534,0.3161279559135437,1.01234769821167,2.141807794570923,-2.427989959716797,-0.7505277991294861,-0.26494988799095156,1.9373282194137574,0.44231492280960085,0.5896537899971008,1.7825794219970704,-1.2240620851516724,-2.9694714546203615,-2.8833954334259035,1.0379054546356202,-0.8917281031608582,3.0204946994781496,1.9851999282836915,-0.21326978504657746,0.7287182211875916,1.849947452545166,-0.14792542159557343,1.0276082754135132,1.5126286745071412,2.2179508209228517,1.5139867067337037,1.2614213228225709,1.3587987422943116,1.2738631963729859,1.3548166751861573,2.2277209758758547,-1.0059301853179932,2.4744699001312258,-0.08322286605834961,0.5731326341629028,0.041592925786972049,1.3993136882781983,-0.08074238896369934,-0.4327356517314911,-1.039705753326416,0.8574724793434143,0.8854630589485169,-1.5566595792770386,-0.3143422603607178,-0.6943148970603943,3.6112914085388185,0.7365472316741943,0.8054407835006714,-2.209399938583374,-1.377974033355713,0.7380198836326599,-0.735210657119751,2.044381856918335,2.9639387130737306,-2.2375149726867677,-1.2524960041046143,-0.4119032919406891,-2.694713830947876,-1.9169116020202637,1.1599355936050416,1.949143886566162,2.054854393005371,-0.1118592619895935,-0.3468098044395447,0.8446370959281921,0.44840043783187868,0.6910871267318726,1.8169503211975098,-0.9652379751205444,0.1022941917181015,1.5170551538467408,-1.3734984397888184,-0.09433045983314514,2.420748710632324,0.42099708318710329,1.340477705001831,1.8523387908935547,-2.1430399417877199,-0.061470501124858859,2.1945643424987795,-1.1038203239440919,-2.4747300148010256,0.10793577134609223,0.9373611211776733,5.487643241882324,0.8278632164001465,-0.270564466714859,-1.0312851667404175,-2.5449037551879885,0.06428176909685135,0.633242130279541,0.47821182012557986,2.2195963859558107,-0.904212236404419,-0.9775677919387817,2.5061049461364748,-0.30692043900489809,0.815937876701355,0.6847855448722839,2.2593328952789308,-0.7877540588378906,0.4412328004837036,0.8563024401664734,-0.7356830835342407,-1.2314784526824952,3.533860683441162,1.6863632202148438,2.1891486644744875,3.237607955932617,-1.3201713562011719,1.3081552982330323,-0.33179765939712527,3.497171401977539,0.5086188316345215,-2.583542585372925,0.3222956657409668,-0.07097987830638886,-0.7861874103546143,0.7020298838615418,-0.2767713665962219,-1.4002211093902588,0.7465686798095703,-0.1295238733291626,-1.1152479648590088,2.5937037467956545,0.611794114112854,1.8481677770614625,2.6031908988952638,0.7112517952919006,0.9200235605239868,0.8461739420890808,1.2074058055877686,2.384434461593628,-0.33295416831970217,-0.951835036277771,-1.4597487449645997,-0.43233802914619448,0.5849975943565369,1.0219190120697022,3.272496461868286,-0.4727833867073059,-0.4027860462665558,-0.8602561950683594,0.23294711112976075,-0.2637871205806732,2.2565059661865236,-0.14119470119476319,1.0764918327331544,-3.1527955532073976,-0.16523584723472596,-1.024003028869629,0.03539013862609863,0.07280850410461426,2.0797781944274904,1.698131799697876,0.8071396350860596,-0.6360190510749817,0.7373043298721314,3.01641583442688,0.04820415377616882,-0.9540903568267822,0.7585749626159668,2.85598087310791,-0.09626629203557968,-0.5983144044876099,1.82350754737854,1.0284316539764405,1.2897697687149048,0.8179362416267395,1.2125060558319092,-2.2631068229675295,-2.5704212188720705,-0.9454784393310547,-0.6196888089179993,1.1631522178649903,1.4823647737503052,0.29590705037117007,2.1354568004608156,1.6376017332077027,-2.0182082653045656,-0.9333391785621643,1.5925734043121338,-1.5051591396331788,-0.29825085401535036,2.3718819618225099,1.0794602632522584,0.09823928773403168,0.5608121752738953,1.819772481918335,0.1809946447610855,2.4656009674072267,-0.709010124206543,1.1070513725280762,0.579247772693634,-0.9367179870605469,0.3476295471191406,0.45415085554122927,0.7709230184555054,1.0790244340896607,-0.15625318884849549,0.4871140420436859,-4.339552879333496,-1.2088358402252198,2.5163557529449465,0.14770789444446565,1.232435941696167,0.6976116895675659,2.403132677078247,-0.1400337964296341,-0.29941701889038088,2.8600664138793947,-2.402479648590088,-0.22172516584396363,-1.2663593292236329,-0.8167449235916138,0.4759552478790283,1.7885395288467408,2.4735851287841799,1.6361501216888428,-1.5868782997131348,2.736687660217285,0.6538512110710144,-1.864006757736206,1.1957650184631348,1.9377772808074952,-1.9865138530731202,0.32450366020202639,1.742294192314148,-2.6884541511535646,2.411036968231201,4.19120979309082,0.4200238585472107,3.3026840686798097,-0.15596942603588105,2.8583645820617677,-0.4668794870376587,1.7693085670471192,2.0021841526031496,0.7854636907577515,3.739318370819092,1.7710825204849244,0.8412429094314575,-0.07462659478187561,-0.7534287571907044,2.1216237545013429,3.0454084873199465,-1.8452171087265015,2.869619369506836,-1.7381261587142945,-1.6382097005844117,1.4527037143707276,1.540400743484497,0.34323078393936159,2.1529362201690676,-0.5827103853225708,-0.8100630640983582,-0.6702863574028015,2.0252668857574465,-1.4106967449188233,1.1598774194717408,2.6841769218444826,-0.967475950717926,-0.545410692691803,-0.5913832187652588,1.9819176197052003,1.8839211463928223,-0.6433457732200623,1.5158356428146363,-2.309555768966675,3.472555637359619,2.3433403968811037,-2.639503002166748,1.5150657892227173,-0.045020148158073428,0.23274429142475129,-2.903562545776367,5.275312900543213,2.741111993789673,-0.6365405917167664,-1.4758424758911133,0.027907326817512513,0.3238399624824524,2.4375624656677248,2.1572265625,1.775213599205017,1.6690473556518555,-2.7220022678375246,-0.47419440746307375,0.8238105177879334,-0.2617679834365845,0.8256517648696899,1.2548836469650269,0.855102002620697,0.27888453006744387,-1.01434326171875,-0.04921385645866394,1.5361884832382203,0.5735495090484619,-0.8164142370223999,1.3481513261795045,-1.3685612678527833,2.9134459495544435,2.6191062927246095,-0.49894076585769656,1.5678353309631348,0.2982248365879059,0.4411192834377289,1.4205423593521119,1.7999671697616578,0.046984344720840457,-0.055372051894664767,-0.8945385813713074,2.9186925888061525,1.2331933975219727,-0.14992719888687135,1.372812271118164,1.7788658142089844,-0.5774683356285095,0.21869124472141267,1.794520378112793,-0.2614111602306366,0.3456880450248718,1.2735093832015992,1.5220575332641602,-0.49258464574813845,0.9697951674461365,2.0609242916107179,-0.690049409866333,-0.4709697663784027,1.1749390363693238,0.31091952323913576,-0.9499177932739258,-0.7254614233970642,2.655963897705078,0.6822745203971863,0.502250611782074,-0.9279438257217407,-0.9372058510780335,1.0551201105117798,0.6861660480499268,1.692536473274231,1.713725209236145,-3.274974822998047,-1.0010548830032349,1.985071063041687,-0.0848526656627655,1.4080753326416016,1.3933013677597047,0.6887634992599487,1.5852404832839966,2.5551764965057375,0.895656406879425,1.7031601667404175,1.5360498428344727,1.9614896774291993,0.9158735275268555,2.383434534072876,-0.12954771518707276,0.3360631763935089,-2.1143221855163576,0.6855887770652771,-1.2759389877319337,-2.129756212234497,0.7364201545715332,2.1345019340515138,0.33880752325057986,-1.2674237489700318,-0.027690663933753969,3.0717878341674806,-0.6471706628799439,1.8537952899932862,3.4814467430114748,1.08912992477417,0.23520317673683167,-2.3253238201141359,2.487952709197998,1.4798827171325684,1.1419601440429688,1.1583983898162842,2.3148679733276369,-1.4686083793640137,1.2768712043762208,-0.7131173014640808,2.2212324142456056,0.0817747563123703,0.9281340837478638,-0.3184159994125366,0.5708516240119934,0.483349084854126,0.5362516045570374,-0.9343408346176148,2.00179123878479,1.2317553758621216,1.0729682445526124,2.504744052886963,-0.3181324601173401,-1.1364691257476807,2.1929733753204347,-0.715690016746521,-0.24727082252502442,1.663904070854187,-0.20272178947925569,2.8276615142822267,-1.4562435150146485,2.0805909633636476,1.368302345275879,0.8029357194900513,-0.519761860370636,2.924165725708008,0.9695394039154053,1.5124229192733765,0.24852776527404786,1.0501497983932496,2.140315055847168,1.698744773864746,0.15150579810142518,0.556448221206665,0.6863806247711182,-0.6514668464660645,-0.6828451156616211,0.9843807220458984,-1.64481782913208,2.7310872077941896,1.1728817224502564,1.2500520944595338,0.6193979978561401,-1.1975758075714112,-0.7322239279747009,0.10089676082134247,1.3226227760314942,0.4996284544467926,0.2277929186820984,1.1848031282424927,0.49886441230773928,-0.3331860601902008,3.8489999771118166,-0.751946747303009,-0.05769786611199379,-1.1480833292007447,1.5677756071090699,1.0920175313949586,-0.9455413818359375,-0.12571579217910767,2.0605854988098146,1.6070225238800049,0.6661072373390198,2.2437338829040529,0.10531417280435562,0.8293701410293579,0.6315928101539612,-0.47641411423683169,-0.7346156239509583,-0.7249362468719482,1.6220089197158814,0.9020411968231201,0.7836576104164124,-0.18120929598808289,-0.6542459726333618,1.8933804035186768,0.272722452878952,-1.9173696041107178,0.6830109357833862,1.9313576221466065,2.062706708908081,1.549480676651001,0.8422397375106812,-0.13068833947181703,0.798778772354126,1.3038675785064698,0.7907705903053284,-1.0178563594818116,0.23607799410820008,-0.8555269241333008,0.733238935470581,0.5295851826667786,-1.4678068161010743,1.342085361480713,-0.0558304637670517,0.9859044551849365,0.32671093940734866,0.2814714014530182,0.3909257650375366,1.6689025163650513,-0.5073658227920532,-0.9079753160476685,2.256878137588501,-0.7520633935928345,-0.3975629508495331,0.33864930272102358,0.5083595514297485,-1.1476072072982789,0.6719210147857666,-0.9660544991493225,1.2907673120498658,-0.5865563154220581,1.7558361291885377,-1.5033717155456544,-1.3628873825073243,1.9196826219558716,-0.3263437747955322,2.1519289016723635,4.646862030029297,0.35645171999931338,1.4859209060668946,3.4475631713867189,0.37643474340438845,-0.8562216758728027,-0.23715269565582276,0.3956601619720459,1.4972374439239503,0.780707061290741,1.41298508644104,-1.605559229850769,0.04330375790596008,-1.6141538619995118,-0.28407955169677737,0.5002877712249756,2.019069194793701,3.466843366622925,2.2031729221343996,0.7297091484069824,1.1777474880218506,-0.24843105673789979,-3.1594150066375734,-1.8041763305664063,0.6362564563751221,1.3408186435699463,1.581475019454956,2.0697484016418459,-0.9114021062850952,1.0479531288146973,0.7693737745285034,0.35766541957855227,-0.5345558524131775,2.8234002590179445,-0.5258479118347168,3.5378150939941408,2.012031078338623,1.4521090984344483,1.753434419631958,2.5471978187561037,2.2543387413024904,-1.297847032546997,0.11712636053562164,0.624802827835083,0.6862398386001587,1.7675819396972657,-1.1871072053909302,4.064404487609863,3.396822690963745,1.5238263607025147,-0.33366626501083376,-1.148676872253418,1.4199366569519044,0.764041543006897,1.4486041069030762,2.4287428855895998,1.3804423809051514,-0.8005794882774353,0.4912358224391937,0.9614413380622864,0.4333617687225342,4.85203742980957,3.9563279151916506,1.1960664987564088,4.300207138061523,3.8524982929229738,3.1504616737365724,3.215216636657715,0.9056902527809143,-0.11301018297672272,1.9497730731964112,2.560272216796875,3.0823981761932375],"Biases":[0.0,1.0,1.0,1.0,1.0,1.0,1.0,0.5]},"NetworkTrainingRate":0.4322168949034712,"NetworkBestResults":[15.310700416564942],"NotationCoefficient":15.310700416564942,"DNAVersion":24}