{"HasData":true,"NeuralNetworkName":"Jumper Big Neural Net 8 Layers","StartTrainingRate":0.5,"NeuralNetworkDna":{"Weights":[3.6169593334198,-1.0740054845809937,-0.5587661266326904,0.7475134134292603,0.29238468408584597,-0.6687804460525513,1.094064712524414,-1.5037156343460084,0.46980535984039309,0.3382101356983185,1.4867565631866456,2.324923515319824,-0.15199077129364015,-0.6447749733924866,0.17160609364509583,-1.0867187976837159,-0.41468074917793276,-0.129610076546669,1.1850872039794922,-1.1996029615402222,0.9518607258796692,2.077458381652832,0.9135794639587402,0.8638361096382141,-0.27318236231803896,-0.7108240127563477,3.622814178466797,0.10222381353378296,-0.7590885162353516,0.5158141851425171,-0.9297146797180176,1.3101959228515626,-0.24425575137138368,0.429720938205719,-1.0133029222488404,0.6291981339454651,-0.41562938690185549,-0.7630025148391724,-1.9613741636276246,-0.7405514717102051,0.37609630823135378,1.294504165649414,2.956153631210327,-1.2461364269256592,2.068103313446045,1.2165095806121827,1.2761991024017335,0.35401231050491335,-0.09988866001367569,0.3061882555484772,1.1908912658691407,0.03855267912149429,1.4248607158660889,0.8965295553207398,2.246302843093872,1.3971718549728394,-0.031542494893074039,1.5585969686508179,0.17382687330245973,0.1719401478767395,-0.09802067279815674,-0.059404000639915469,-0.9232470989227295,-0.4556123614311218,1.159940481185913,0.47457456588745119,0.5455195307731628,3.778316020965576,-0.261221706867218,-0.46390631794929507,0.5064182877540588,1.134400486946106,-0.31138575077056887,0.7139129638671875,2.249904155731201,0.9296964406967163,1.1155186891555787,-0.9262616038322449,0.9932208061218262,1.0862181186676026,-1.0227609872817994,0.6428343653678894,-1.2152507305145264,0.7957296371459961,0.5155848264694214,-0.12064551562070847,0.17891256511211396,-0.974867582321167,-1.689851999282837,2.155360460281372,1.244871973991394,-0.5590721368789673,-0.6208027601242065,2.0488085746765138,1.9287469387054444,2.4650845527648927,0.6243157386779785,1.157685399055481,-2.3201539516448976,0.00988839566707611,-2.637449264526367,1.0274162292480469,-1.6107933521270753,0.2807576656341553,0.3491964042186737,-0.2973509728908539,0.9032722115516663,0.7396310567855835,1.3165175914764405,2.9966800212860109,-0.8968021869659424,1.0959601402282715,-1.5074771642684937,0.405731201171875,1.2346506118774415,0.9655423760414124,1.360256314277649,0.18623492121696473,0.7128544449806213,-0.5196421146392822,-0.20677515864372254,0.05301752686500549,0.6885234117507935,1.682755470275879,-0.8092180490493774,-0.28477081656455996,-0.406332403421402,0.8117201328277588,2.246863842010498,1.6820157766342164,0.003195464611053467,-0.05259136110544205,-0.6671724915504456,-0.2846323549747467,2.7339813709259035,0.5528461933135986,-0.33442574739456179,-0.07180401682853699,1.352252721786499,-1.3631383180618287,1.410115122795105,0.17088082432746888,-0.6273776292800903,1.4029583930969239,0.12902382016181947,-0.7292754054069519,0.14809083938598634,-0.27365642786026,1.0467140674591065,-2.253157377243042,1.4004896879196168,-1.8685214519500733,-0.7970170974731445,0.3416682481765747,-0.06454133987426758,-0.5962417125701904,0.6077943444252014,0.9396483898162842,1.4049789905548096,1.1206464767456055,-0.8328533172607422,2.4374606609344484,-1.0605872869491578,1.832632303237915,1.184822916984558,-0.19255509972572328,-1.4669382572174073,0.835513710975647,0.9068326354026794,0.6552491784095764,2.3629403114318849,-0.8840698003768921,0.26240503787994387,0.7867252826690674,-0.11981646716594696,-1.4726289510726929,1.5881928205490113,-1.5172669887542725,-1.146220326423645,-1.0208461284637452,0.837897777557373,-0.14641377329826356,1.2668009996414185,2.712388515472412,0.6841049790382385,3.394674301147461,0.3308285176753998,0.5998612642288208,-0.5862634181976318,-1.283262014389038,1.9632396697998047,2.4309000968933107,-0.9308162331581116,1.6986995935440064,1.5302234888076783,-0.9012033939361572,-1.6516599655151368,0.18392285704612733,1.6095861196517945,1.2477316856384278,0.8102021217346191,1.576824426651001,-0.5579110383987427,-0.5294350385665894,-0.4681990146636963,-0.11132839322090149,-0.21015122532844544,0.16165757179260255,-0.03439521789550781,-0.8183114528656006,-3.6201961040496828,-0.26644039154052737,1.8234831094741822,1.1952447891235352,2.6392979621887209,0.24598541855812074,0.9098755717277527,1.6391880512237549,-0.03669031709432602,-2.5764472484588625,0.20625188946723939,0.6652276515960693,-0.4019729197025299,0.08833150565624237,2.0355043411254885,-2.536357879638672,1.1377336978912354,0.014330878853797913,0.3525281846523285,3.457097053527832,-0.9073968529701233,2.241316556930542,0.9095947742462158,-0.9569330811500549,-1.2275484800338746,0.089682936668396,0.1655597686767578,0.3213123679161072,0.7017624378204346,1.2989522218704224,-2.124814748764038,-0.026278123259544374,1.5576921701431275,-0.33178168535232546,-0.726327657699585,-0.38596200942993166,-0.4736272692680359,0.22461485862731934,0.4300821125507355,-0.5781623125076294,0.9197285175323486,0.7639188170433044,-0.11464502662420273,0.5578665137290955,0.40792539715766909,0.8389741778373718,0.37641406059265139,-0.11284798383712769,1.9488954544067383,0.5603333115577698,2.8490331172943117,1.1073334217071534,-3.1232032775878908,0.00012620165944099426,0.06404869258403778,1.0137978792190552,0.5290632247924805,0.7776208519935608,1.1373265981674195,-1.68961763381958,0.10811081528663635,0.47330087423324587,0.26871034502983096,-0.5269461870193481,-0.5247255563735962,0.870307981967926,2.3830459117889406,0.5595936179161072,-1.287502646446228,0.1357596516609192,0.7618683576583862,-0.13435664772987367,1.672023057937622,-1.20797860622406,-0.42059582471847536,0.12527447938919068,0.4870949983596802,-1.0706225633621216,1.4051814079284669,1.3717858791351319,-0.6815740466117859,2.383117914199829,0.33337968587875368,-0.031131088733673097,0.5893121957778931,-1.7329068183898926,2.6723527908325197,-0.5995962023735046,-0.13489359617233277,-0.4340401589870453,-1.0917267799377442,2.2072267532348635,2.3598098754882814,-3.1133201122283937,0.2104518860578537,-0.1967456042766571,1.3824968338012696,2.024099349975586,2.0073249340057375,-0.5342170596122742,2.185351848602295,0.1598273366689682,1.2061007022857667,0.11653308570384979,-0.10706428438425064,0.6632828116416931,-1.295863389968872,-0.6626607775688171,2.154465913772583,-1.297682285308838,0.7371203899383545,-0.7260914444923401,0.3996865451335907,1.0987110137939454,-0.565579354763031,-0.36058080196380618,-1.7778469324111939,-0.5033989548683167,-0.23390555381774903,1.1667532920837403,2.437530755996704,3.227731466293335,0.7596147656440735,0.7422818541526794,0.20353564620018006,0.7641047239303589,0.0664059966802597,-1.517760992050171,0.912045419216156,1.2133409976959229,-1.1629735231399537,0.40836983919143679,-1.6437857151031495,-0.003246838925406337,-0.055061981081962588,-0.06525678932666779,3.527161121368408,1.1707746982574463,-1.5405651330947877,-0.39265093207359316,0.5310704112052918,-1.0456775426864625,1.2173322439193726,0.4326295554637909,0.4232279062271118,0.5226062536239624,0.6827856302261353,2.1203179359436037,1.2488889694213868,0.9595195651054382,2.32255482673645,0.1962948888540268,0.40731769800186159,-1.1551166772842408,-0.4747384488582611,1.7691266536712647,-0.9511493444442749,-0.48872148990631106,-0.9705111980438232,0.2786627411842346,0.3703274130821228,-0.4959467351436615,-1.5716803073883057,0.1190589964389801,1.6871824264526368,0.2539505362510681,2.1554510593414308,-0.5846238732337952,1.3417482376098633,-0.33146756887435915,1.5280241966247559,0.1137005090713501,-0.01101095974445343,0.5830938816070557,1.402550458908081,-0.29218143224716189,-0.7775094509124756,-0.43285518884658816,-0.9484081864356995,1.958937644958496,-0.7206035256385803,-1.5921660661697388,1.7664347887039185,1.215705156326294,0.1399097591638565,0.9713888168334961,-0.12174536287784577,-1.1804707050323487,-1.8410927057266236,-0.5241856575012207,0.0667724609375,0.35219573974609377,-0.4978903532028198,-0.046007752418518069,0.9915725588798523,0.2256411612033844,0.6580426692962647,1.6721177101135255,0.2046704888343811,-1.2605233192443848,0.6784050464630127,2.14225172996521,-0.9024791717529297,0.5762922763824463,0.7033988833427429,1.1385124921798707,2.3478598594665529,-1.4844558238983155,1.0155812501907349,-0.2656439542770386,1.554431438446045,0.643143892288208,2.84523606300354,-0.511192798614502,1.4462133646011353,1.29117751121521,0.8464531302452087,1.7217603921890259,-0.13184493780136109,1.5853760242462159,0.03931663930416107,1.7784113883972169,3.435741424560547,0.957916259765625,0.5824849605560303,0.32183539867401125,0.6742061972618103,-0.1894102245569229,0.8389036059379578,2.6014151573181154,1.7140952348709107,1.2354822158813477,-0.4508519768714905,0.8752957582473755,-1.032408595085144,1.2577464580535889,0.4458417594432831,1.976342797279358,0.8453106880187988,-0.4613766372203827,1.5459990501403809,1.7125355005264283,0.8244530558586121,0.688595712184906,-1.2254302501678467,0.2592982053756714,0.8551512956619263,-0.45928674936294558,-1.6432385444641114,-2.2222232818603517,1.4689314365386963,1.648098111152649,0.4503413438796997,0.03665013611316681,0.3373401463031769,0.7904366850852966,0.39838138222694399,0.43175265192985537,-0.06703455746173859,0.7819603681564331,0.32330769300460818,0.12520422041416169,0.3596835136413574,0.14413262903690339,-0.6095567345619202,-0.6191429495811462,-0.24023397266864777,0.20667710900306703,1.004202127456665,0.052239373326301578,-0.576886773109436,-1.4015963077545167,0.29206526279449465,-0.10027243196964264,-2.0443029403686525,0.5051722526550293,-1.0175532102584839,0.5246495008468628,1.3932099342346192,0.1908075213432312,-0.6811736822128296,-0.14504893124103547,1.2543362379074097,0.2896447479724884,1.4827758073806763,-0.1253553181886673,0.5187416672706604,0.5895959138870239,-0.6810639500617981,-0.5008643269538879,1.9896982908248902,5.205781936645508,1.1651040315628052,0.04766664654016495,0.192500501871109,-1.1234638690948487,1.7032089233398438,0.43245965242385867,1.4800114631652833,2.4543983936309816,2.80368709564209,-0.8177030086517334,0.24745100736618043,0.29512718319892886,-1.9059486389160157,0.07083317637443543,0.18211661279201508,0.46517041325569155,0.0723918080329895,1.9490145444869996,0.015003364533185959,1.471149206161499,-0.32563385367393496,1.8716684579849244,1.7511416673660279,0.32734838128089907,-1.0652004480361939,-0.7201242446899414,0.9514011144638062,0.5464807748794556,-1.7835720777511597,1.1899781227111817,0.12134397029876709,1.0681993961334229,1.625990629196167,0.32136571407318118,2.281184673309326,-0.3438356816768646,-0.3696749806404114,0.909903883934021,-0.21913869678974152,3.2491183280944826,0.4073777198791504,-0.5161147117614746,-0.5656861662864685,1.6664328575134278,-0.2243930697441101,0.0509178601205349,1.1296406984329224,-0.5544052720069885,0.337032675743103,0.22640082240104676,-1.5114352703094483,-0.5362261533737183,0.39205294847488406,1.8309179544448853,1.8860995769500733,-0.9596845507621765,0.6467158794403076,-0.9357343316078186,-0.25905850529670718,-0.7356314659118652,-0.6709993481636047,0.08976961672306061,1.1091830730438233,0.31603819131851199,-0.06174580752849579,0.9941788911819458,3.1233599185943605,-2.818436622619629,-1.2671573162078858,-1.305897831916809,0.3840057849884033,2.1616976261138918,0.0777461901307106,-0.011628314852714539,0.5484316349029541,-1.289860725402832,0.20774537324905396,-0.5208781957626343,-1.684154987335205,1.3637304306030274,0.3098143935203552,-1.695420503616333,-0.2716674506664276,1.3082736730575562,-0.0758739709854126,-0.5191856026649475,-0.5907846689224243,-0.17427921295166017,0.36179637908935549,0.5967909097671509,1.3195338249206544,-0.2573932111263275,1.1408988237380982,-1.089622974395752,2.5702834129333498,-1.633440613746643,-1.3342067003250123,0.04520869255065918,0.8126848936080933,2.513322353363037,-1.6428372859954835,1.1444218158721924,0.4413478970527649,1.6543371677398682,-0.1858764886856079,2.4511666297912599,1.976271390914917,0.7007992267608643,0.826803982257843,-2.584258556365967,0.5946696400642395,0.16800835728645326,0.6990268230438232,2.400822401046753,-0.790145993232727,-0.1192309707403183,-0.328885555267334,-0.37872302532196047,0.2866363823413849,0.7853196859359741,1.7794476747512818,1.4009006023406983,3.625213623046875,-0.4330812096595764,-0.7443923950195313,-0.42373114824295046,-1.8124245405197144,0.23066478967666627,-0.15477564930915833,0.674035906791687,0.3377673029899597,0.8435859084129334,1.0245941877365113,-0.5230710506439209,-1.9422279596328736,2.283564329147339,0.7868051528930664,1.8266220092773438,0.6740425825119019,-2.4462544918060304,0.33376556634902956,2.746704578399658,1.2513562440872193,-0.30439499020576479,1.600777506828308,0.277182936668396,1.1550124883651734,0.09469889104366303,1.0680418014526368,-0.16215887665748597,0.47498273849487307,2.3554129600524904,0.559907853603363,-1.5224119424819947,0.21173807978630067,2.270432949066162,-0.0938667431473732,1.8917737007141114,1.722920298576355,-0.3477439880371094,-0.6223442554473877,1.351131796836853,1.0691399574279786,-1.1214202642440797,0.3880711793899536,1.9093055725097657,0.6885354518890381,0.5138140916824341,1.1269583702087403,0.08052271604537964,-0.03263065218925476,-0.5699250102043152,0.5394996404647827,0.2981359362602234,0.6269004344940186,0.14653287827968598,1.525794506072998,1.8790216445922852,-1.8416008949279786,1.561797857284546,-0.13648374378681184,2.5495047569274904,1.1198973655700684,-0.31840699911117556,-0.03953809291124344,-0.6644498109817505,-0.7383342981338501,1.3943995237350464,2.508391857147217,-1.761109471321106,2.3273508548736574,-0.09302185475826264,-0.08428199589252472,-0.4150620102882385,1.1960854530334473,0.823365330696106,-0.6940805912017822,0.4341697096824646,0.048810407519340518,0.984315812587738,0.3259095847606659,1.6502256393432618,0.017550133168697358,2.3756604194641115,0.6104006767272949,0.7521562576293945,0.14410877227783204,0.7127100825309753,0.88774174451828,0.2857385277748108,-0.422126829624176,1.1595702171325684,-0.6817043423652649,2.3833210468292238,1.5692237615585328,1.5760774612426758,1.9622238874435425,0.4650808274745941,1.3849023580551148,2.1223926544189455,0.671495795249939,2.019503116607666,0.08764622360467911,-0.39993441104888918,-0.8100049495697022,0.8408978581428528,-0.35760918259620669,0.9895565509796143,0.9200692772865295,-0.2310890555381775,-0.9630828499794006,-1.2260271310806275,-0.8830441832542419,1.5540976524353028,2.385988712310791,0.5355851650238037,-0.7128407955169678,1.9394769668579102,0.0024516060948371889,-0.15202116966247559,-0.16960087418556214,1.6615386009216309,-1.03665030002594,0.4836291968822479,0.8886082768440247,0.4465661644935608,0.4714670479297638,0.12199963629245758,0.3385976552963257,1.0142956972122193,-0.7640892863273621,1.0615872144699097,-0.0961473286151886,0.6140697002410889,0.7010237574577332,0.01989782229065895,0.6859678626060486,1.2786316871643067,1.467248797416687,-1.5046889781951905,0.5488860607147217,0.45247378945350649,-0.25246462225914,-0.030027806758880616,0.6476538181304932,-1.9409677982330323,2.0806491374969484,0.8842701315879822,0.27894267439842226,2.4753150939941408,-2.676511287689209,1.045695185661316,2.0204708576202394,-0.3401973247528076,1.2236405611038209,-0.4454484283924103,-1.4023240804672242,-0.7919233441352844,2.614529609680176,3.36635684967041,0.6032811403274536,1.2032445669174195,1.5018259286880494,1.1196730136871338,-0.9432579278945923,0.8835786581039429,3.096052646636963,4.283912658691406,2.3777990341186525,2.4379937648773195,0.23012973368167878,2.6594462394714357,3.2779476642608644,0.5211487412452698,5.652270793914795,2.9185519218444826,3.479679584503174,2.758249044418335],"Biases":[0.0,1.0,1.0,1.0,1.0,1.0,1.0,0.5]},"NetworkTrainingRate":0.39221382278216496,"NetworkBestResults":[27.637910842895509],"NotationCoefficient":27.637910842895509,"DNAVersion":20}