{"HasData":true,"NeuralNetworkName":"Jumper Big Neural Net 8 Layers","StartTrainingRate":1.0,"NeuralNetworkDna":{"Weights":[0.7478324174880981,1.3071064949035645,0.6696867346763611,0.3922969698905945,-0.4391089677810669,0.12274061143398285,1.2680385112762452,1.2202978134155274,-0.0252305269241333,0.09285911917686463,0.5276397466659546,0.7457756996154785,-0.47500771284103396,1.534970998764038,1.2118672132492066,1.444817066192627,1.1584525108337403,0.33385491371154787,0.9764464497566223,1.5255320072174073,0.017410993576049806,1.7752065658569337,-0.3734358251094818,0.6875522136688232,-0.07266080379486084,1.2644888162612916,0.5080604553222656,1.2933892011642457,1.3142573833465577,1.2671313285827637,0.4406641721725464,-0.5057319402694702,0.6257777810096741,0.33236342668533327,0.9500598907470703,-0.9601274728775024,0.6642111539840698,-0.07176750898361206,0.7892917394638062,0.45818030834198,1.196157455444336,1.1541903018951417,0.8477316498756409,1.5232120752334595,0.24192366003990174,0.5917764902114868,0.3245013654232025,1.3771250247955323,0.5575655698776245,-0.42539525032043459,1.5024380683898926,0.12192487716674805,-0.15579228103160859,1.2176403999328614,0.6356452703475952,1.952398657798767,1.3245450258255005,-0.014450430870056153,1.053468942642212,1.3884071111679078,0.760124921798706,0.651192307472229,-0.7360051870346069,1.2437326908111573,0.028906583786010743,-0.4278716444969177,-0.0659116804599762,1.6286238431930543,-0.7204967737197876,1.5728216171264649,0.8012109994888306,0.9338122606277466,-0.31763845682144167,0.43391045928001406,-0.5370990037918091,0.861470639705658,-0.34972307085990908,-0.7106801271438599,0.2673710882663727,0.7760692238807678,-0.6627868413925171,0.586665153503418,0.998196542263031,-0.7201281785964966,0.9966797232627869,0.7911036014556885,1.4672430753707886,-0.2847791910171509,0.07760334759950638,0.8091444969177246,0.691264808177948,0.1965399980545044,-0.25591641664505007,1.2593793869018555,0.1972419023513794,-0.6494491696357727,0.5732009410858154,0.2327878177165985,-0.3090423345565796,0.7936365008354187,1.5245441198349,1.6203278303146363,1.086003303527832,0.46313154697418215,1.2804219722747803,0.8706791400909424,0.17532816529273988,0.41573870182037356,-0.06480976939201355,0.8115113973617554,1.8393840789794922,1.3786287307739258,1.476431131362915,1.3304269313812256,0.37267351150512698,0.6708425283432007,-0.23182763159275056,0.8879996538162231,0.36793243885040285,0.808224081993103,-0.6596678495407105,-0.025782644748687745,1.0735481977462769,-0.5757377743721008,0.6194195747375488,-0.12058508396148682,0.7939271926879883,0.1788850724697113,1.5801759958267213,0.6227786540985107,-0.8459169864654541,0.27935492992401125,-0.2605505585670471,0.1147112250328064,-0.3833865523338318,-0.32319945096969607,-0.12950336933135987,0.3545549213886261,-0.2829121947288513,0.7285263538360596,0.2935752272605896,0.02797907590866089,0.43449580669403078,0.8221282958984375,0.17652997374534608,1.6524803638458253,1.4748244285583497,-0.04239428788423538,0.30183684825897219,0.24044004082679749,1.5443897247314454,-0.04238399863243103,0.35475897789001467,0.8738164305686951,0.688562273979187,-0.08561402559280396,-0.5702016353607178,0.7179769277572632,0.9506916999816895,0.3049933612346649,1.4781666994094849,0.34240585565567019,-0.7861020565032959,0.7419331073760986,0.5178269147872925,0.6107164621353149,-0.39541465044021609,0.2771308124065399,-0.8448014259338379,-0.3861643970012665,1.4736833572387696,1.2852834463119507,1.2963807582855225,1.1075767278671265,0.6605581641197205,0.06220412254333496,-0.1797625720500946,0.49367401003837588,0.018659263849258424,1.1950620412826539,0.7532740831375122,-0.017713308334350587,-0.3254716396331787,0.7008274793624878,-0.26765209436416628,1.466630458831787,1.049216389656067,0.7937918901443481,-0.030453592538833619,-0.7159437537193298,1.0301845073699952,0.8706780672073364,0.15465226769447328,0.7346781492233276,0.06045717000961304,1.505925178527832,-0.3064831495285034,0.7762337923049927,-0.34991198778152468,1.3773506879806519,0.7034561634063721,-0.2771633267402649,1.535125732421875,-0.26868554949760439,0.7825977802276611,1.1781673431396485,0.5252012014389038,0.715885579586029,-0.11458203196525574,0.5119284391403198,-0.15470188856124879,-0.1957087218761444,0.159765362739563,-0.03469502180814743,0.2736150026321411,0.148993581533432,-0.2000911831855774,-0.13682052493095399,0.2820690870285034,0.9712830185890198,1.02097487449646,1.147719144821167,0.8245731592178345,1.620354175567627,0.6258672475814819,1.0860791206359864,1.435018539428711,0.6934570074081421,0.04283389449119568,1.8046919107437134,0.30568012595176699,-0.22339773178100587,0.11489105224609375,1.5043838024139405,-0.07537022233009339,1.7861967086791993,0.6840953826904297,0.20053830742835999,-0.006035447120666504,0.007334768772125244,1.1864616870880128,0.4848226308822632,0.8082354068756104,1.154167890548706,-0.5598693490028381,1.402776837348938,0.9305875301361084,1.2931663990020753,0.18916891515254975,0.7937244772911072,-0.4166931211948395,1.184024691581726,0.5818731784820557,1.0361268520355225,-0.061363935470581058,1.4299081563949586,0.9559388160705566,0.7269204258918762,-0.37273043394088747,1.2885797023773194,0.6739541292190552,1.8575371503829957,0.3778132200241089,0.07006868720054627,1.7233248949050904,0.12925708293914796,1.1197304725646973,1.1971043348312379,-0.9140008687973023,-0.4776076376438141,1.2163307666778565,-0.3313024342060089,0.3972700834274292,-0.1988997459411621,-0.2689134478569031,0.2680286169052124,-0.09595337510108948,1.0544395446777344,-0.06967943906784058,0.39557963609695437,1.8714443445205689,1.8055083751678467,0.7221755981445313,0.9564399719238281,1.6194939613342286,1.7261974811553956,1.178341031074524,0.3735590875148773,1.234973430633545,-0.02562299370765686,0.9201642274856567,-0.23566235601902009,0.5627396106719971,0.5022684335708618,1.0332999229431153,-0.6700841188430786,0.473978191614151,-0.19479095935821534,0.10295117646455765,-0.2171698808670044,0.5638842582702637,0.05310031771659851,0.4108377695083618,0.3827552795410156,0.41375550627708437,0.8818681240081787,1.4996893405914307,0.5385996103286743,-0.4313027858734131,1.2110437154769898,1.8295949697494507,-0.1307985782623291,-0.17721039056777955,0.6926464438438416,0.7889202833175659,0.8243736028671265,0.913811445236206,0.06842708587646485,0.9232182502746582,0.0955958366394043,-0.42025983333587649,1.3209846019744874,1.2894635200500489,0.517452597618103,0.659568190574646,1.1338732242584229,1.7876213788986207,0.2925829589366913,0.5099384784698486,0.22038568556308747,-0.8310507535934448,0.8549672365188599,1.0066108703613282,-0.7146873474121094,-0.1462382674217224,0.7852944135665894,0.34083518385887148,1.1295158863067628,-0.1822071075439453,-0.16559720039367677,0.5204788446426392,-0.20353329181671143,1.8440024852752686,0.7280459403991699,-0.2775156795978546,1.0937989950180054,-0.6392791271209717,0.9481850862503052,1.1159719228744507,0.5136220455169678,0.1900281310081482,0.2257533073425293,0.1450098752975464,0.552422046661377,0.47140973806381228,0.01796257495880127,0.8916199207305908,-0.061094045639038089,1.265159249305725,0.5619004964828491,0.8473256826400757,1.318056344985962,0.08892267942428589,0.528934121131897,-0.08533955365419388,0.7786542773246765,0.05266165733337402,-0.32388928532600405,0.4832018315792084,-0.17358054220676423,0.7462356090545654,-0.35250577330589297,0.1319284439086914,1.032981276512146,-0.2694806456565857,0.9929699301719666,0.3154577314853668,0.8658685088157654,1.094557523727417,-0.5612678527832031,0.08889889717102051,-0.1321655511856079,-0.252398818731308,1.163384199142456,0.30622193217277529,0.11213385313749314,0.4672856032848358,-0.4222303032875061,0.4933580160140991,-0.5461320877075195,0.28440555930137637,0.1407170444726944,0.6403213143348694,-0.6615961194038391,-0.7720146179199219,1.6735148429870606,1.1283549070358277,0.6670964956283569,1.0872520208358765,0.6795755624771118,0.39633849263191225,0.848557710647583,1.0642683506011963,1.6264594793319703,1.724961757659912,-0.027579903602600099,1.249009132385254,0.2889068126678467,0.5424437522888184,0.8085657358169556,1.6523916721343995,1.2192575931549073,0.10527163743972779,-0.28951892256736758,1.5311342477798463,0.2971126139163971,0.9938522577285767,-0.7781147956848145,0.0520707368850708,-0.4420226216316223,1.3139170408248902,-0.35596153140068056,0.44633346796035769,0.15599572658538819,1.9048418998718262,1.5555434226989747,0.07254832983016968,1.235837459564209,-0.17579272389411927,0.5871379375457764,-0.048209309577941897,0.8966982364654541,0.5774950981140137,1.0364689826965333,1.0523180961608887,1.3565850257873536,0.7969099283218384,1.0699243545532227,0.8426525592803955,1.5460096597671509,0.4991457462310791,1.0612337589263917,0.5151405334472656,0.13849711418151856,0.9522199034690857,-0.33069169521331789,0.34767448902130129,1.420581340789795,-0.05004525184631348,0.8775734305381775,0.8761922121047974,-0.8463187217712402,0.09100532531738281,-0.081064373254776,1.1512210369110108,1.0313092470169068,0.3198641538619995,1.1490869522094727,1.4509861469268799,1.3818504810333253,-0.5850831270217896,0.3798631727695465,0.12182042002677918,0.3305066227912903,-0.007408767938613892,1.4152822494506837,-0.5175057649612427,0.8729470372200012,0.6581858396530151,1.527750015258789,0.8378996849060059,0.5532035827636719,1.649965524673462,1.4163103103637696,0.5178679823875427,-0.07898357510566712,0.9059193134307861,-0.011205784976482392,-0.4636235237121582,0.4261228144168854,0.13819479942321778,-0.6199600696563721,0.11207163333892822,-0.6470032930374146,0.11884698271751404,-0.1751723289489746,0.3724554777145386,0.25148749351501467,1.1533313989639283,0.9064764380455017,-0.15169334411621095,0.8221869468688965,1.0025014877319337,-0.5093948245048523,1.0002076625823975,1.168888807296753,-0.6792105436325073,-0.056505922228097919,-0.4407896101474762,0.9215768575668335,0.5362641215324402,-0.021571636199951173,1.1092753410339356,0.2858656942844391,0.8933923840522766,-0.05103123188018799,0.2875363826751709,0.10482558608055115,-0.23026740550994874,-0.27651458978652956,-0.46265825629234316,0.9805421829223633,1.255071759223938,-0.250031054019928,0.9159660935401917,0.8130972385406494,0.9657768607139587,1.6583117246627808,-0.24232488870620728,-0.23462587594985963,0.3404499292373657,0.6140620112419128,0.8588591814041138,0.9431840181350708,0.37701505422592165,0.11921225488185883,1.0691108703613282,0.5208418369293213,0.8309158682823181,1.144055724143982,0.7432152032852173,0.02896103262901306,0.8206570148468018,1.1378896236419678,1.2698132991790772,-0.45721447467803957,-0.3758663833141327,-0.6125020980834961,1.280853033065796,1.0455570220947266,0.8600869178771973,1.077486276626587,0.19220644235610963,-0.21939057111740113,0.5017050504684448,1.4669952392578126,-0.07048255205154419,1.1741878986358643,0.25734496116638186,1.0667822360992432,-0.1634998321533203,0.5432498455047607,0.9436590671539307,1.1374614238739014,1.4875428676605225,-0.13330253958702088,0.839397668838501,0.7406488060951233,1.2390992641448975,-0.5278049111366272,1.5086013078689576,-0.4786377549171448,1.0677525997161866,1.3827886581420899,0.4561469852924347,0.1637272834777832,-0.36860260367393496,1.1260671615600587,0.284321665763855,1.1903431415557862,-0.1985335350036621,-0.19741031527519227,0.7605947256088257,0.2580817639827728,0.21419945359230042,0.10317015647888184,-0.6841315031051636,-0.05874362587928772,0.40499627590179446,0.8065717220306397,-0.4340178370475769,0.3342146873474121,1.1652690172195435,1.3045775890350342,-0.7478129863739014,0.7976903915405273,-0.8275501728057861,1.111397624015808,0.03614532947540283,0.10307103395462036,0.28948870301246645,0.7697532176971436,-0.6543731689453125,1.8369871377944947,1.164592981338501,-0.06177029013633728,1.565651297569275,0.986079216003418,-0.3209620416164398,0.0813056230545044,0.26421838998794558,0.19344478845596314,1.5813883543014527,1.1689727306365967,1.3852620124816895,-0.16024714708328248,-0.47109389305114748,0.13036027550697328,-0.3162955641746521,0.8766719102859497,0.6910898685455322,0.795158863067627,-0.3523452877998352,0.38200053572654726,0.9885611534118652,0.5082153081893921,1.5288029909133912,0.49833059310913088,0.603706955909729,1.547587513923645,-0.003684520721435547,-0.2692885994911194,0.6811319589614868,1.0036475658416749,1.0244224071502686,1.0584208965301514,1.2030709981918336,0.06812801957130432,0.9251651167869568,1.4712915420532227,1.0460033416748047,0.526993989944458,0.055598944425582889,-0.8030414581298828,0.45898792147636416,0.763015866279602,-0.15436066687107087,-0.050710856914520267,0.490963339805603,-0.22025799751281739,1.2726308107376099,-0.07258415222167969,-0.5448386669158936,0.9997539520263672,-0.32948750257492068,0.9858679175376892,-0.6364911794662476,-0.07277017831802368,0.5312920808792114,0.9421015977859497,-0.10960078239440918,1.1818525791168213,0.7888233661651611,0.504186749458313,0.4494386315345764,1.3361597061157227,0.9955138564109802,0.07804155349731446,0.9669349193572998,-0.3779406249523163,-0.4356573224067688,1.177466630935669,-0.012684226036071778,0.15927213430404664,-0.8009711503982544,1.1940131187438965,0.0005692243576049805,-0.6141129732131958,1.5543618202209473,0.5637503862380981,1.0099797248840333,-0.4097805619239807,0.9198898673057556,-0.13269293308258058,-0.7270733118057251,-0.14841541647911073,0.708652138710022,0.5111722946166992,-0.3583630621433258,0.3257844150066376,0.06996893882751465,0.6893825531005859,1.0916852951049805,0.8864989280700684,0.8239501714706421,1.445151448249817,0.07240796089172363,-0.03788489103317261,1.1480903625488282,0.24054446816444398,1.0729784965515137,1.1350555419921876,0.43617379665374758,-0.8754169940948486,0.7329847812652588,0.37734973430633547,1.490923523902893,0.6484930515289307,0.7826552391052246,1.0004323720932007,0.9835318922996521,0.5305506587028503,0.6060827970504761,0.35719001293182375,0.33120810985565188,-0.36230653524398806,-0.02685648202896118,0.7690294981002808,1.158913493156433,-0.37021440267562868,1.662771463394165,-0.395638644695282,-0.3589487373828888,-0.3067282438278198,0.8251287937164307,0.8539314270019531,0.4769972264766693,0.7170900106430054,-0.10112011432647705,1.3246080875396729,0.24557769298553468,-0.6117944717407227,0.4415116310119629,0.05813160538673401,0.6219668388366699,1.2042896747589112,1.270660638809204,1.160346269607544,0.11329013109207154,-0.7929658889770508,0.5117693543434143,0.5597603917121887,0.6259296536445618,0.28438079357147219,1.2707240581512452,1.2451109886169434,0.3049914836883545,1.2698705196380616,0.5193789005279541,1.4931249618530274,0.5701894760131836,0.5848149061203003,-0.13277968764305116,-0.03952699899673462,0.5449459552764893,1.4294967651367188,0.5163294076919556,-0.020551681518554689,0.5213858485221863,0.8566782474517822,-0.4658336341381073,1.1245921850204468,0.5950955152511597,0.7386311292648315,1.2343894243240357,-0.17441585659980775,-0.021918535232543947,0.007739901542663574,0.28418293595314028,0.06671077013015747,1.427613615989685,0.7121554017066956,1.7458548545837403,1.429504632949829,0.703101396560669,-0.37322619557380679,1.4069764614105225,1.2606035470962525,-0.719795823097229,1.5569546222686768,1.3392112255096436,-0.3635980486869812,-0.10732820630073548,-0.012865960597991944,0.8997030258178711,-0.27821946144104006,0.31653422117233279,-0.14314532279968263,-0.1850140243768692,1.4506124258041382,-0.13588622212409974,0.47242486476898196,-0.16295313835144044,-0.09204468131065369,1.1411998271942139,0.6698621511459351,-0.2258821427822113,0.6011859178543091,1.0661885738372803,0.8932236433029175,-0.06690296530723572,1.3211312294006348,0.314002126455307,0.5930030345916748,0.08478131890296936,1.074906826019287,0.3927481770515442,0.7404252886772156,-0.20318961143493653,1.2832865715026856],"Biases":[0.0,1.0,1.0,1.0,1.0,1.0,1.0,0.5]},"NetworkTrainingRate":20.388482803734257,"NetworkBestResults":[0.9771761894226074],"NotationCoefficient":0.9771761894226074,"DNAVersion":2}