{"HasData":true,"NeuralNetworkName":"Jumper Big Neural Net 8 Layers","StartTrainingRate":1.0,"NeuralNetworkDna":{"Weights":[1.7419195175170899,1.504912257194519,2.504945755004883,1.4524412155151368,1.0471956729888917,0.9219510555267334,-1.1887885332107545,1.186941385269165,3.325983762741089,1.9055001735687256,-3.643312931060791,3.893834114074707,1.307344913482666,0.41553306579589846,-1.9655101299285889,0.9834938049316406,0.4069996476173401,2.5718424320220949,3.573052406311035,-0.933506965637207,1.8663241863250733,0.3488534688949585,0.7384165525436401,-2.780947208404541,4.494056701660156,1.7898941040039063,2.674194574356079,-0.41922566294670107,0.024724185466766359,-0.06811000406742096,1.9622893333435059,0.3759937882423401,-2.1072747707366945,1.7614657878875733,-0.24564646184444428,0.4355902373790741,2.5193984508514406,2.639453887939453,-1.56790292263031,-2.0196332931518556,3.7171852588653566,2.1269192695617677,2.1713175773620607,-0.9425915479660034,2.8065836429595949,-0.7462683916091919,-2.5142226219177248,2.6551573276519777,1.1762086153030396,-0.7020429372787476,2.446359157562256,-1.3268942832946778,4.004096984863281,2.184800863265991,1.3248125314712525,1.9537746906280518,0.46287772059440615,-1.001007080078125,2.4743471145629885,2.9735300540924074,4.439261436462402,-0.9591456651687622,1.2054933309555054,0.12228861451148987,4.117382526397705,1.906221628189087,0.3373695909976959,-2.259126901626587,0.8693148493766785,-2.9338345527648927,0.9604295492172241,1.1559898853302003,0.7148447036743164,1.5092570781707764,0.41377565264701846,2.8356003761291506,0.30955660343170168,1.3740832805633546,0.5026154518127441,-1.5659294128417969,0.5133578777313232,0.24703434109687806,1.1988908052444459,-0.255761981010437,0.16961076855659486,-0.605323314666748,0.38584190607070925,-1.1977529525756837,-0.8320479393005371,-0.16180408000946046,3.7355504035949709,1.2548835277557374,2.250558376312256,1.7733747959136963,-0.8024420738220215,3.0148415565490724,-0.6886333227157593,-0.4770878255367279,0.4149489402770996,3.938885450363159,1.3598134517669678,1.6309969425201417,0.033121295273303989,0.5333712697029114,4.701264381408691,-1.2177814245224,1.1182246208190919,-0.49297279119491579,-1.5820050239562989,-2.279771327972412,3.8335394859313967,2.7258541584014894,-0.7025305032730103,0.17434565722942353,0.47755295038223269,1.0058048963546754,-1.3334581851959229,-1.051463007926941,-0.6433850526809692,-0.3719932436943054,-1.0660226345062256,-1.3117576837539673,4.101102828979492,-1.3059262037277222,-4.424715042114258,1.6695173978805543,0.2701282501220703,1.9034669399261475,0.22331702709197999,1.978643774986267,-0.8607264757156372,1.2753996849060059,0.3149054944515228,0.5215094089508057,-0.7551099061965942,3.4138433933258058,1.074868083000183,-0.34239447116851809,-2.5482020378112795,-2.8762147426605226,-1.3525047302246094,0.3025895953178406,-0.5196877717971802,-2.1601743698120119,3.313326358795166,1.7515835762023926,2.825296640396118,0.8684048056602478,0.6129960417747498,1.2868844270706177,-0.533839225769043,0.1296149641275406,0.8384226560592651,-0.40562254190444949,2.128458261489868,-0.21187351644039155,-2.253072738647461,-0.8021835088729858,2.386413097381592,1.766467571258545,1.5565075874328614,0.02336186170578003,2.0926589965820314,0.7076241970062256,0.5186744928359985,0.34086745977401736,3.6428823471069338,2.5248396396636965,2.581127882003784,1.597078561782837,-0.6435801386833191,0.7549784779548645,1.167405605316162,1.3272923231124879,1.8349171876907349,1.5116991996765137,0.13748115301132203,0.2960480749607086,2.2595953941345217,-1.4469517469406129,1.4715425968170167,-1.190256118774414,1.409024953842163,3.855825424194336,-0.2367803454399109,-2.1405162811279299,-0.8003891706466675,-2.5668652057647707,-0.690470814704895,2.7728395462036135,-3.0970938205718996,0.3879690170288086,1.6408323049545289,-0.47605592012405398,1.687930703163147,-2.047213315963745,0.7975094318389893,0.11030426621437073,0.15771181881427766,0.5405682921409607,-1.1566047668457032,-1.9523546695709229,2.4849917888641359,-1.0151340961456299,0.44222334027290347,-3.541196584701538,-0.7338405847549439,1.2461458444595338,0.777489185333252,2.2744970321655275,1.955007553100586,0.7733809947967529,0.4560295641422272,3.885007619857788,-0.6461900472640991,2.3696999549865724,0.7458197474479675,1.28400456905365,1.5067352056503297,0.07327858358621597,-1.753572702407837,-1.6681796312332154,-0.7129234075546265,-2.4384067058563234,2.1938772201538088,0.046560823917388919,2.52512264251709,0.12835082411766053,1.16055166721344,-0.7907370328903198,-0.1828535795211792,0.3528011441230774,-0.0962599515914917,-0.33089765906333926,1.6718014478683472,-0.8888704776763916,0.011470813304185868,0.11463609337806702,1.7171788215637208,1.3871657848358155,1.4622585773468018,3.3310537338256838,1.2185238599777222,0.7808569669723511,-1.851995587348938,1.0693249702453614,-1.3695794343948365,-1.2546595335006714,-4.344357490539551,1.0134199857711793,1.5354962348937989,4.113323211669922,1.9743491411209107,0.24937470257282258,-2.868863344192505,4.4607133865356449,3.339266061782837,1.2839751243591309,2.565897226333618,3.9280757904052736,-1.6195579767227173,-1.0932060480117798,0.7862820625305176,1.3152889013290406,0.5282036662101746,3.6977765560150148,-1.3522769212722779,0.3577030897140503,0.20060202479362489,3.8622570037841799,-1.5981911420822144,2.19948410987854,1.731117606163025,1.225329875946045,0.11669141054153443,3.459442615509033,0.28011834621429446,2.1855111122131349,0.7488780617713928,1.0816640853881837,0.2042660415172577,0.35564541816711428,0.567870020866394,0.46863070130348208,2.0219271183013918,-0.6167759299278259,2.2857186794281008,2.1875717639923097,-0.09253790229558945,1.9136302471160889,1.7392611503601075,1.7180585861206055,1.2432814836502076,0.09838664531707764,0.48863375186920168,2.4855947494506838,-1.5632890462875367,0.5303314924240112,-1.2122845649719239,2.2132174968719484,2.3174314498901369,-0.048792965710163119,-1.4057977199554444,-1.1528074741363526,0.6869701743125916,0.2069455236196518,0.44170379638671877,1.0752421617507935,-0.24224340915679933,-0.14520660042762757,1.4766840934753419,0.23196113109588624,2.908919334411621,1.044152021408081,1.5669050216674805,2.513728141784668,-0.5939102172851563,-1.0574567317962647,-2.89617919921875,-2.316298246383667,1.9993336200714112,-0.9682459235191345,1.1745139360427857,1.1700671911239625,-0.23250728845596314,-0.3050798773765564,-0.8596786856651306,2.188673496246338,1.6347177028656006,-0.01580723561346531,2.7909960746765138,-3.538667917251587,0.4864216446876526,0.47886109352111819,-1.2481447458267213,-2.046919584274292,-0.6179940700531006,0.3197570741176605,-0.7250972390174866,-0.25776296854019167,-0.7468897104263306,-0.35007137060165408,0.6661604046821594,0.43134528398513796,-0.7302920818328857,-1.1975862979888917,0.7838576436042786,-1.9941736459732056,1.5072330236434937,-0.01476927101612091,2.2500760555267336,0.6486161351203919,3.3968489170074465,-1.002724051475525,-0.3153787851333618,-2.860589027404785,1.2330493927001954,0.737878143787384,0.7759919762611389,0.7673154473304749,-2.3853278160095217,-0.04320994019508362,-1.4790695905685425,2.3493030071258547,3.091015338897705,1.2894247770309449,-1.5748640298843384,-2.9601621627807619,4.908114433288574,-1.7085202932357789,2.130852699279785,-3.0573372840881349,-0.029891487210989,1.9378345012664796,-3.54166316986084,4.018303871154785,1.230006217956543,-0.21804991364479066,1.7025890350341797,2.6668853759765627,2.6653075218200685,-0.6559552550315857,-0.23104876279830934,1.1106150150299073,-1.8767285346984864,0.9429841637611389,1.911651611328125,-0.5077901482582092,2.035022735595703,0.6856158971786499,1.0591473579406739,-1.0746642351150513,1.0565979480743409,0.4669429659843445,-1.2292742729187012,1.5239760875701905,-0.8606559038162231,0.7841632962226868,0.17412489652633668,3.8304004669189455,0.6189424991607666,0.7536656856536865,-0.02182534709572792,-0.26019513607025149,2.5436582565307619,1.055367112159729,1.2574713230133057,0.705804169178009,1.9963161945343018,2.4012084007263185,1.0986435413360596,-0.8342493176460266,-0.5093762874603272,0.8142411112785339,-0.6380858421325684,0.3738204836845398,0.003052264451980591,1.4189375638961793,0.6551433205604553,1.2022138833999634,-0.3687955141067505,0.068206787109375,1.1799509525299073,2.9917447566986086,-0.8141292333602905,-0.4409732222557068,-0.8335729241371155,1.7375613451004029,0.2814970314502716,1.1346545219421387,1.0426414012908936,2.0710487365722658,1.260058879852295,1.8282837867736817,-0.007923051714897156,2.4043171405792238,1.2220042943954468,2.7670819759368898,3.7105231285095217,1.2785898447036744,-1.2082421779632569,0.0733463242650032,-1.4489483833312989,1.5168514251708985,1.4489566087722779,0.9415836334228516,-0.4735337495803833,-0.8656736016273499,-0.5434056520462036,-0.6705092191696167,0.8175469040870667,-0.9268175959587097,1.195660948753357,3.285358428955078,-0.6564295291900635,-0.17396214604377747,-2.1011314392089845,-1.574106216430664,-2.0339059829711916,0.09383749961853028,-1.9707367420196534,0.5187669992446899,1.317383885383606,-0.1079319417476654,0.7864536643028259,-0.08392082899808884,0.64177405834198,-0.5236883163452148,0.7255416512489319,2.8429839611053469,1.4743493795394898,1.174728274345398,0.8669072389602661,-1.165861964225769,-0.2436712682247162,0.4421423375606537,0.7375860214233398,-2.244536876678467,3.756894588470459,3.5665946006774904,-2.903221368789673,-0.44740498065948489,1.9998728036880494,-0.4352700114250183,1.4370356798171998,-0.10586965829133988,-0.6606736779212952,0.7650175094604492,0.5188855528831482,1.590108871459961,1.1910077333450318,-1.8021303415298463,4.843092441558838,-2.8504395484924318,2.732494354248047,-0.32290884852409365,-1.9605224132537842,2.7970616817474367,-0.1798974871635437,3.2592105865478517,1.5543562173843384,-0.9130166172981262,-2.354384422302246,1.8902089595794678,-0.9625809788703919,-0.2985115647315979,0.1196945458650589,2.1898820400238039,-0.07128775119781494,-0.1418992280960083,3.815260887145996,2.0195634365081789,1.1975499391555787,-0.9525299668312073,-0.092032790184021,1.647545337677002,-0.27050837874412539,0.026510626077651979,0.44807490706443789,-2.2764382362365724,2.8900606632232668,1.1885541677474976,1.579420566558838,1.5534721612930298,-2.71873140335083,0.7817897200584412,-1.4843382835388184,0.7352171540260315,2.2178802490234377,-3.141467332839966,-0.019282281398773195,-1.5503135919570923,-0.8059029579162598,0.031960323452949527,0.5758606195449829,-2.047628164291382,-0.36974719166755679,-0.3649841547012329,1.3316279649734498,1.2911263704299927,5.325727462768555,0.7565527558326721,-3.47033953666687,-3.600409507751465,2.496109962463379,0.4742729067802429,2.576277732849121,1.8733078241348267,2.591783285140991,2.1744441986083986,0.6464221477508545,2.7020058631896974,-0.5949422121047974,4.355914115905762,1.7579914331436158,2.7888600826263429,-0.46258944272994997,0.6830631494522095,-1.9153276681900025,2.4896621704101564,-0.5332084894180298,2.215719223022461,-1.115391492843628,0.054013073444366458,0.7870371341705322,-0.8546792268753052,0.44801026582717898,1.3638973236083985,0.43014243245124819,-0.38800227642059328,0.9539808630943298,0.4950653910636902,0.6387040615081787,4.591061115264893,-0.8288204669952393,-0.014132440090179444,-0.20880746841430665,-1.8188915252685547,1.3316329717636109,0.19583162665367127,-0.27500271797180178,1.1617428064346314,-1.7396421432495118,0.05844632536172867,-0.427090048789978,0.15154153108596803,2.426210403442383,-0.18433606624603272,-0.2697127163410187,2.1353890895843508,1.7393776178359986,1.764056921005249,-1.908564567565918,-2.4758331775665285,2.903803586959839,4.0408830642700199,0.13416942954063416,-0.6282844543457031,2.349438428878784,-0.546636164188385,-0.03280061483383179,1.8535091876983643,3.495673418045044,-1.3669451475143433,2.08341383934021,1.3589218854904175,2.073591947555542,-2.4128782749176027,0.4024064838886261,1.757853388786316,3.472355604171753,2.045754909515381,0.4771563410758972,1.5028488636016846,1.5476819276809693,0.7649779319763184,2.084465980529785,2.6913647651672365,2.26664662361145,1.0519025325775147,1.7930152416229249,-0.48961740732192995,2.5376367568969728,1.3746671676635743,-0.12478300929069519,1.1447207927703858,1.1777129173278809,3.0104897022247316,1.9611061811447144,1.992318034172058,0.28580236434936526,0.947182834148407,-0.06476283073425293,1.186549186706543,1.9277048110961915,1.3749476671218873,-1.3997920751571656,2.752145767211914,1.9756784439086915,1.1874403953552247,3.063552141189575,-2.3440585136413576,-2.0196802616119386,4.243924140930176,2.8626232147216799,-0.0824001282453537,-0.3004089295864105,0.9384116530418396,0.8420361280441284,-1.3784003257751465,-0.2531396448612213,2.0409631729125978,2.346620559692383,1.2417799234390259,1.6574734449386597,3.4195377826690676,-1.9210585355758668,-0.15032902359962464,2.8461265563964845,2.3269972801208498,3.264188528060913,0.5455243587493897,-0.2185187041759491,3.996727466583252,0.4305189251899719,-0.027848854660987855,-1.8058363199234009,0.7595412731170654,1.5038164854049683,1.5398459434509278,0.8852940797805786,0.2329389899969101,-1.785485029220581,0.19566792249679566,0.6323075294494629,1.8708722591400147,4.107872009277344,0.9539945721626282,-2.695317268371582,4.669862270355225,-1.0020185708999634,2.25321102142334,2.445814609527588,1.1698178052902222,0.34988054633140566,2.7810263633728029,0.14849933981895448,1.5848336219787598,0.37687912583351138,0.13115167617797852,-2.0374350547790529,2.6119461059570314,2.8269810676574709,1.709789514541626,0.9404609203338623,1.4825692176818848,5.0664448738098148,1.9844025373458863,3.5007710456848146,2.095261573791504,4.249237537384033,0.8354485630989075,1.5562431812286378,2.1771841049194338,-0.6860470771789551,0.05978018045425415,0.7751390337944031,-2.3936846256256105,0.3831227421760559,-0.016554564237594606,0.30849477648735049,-0.39369428157806399,1.6790634393692017,1.1976958513259888,1.5775089263916016,1.9304746389389039,0.3627074360847473,-0.4778014123439789,0.857636570930481,1.318174123764038,1.1134023666381837,2.5713558197021486,1.0870387554168702,2.962498903274536,0.8263789415359497,-0.7675949335098267,2.236109733581543,3.7238316535949709,1.981744647026062,4.212684631347656,1.436608910560608,1.732865333557129,-0.7990526556968689,-0.8789257407188416,2.5974082946777345,1.1044355630874634,1.3289932012557984,-0.9441077709197998,-0.18103039264678956,0.690898597240448,2.2896721363067629,-0.7508786916732788,1.0015946626663209,0.17726950347423554,0.3346794843673706,-0.44545745849609377,1.0686222314834595,-1.2208623886108399,-1.4233982563018799,4.839292049407959,0.9321094751358032,-0.27969467639923098,0.1287873089313507,0.1511160135269165,-0.10838904976844788,2.7550244331359865,0.8949528932571411,-3.447218179702759,1.2689374685287476,0.4527074694633484,-1.0211421251296998,-2.1196017265319826,4.728044033050537,1.7140558958053589,1.1097818613052369,-1.5660715103149415,0.29240328073501589,1.8183914422988892,-0.21071979403495789,2.760951042175293,-0.7952028512954712,-0.615827739238739,-0.3288121819496155,0.7178457975387573,0.9953937530517578,-0.6356903910636902,-1.4370949268341065,2.1739566326141359,-1.136139154434204,2.0254433155059816,0.38936638832092287,1.574364423751831,1.2308409214019776,-1.3462525606155396,0.7268326878547669,-0.43208223581314089,1.6970628499984742,2.6521902084350588,-1.256450891494751,0.46756234765052798,0.019364163279533387,0.22494983673095704,1.0809849500656129,3.6353890895843508,3.301182746887207,1.623826265335083,-0.8659036755561829,-0.27132800221443179,1.6674801111221314,-1.9389207363128663],"Biases":[0.0,1.0,1.0,1.0,1.0,1.0,1.0,0.5]},"NetworkTrainingRate":0.7986858926618833,"NetworkBestResults":[140.413330078125],"NotationCoefficient":140.413330078125,"DNAVersion":11}