{"HasData":true,"NeuralNetworkName":"Jumper Big Neural Net 8 Layers","StartTrainingRate":1.0,"NeuralNetworkDna":{"Weights":[5.4059224128723148,0.21357792615890504,1.0503381490707398,0.6362265348434448,-0.16273446381092072,2.081327199935913,1.8697625398635865,-1.783745288848877,-0.2699596583843231,-0.21360498666763307,0.797856330871582,-0.6495885848999023,3.1896238327026369,0.34432166814804079,4.3922576904296879,1.338366985321045,3.86059832572937,-1.175665020942688,-0.8263499140739441,-0.7049655318260193,-1.4417082071304322,3.9041717052459719,0.45004385709762576,1.9993728399276734,0.6458426713943481,2.508542060852051,0.47430288791656496,3.398167371749878,-2.8674192428588869,0.6195518970489502,2.432680130004883,-1.2031807899475098,0.1762685477733612,-0.44295933842658999,-1.1856659650802613,2.179230213165283,-1.5571528673171998,-2.877695083618164,1.3057889938354493,-2.3664796352386476,-1.3512228727340699,0.39392226934432986,2.22805118560791,0.16014151275157929,1.6297497749328614,-0.1800403594970703,1.1187515258789063,-0.32003873586654665,0.4756520092487335,-1.0607153177261353,-3.7851967811584474,1.68251633644104,-0.9875695705413818,3.1061160564422609,2.369128942489624,0.14948581159114839,0.572002649307251,0.9522006511688232,3.8623061180114748,0.7471670508384705,0.6494705677032471,-2.725367784500122,0.09614480286836624,0.4517025649547577,-0.8616869449615479,2.9695959091186525,0.6905593872070313,-2.115187406539917,0.36807969212532046,2.1899421215057375,0.9159116744995117,0.7781413793563843,1.2566931247711182,2.1681935787200929,1.0668293237686158,0.09619425982236862,1.4566795825958253,-0.8511288166046143,-2.893275260925293,1.033286690711975,3.485154390335083,1.1748179197311402,1.0669987201690674,1.9502134323120118,0.21641036868095399,2.6397032737731935,-1.503564715385437,1.2753194570541382,0.6552122831344605,2.927398204803467,-0.7368142604827881,-0.28146618604660036,-2.4059555530548097,0.6984922289848328,-0.5326431393623352,-1.1997617483139039,2.4148921966552736,1.0864535570144654,0.022226691246032716,2.5371761322021486,0.8989557027816773,1.1924558877944947,0.6772646903991699,-0.4882381856441498,0.7674137353897095,-1.7992011308670045,0.5901964902877808,-0.46697568893432619,-1.743652105331421,0.48732513189315798,-1.6515841484069825,0.28567662835121157,2.4355530738830568,-0.7001627087593079,0.6700552701950073,1.5178616046905518,0.41931790113449099,-1.5202378034591675,2.028001308441162,1.2517759799957276,-1.7890191078186036,-3.138577938079834,2.236499071121216,3.858581066131592,2.783040761947632,-1.681398630142212,2.340074062347412,2.0155603885650636,-0.01921791583299637,1.2269043922424317,0.7419367432594299,-2.2289857864379885,1.0297880172729493,1.3958790302276612,1.9898483753204346,0.9217778444290161,-0.7180978059768677,-0.42726466059684756,-0.22228167951107026,2.438509941101074,-1.0874052047729493,0.36646080017089846,-2.709380626678467,-1.4072197675704957,2.6607747077941896,-1.1166529655456544,0.9480252265930176,0.4050770401954651,-1.2473891973495484,0.33535653352737429,-0.8638294339179993,0.4761311113834381,0.2022479772567749,1.362065315246582,-0.3047611713409424,-2.436211109161377,0.9787189960479736,4.0535993576049809,-1.6951924562454224,1.7177932262420655,0.784576416015625,0.18746832013130189,0.9574835300445557,1.5124917030334473,2.69852614402771,-0.9094745516777039,-3.0285086631774904,0.1846841275691986,1.536102533340454,-0.5460355877876282,-2.179699182510376,-0.9007317423820496,-0.35397765040397646,1.9254460334777833,2.2962822914123537,-0.11515741795301438,-0.09131591022014618,-1.6531985998153687,-0.061070527881383899,2.0643668174743654,2.052304744720459,-1.149967074394226,3.642967462539673,1.4108703136444092,1.6194024085998536,1.934388518333435,5.23964262008667,1.7270121574401856,0.051617901772260669,-0.8616082668304443,3.2084693908691408,3.4935553073883058,0.49818283319473269,1.080356240272522,1.3731106519699097,1.7362000942230225,2.6338284015655519,0.5524008274078369,-1.9426981210708619,-2.405437469482422,-1.2214584350585938,0.32887962460517886,0.9219568967819214,1.0152231454849244,0.5953283905982971,0.4623863995075226,1.51593816280365,1.8126097917556763,-0.10715927183628082,-0.41685914993286135,1.8914709091186524,1.2472730875015259,1.9899656772613526,-2.04966402053833,-0.9398304224014282,2.479841947555542,1.9537192583084107,0.7382973432540894,-0.376525342464447,3.915466785430908,0.16704535484313966,-0.09215594828128815,-2.759401798248291,-2.040377378463745,-1.9241873025894166,1.8874486684799195,0.29930946230888369,-1.154155969619751,-0.7118949294090271,3.209613800048828,0.38473302125930788,-1.160356044769287,-0.26632437109947207,-0.5327056646347046,1.8937098979949952,-1.9628615379333497,1.0186336040496827,-0.765129566192627,-1.2585917711257935,-0.8668036460876465,-2.2477097511291506,-0.09961266070604325,0.898765504360199,-0.057741858065128329,2.2727105617523195,2.4009389877319338,-0.617483913898468,-0.2132147252559662,1.5453518629074097,0.9193921089172363,-1.8911710977554322,1.9342926740646363,2.262463331222534,0.981375515460968,2.8675451278686525,3.091275691986084,-1.543700933456421,-1.2150201797485352,1.3914066553115845,2.2663440704345705,0.07095379382371903,0.463922381401062,-1.3671259880065919,2.009775161743164,0.49246564507484438,2.448270559310913,0.3370700180530548,1.0719196796417237,0.1829085350036621,0.8966608047485352,-0.8548160195350647,-1.4121861457824708,-0.18515001237392426,-2.1275856494903566,1.4573618173599244,-0.07474938780069351,2.862497091293335,-3.2629003524780275,-1.475089430809021,1.5383875370025635,2.204503297805786,2.413280487060547,2.657148838043213,2.9362685680389406,-0.404882550239563,0.2972053289413452,-1.9842216968536378,-1.2191176414489747,-0.657535195350647,4.189697742462158,1.9692938327789307,2.4016835689544679,-1.1739479303359986,0.3252220153808594,3.030761241912842,-0.7452992796897888,2.5163867473602297,0.9005520939826965,1.765712022781372,4.549777984619141,2.667056083679199,1.3888682126998902,1.3747148513793946,-1.4913536310195923,0.2440982460975647,-0.06051035597920418,2.569084644317627,1.7481098175048829,-1.3704489469528199,-1.514047384262085,1.026431679725647,-2.6223907470703127,3.5412259101867677,1.0453823804855347,-1.5654549598693848,2.251009464263916,3.984985589981079,-0.06429334729909897,1.2617450952529908,-0.4998587369918823,2.2429358959198,-1.3161168098449708,0.6349712610244751,-0.3319335877895355,0.026209188625216485,1.063671588897705,-0.2735061049461365,0.5042113661766052,1.8038451671600342,3.1961464881896974,-1.0542539358139039,3.213974952697754,0.4871812164783478,-1.1227874755859376,-0.27249857783317568,3.905270576477051,2.1980464458465578,-1.773735523223877,0.3785272240638733,1.6036913394927979,0.9631572961807251,-0.22743017971515656,-0.8664612174034119,-0.1900605708360672,1.3234074115753174,1.7090387344360352,-1.9843459129333497,-0.6868404150009155,3.1921322345733644,2.0478005409240724,0.6526495218276978,-1.0465701818466187,1.2227377891540528,1.892602562904358,1.472257375717163,0.017656512558460237,0.1762126386165619,-1.3519173860549927,-1.3804800510406495,0.48712751269340517,-2.24735951423645,3.183382987976074,0.42084601521492007,2.3693368434906008,0.9894853234291077,2.619743585586548,2.567737102508545,1.4502339363098145,-1.5422914028167725,-0.8409083485603333,4.068423271179199,-0.5337511897087097,0.11484019458293915,1.9019732475280762,0.19753238558769227,1.0959177017211915,-2.2205252647399904,-0.33522725105285647,4.045181751251221,0.9381469488143921,3.634026527404785,0.5413221716880798,1.653171181678772,-0.07709949463605881,0.6970925331115723,0.30938446521759035,-2.2550268173217775,-1.608523964881897,0.473686546087265,2.112246036529541,0.10456722974777222,2.360280990600586,1.6323044300079346,0.027170544490218164,-0.8595577478408814,-1.4407317638397217,3.4565486907958986,-0.4529183804988861,0.9024776220321655,-0.5524240732192993,1.8837952613830567,-1.3237972259521485,-0.7388993501663208,-2.2585902214050295,0.012083034962415696,1.9556983709335328,-0.9664760828018189,0.3795182406902313,1.67514967918396,0.9513641595840454,-0.9544806480407715,2.4668400287628176,1.5030893087387086,-0.8774983286857605,-1.5592329502105713,-0.5862911343574524,-0.8633829355239868,1.7802529335021973,-0.37748026847839358,1.0591692924499512,2.444807529449463,-1.8240797519683838,2.458998203277588,2.2173025608062746,-1.3208023309707642,3.7315168380737306,-0.5728278160095215,3.120671272277832,2.344419479370117,0.8616691827774048,0.425883412361145,1.3338921070098878,1.1560972929000855,1.5522425174713135,-1.3858990669250489,0.04706905782222748,-0.021810628473758699,1.4532887935638428,-0.9751390218734741,0.20979194343090058,-1.351615309715271,2.8064210414886476,1.01929771900177,0.19175858795642854,0.9747357368469238,0.7195762991905212,0.1180499941110611,0.8642985820770264,1.4757825136184693,1.9047571420669556,-1.1554473638534547,-2.6385879516601564,2.4784648418426515,-1.6378613710403443,-0.1222819909453392,2.3963499069213869,-0.21589988470077516,-1.3830664157867432,1.1355308294296265,2.25399112701416,1.7569223642349244,2.440431833267212,-1.6084024906158448,0.22632503509521485,-0.013499416410923005,3.072173833847046,0.029499327763915063,-0.5369221568107605,-1.1647189855575562,2.782461404800415,-2.6362085342407228,-0.4288906157016754,-0.5087665915489197,-0.10495557636022568,1.0784235000610352,2.6441211700439455,0.9325218796730042,2.2866883277893068,0.5906056761741638,-0.7697992920875549,-0.4200891852378845,0.6131576299667358,0.9523743987083435,-0.6608145833015442,0.6895706057548523,0.3913949728012085,-1.1100589036941529,-0.6146903038024902,0.20925568044185639,4.20169734954834,-0.5048917531967163,0.7376905083656311,-0.02137596532702446,0.9560429453849793,3.222151517868042,1.4539293050765992,0.7445877194404602,0.03675574064254761,1.9286439418792725,-0.4416574537754059,1.1399264335632325,-0.7596753835678101,0.8397313356399536,-1.75725257396698,3.3652632236480715,-0.16401951014995576,2.5754430294036867,-1.23881196975708,2.522062301635742,1.447418451309204,0.2494734227657318,2.1324634552001955,-1.6072477102279664,-2.3440887928009035,0.48107796907424929,-2.1334996223449709,3.52823543548584,3.586588144302368,1.3414244651794434,2.255354404449463,2.621264696121216,2.3342976570129396,0.6818755269050598,0.2703433036804199,1.4804027080535889,-0.4909273386001587,-1.5315719842910767,2.081676959991455,3.7041900157928469,1.0970498323440552,-0.5516002178192139,2.183793783187866,1.9686188697814942,-0.05272737145423889,1.0721917152404786,-2.029041290283203,2.4426558017730715,1.661041259765625,4.318727493286133,-0.247447669506073,-1.1939810514450074,2.5287351608276369,3.168391227722168,0.7279878854751587,-2.5432136058807375,2.615272045135498,-0.4368521571159363,2.3435006141662599,0.7549905776977539,2.65618896484375,0.5949829816818237,0.949830174446106,-2.279958724975586,2.27626633644104,-0.6904828548431397,1.4401028156280518,-0.45797809958457949,1.5066251754760743,1.2565301656723023,-1.5154439210891724,-1.522018313407898,-0.4451870918273926,0.5376808643341065,0.0824534147977829,-0.539785623550415,1.2916321754455567,1.8867610692977906,1.3704174757003785,2.4790782928466799,0.5657752752304077,-1.8708651065826417,3.010477304458618,-1.9353653192520142,-0.8680671453475952,1.1001595258712769,0.3185858428478241,2.341780185699463,4.149849891662598,0.10035941004753113,0.4695919156074524,2.296696662902832,0.9262898564338684,1.3620574474334717,0.5365800261497498,1.6132614612579346,0.7979766726493836,1.6818962097167969,1.9606550931930543,0.31898897886276247,1.6152929067611695,1.2678630352020264,1.4691016674041749,2.3217215538024904,1.4238197803497315,-3.345454692840576,2.1520588397979738,2.427464723587036,-1.7574985027313233,-1.7312394380569459,-0.7400074601173401,-1.060011625289917,2.133985757827759,1.739385962486267,-1.7401981353759766,-1.6728663444519044,-0.00729592889547348,1.5626485347747803,1.0727365016937256,1.5830142498016358,0.23490244150161744,0.1959957331418991,1.418447494506836,1.8668841123580933,0.0850362777709961,0.23141919076442719,-1.7360336780548096,2.7709107398986818,0.2219952940940857,0.6790683269500732,-2.896885633468628,-0.8936222791671753,3.188422679901123,1.4488520622253419,4.417065620422363,-0.6092270612716675,-1.522678256034851,-0.8062834739685059,-0.5297101140022278,1.2385265827178956,2.4876270294189455,2.387833833694458,0.37407147884368899,2.5638198852539064,-0.7501307725906372,0.6573486924171448,1.5619899034500123,-1.687727451324463,-0.5646869540214539,-0.3971584439277649,1.4945944547653199,0.4630642533302307,0.18505695462226869,2.1811623573303224,3.420375108718872,-1.5776036977767945,1.132178783416748,1.1870808601379395,0.7960883378982544,2.498089075088501,1.0874817371368409,1.2308106422424317,-0.40997380018234255,0.6125666499137878,-0.6374685168266296,3.6180496215820314,-0.8130978941917419,3.385847330093384,2.0316007137298586,2.448063850402832,1.1712464094161988,-0.15786702930927277,2.3986053466796877,0.8003438115119934,-0.2575420141220093,0.7580363154411316,0.3217436969280243,1.8139797449111939,1.8916990756988526,-0.9962648153305054,0.8017222881317139,2.4463930130004885,-2.0002660751342775,-1.6810439825057984,-0.2486961930990219,-1.4503443241119385,0.7791403532028198,-1.3950811624526978,1.573112964630127,1.4374794960021973,0.03512091562151909,-2.7497832775115969,-0.9314266443252564,1.02577805519104,1.7993565797805787,0.8473389148712158,-1.8106884956359864,0.5231027007102966,1.0121361017227173,2.284524917602539,-0.5993115305900574,-1.0674190521240235,-0.14743606746196748,0.7237833738327026,1.9320205450057984,-0.6491364240646362,3.041546583175659,-1.9471909999847413,-0.794101357460022,1.4925782680511475,-1.4812915325164796,-1.8105442523956299,0.15093614161014558,0.7909784317016602,-0.8123589754104614,-3.0072805881500246,2.8275978565216066,3.6289544105529787,0.6629260778427124,3.1479811668395998,0.7183904647827148,2.1670217514038088,0.6856339573860169,-1.2461128234863282,-0.5255497097969055,0.21161609888076783,-0.5401245355606079,0.026587918400764467,2.0255236625671388,-1.3450027704238892,-0.2897786796092987,1.5153999328613282,-1.185166597366333,-0.7541741132736206,0.8173686265945435,3.178696393966675,-3.0923147201538088,-1.3496241569519044,3.6331753730773927,3.464742422103882,-0.8243570327758789,1.703616976737976,2.1745405197143556,-0.222624272108078,-0.12368377298116684,-3.831834554672241,4.893855094909668,2.1685447692871095,-0.5642555356025696,-0.3708462119102478,3.0583677291870119,-1.2998565435409547,1.731177806854248,-0.5485772490501404,1.5645184516906739,-0.10984378308057785,1.794025182723999,-1.5140230655670167,2.471323251724243,-0.9249544739723206,-1.9608262777328492,-1.667675256729126,-1.0606542825698853,-0.14301975071430207,-0.00429849699139595,0.6349207758903503,-0.5728570818901062,1.0433375835418702,0.5025240182876587,3.1393632888793947,-3.916490077972412,3.0274431705474855,2.2890424728393556,2.089737892150879,-0.4778119623661041,1.262677788734436,0.8055655360221863,2.679880380630493,-1.2952369451522828,0.25660863518714907,3.5641984939575197,0.07520116865634918,2.497123956680298,-0.22830945253372193,2.218183755874634,0.2798464000225067,1.881142020225525,-0.3222605884075165,-0.6578983664512634,1.137669324874878,-0.8227119445800781,2.529881477355957,-0.4066030979156494,1.3122531175613404,2.5880515575408937,-0.1830185055732727,-0.11069636046886444,-0.7076247334480286,1.2834827899932862,1.5836087465286255,-0.613441526889801,0.2649250328540802,-0.3735533058643341,1.254586100578308,4.852668285369873,-0.7165936827659607,3.642263650894165,0.7567849159240723,2.8813412189483644,0.7311323285102844,2.390291929244995],"Biases":[0.0,1.0,1.0,1.0,1.0,1.0,1.0,0.5]},"NetworkTrainingRate":0.0500000,"NetworkBestResults":[215.793212890625],"NotationCoefficient":215.793212890625,"DNAVersion":10}