{"HasData":true,"NewTraining":false,"NeuralNetworkName":"Jumper V9","StartTrainingRate":1.0,"NeuralNetworkDna":{"Weights":[0.6464676856994629,-0.7847898602485657,4.871356010437012,-1.518272876739502,-3.577920913696289,-1.6579030752182007,0.801662027835846,0.06310334801673889,1.8757028579711915,-2.0797574520111086,1.938002347946167,1.8181118965148926,-1.9251972436904908,-1.744810700416565,2.283363103866577,3.268555164337158,-3.2710304260253908,3.110219955444336,0.28103959560394289,1.3293229341506959,-0.19149500131607057,-1.116849422454834,3.7191834449768068,-1.0487061738967896,4.776317596435547,-1.2086198329925538,0.307659387588501,2.2705187797546388,3.475104570388794,0.18401412665843965,0.29197752475738528,0.20941418409347535,1.6909070014953614,0.2397962212562561,2.811398983001709,3.635620355606079,-2.602174997329712,0.023476719856262208,4.359793186187744,0.5716115236282349,4.490559101104736,0.4243263602256775,0.8530381917953491,-4.427735328674316,0.6778503656387329,1.2701416015625,0.37641626596450808,3.529174566268921,3.4995381832122804,1.7474024295806885,1.1636381149291993,1.8934863805770875,-1.5154435634613038,-2.1726107597351076,2.6965596675872804,-1.195863962173462,-0.24047544598579408,5.631197929382324,-3.214029312133789,3.1061973571777345,-3.770718574523926,2.083132266998291,-1.0645396709442139,1.7441508769989014,-3.9254934787750246,4.185020446777344,2.015511989593506,0.6698451638221741,0.37384337186813357,-0.7721946835517883,1.9901230335235596,1.9040651321411133,-2.2216477394104006,1.9922775030136109,0.5625219345092773,-0.6833606362342835,-1.2457538843154908,-0.26916855573654177,-2.6442625522613527,-4.2188720703125,2.427297830581665,-1.4450819492340088,2.2525391578674318,0.15749216079711915,-2.8850135803222658,-1.3569388389587403,1.5732707977294922,2.799692392349243,-1.5089422464370728,-3.7846739292144777,-0.20144234597682954,3.588531732559204,0.45613837242126467,0.8595418930053711,0.4179811179637909,-0.10092169046401978,3.02677059173584,-2.4183034896850588,0.7928059101104736,-3.7766671180725099,-5.5329790115356449,-0.31649050116539,-0.9849361181259155,4.679591655731201,2.1649529933929445,1.0833003520965577,-0.40921562910079958,3.3882503509521486,-1.0712603330612183,-0.5511664152145386,2.3447089195251467,-3.9148480892181398,1.3820613622665406,-1.6863726377487183,0.7355486154556274,2.1694979667663576,0.3897774815559387,0.4167649447917938,-1.3408690690994263,0.4018360674381256,-0.4640364944934845,-0.7572803497314453,2.3184008598327638,-2.410590887069702,-2.2899467945098879,-0.8892127275466919,1.367691159248352,4.903122901916504,3.0367987155914308,0.8468866944313049,-0.2995494306087494,0.19794374704360963,2.327421188354492,0.6944125890731812,-3.976093292236328,-0.04810178279876709,1.0338646173477173,4.918691635131836,-0.16709056496620179,-1.7043163776397706,1.9962002038955689,3.317567825317383,5.055893421173096,0.8930127620697022,1.0776891708374024,-0.11498519778251648,3.8222787380218508,-0.46470916271209719,2.0009260177612306,-0.5152089595794678,0.11347994208335877,-2.715710163116455,0.5624926090240479,3.3696341514587404,-0.308829665184021,-0.7799397110939026,-3.509763717651367,-0.8612676858901978,0.017852187156677247,3.5441582202911379,2.010578155517578,-1.9476207494735718,4.261370658874512,-1.0109506845474244,-1.2668386697769166,-0.3786596953868866,-0.022922933101654054,-0.17613530158996583,4.045132160186768,0.7969874143600464,-4.352468967437744,-0.8749163150787354,1.370736002922058,1.334598422050476,3.836108922958374,3.2336292266845705,-0.6608530282974243,0.14341974258422852,-0.16704393923282624,-1.6070176362991334,3.3276779651641847,2.242410898208618,-3.8989837169647219,-1.354575753211975,1.4685454368591309,-1.1552950143814088,2.4073781967163088,0.6623331904411316,-0.3461189866065979,-2.0443758964538576,3.389183282852173,1.334625482559204,-5.184821128845215,-0.2485024631023407,0.792977511882782,-2.6310720443725588,1.8689650297164918,-0.1469104140996933,1.4730867147445679,-1.5905965566635132,-4.992520809173584,1.8634400367736817,2.831559181213379,-0.06891083717346192,2.728459358215332,-1.3786219358444214,4.210573196411133,0.8434330821037293,0.3341750204563141,-1.4204362630844117,-3.465425491333008,2.411113977432251,-4.246794700622559,3.102839231491089,2.6094086170196535,-3.841463088989258,1.112648367881775,-1.115107536315918,-1.0628620386123658,3.8735909461975099,-0.3648776412010193,4.870294094085693,-4.115230083465576,1.2878499031066895,-1.9000130891799927,-1.9928170442581177,3.0973968505859377,4.11776876449585,1.6227144002914429,-4.057544231414795,2.8613152503967287,-2.4455626010894777,1.3708796501159669,2.997725486755371,3.6802542209625246,-3.6028714179992677,1.9984525442123414,4.515297889709473,1.9138054847717286,0.024186164140701295,1.0029898881912232,2.2335903644561769,-0.1377033144235611,2.3783962726593019,2.6873180866241457,2.3338775634765627,0.6895588636398315,1.935450553894043,-1.8720877170562745,-0.08089542388916016,-0.9772305488586426,1.3412010669708253,2.2829816341400148,3.3031468391418459,2.022926092147827,-1.4025074243545533,6.610108852386475,-0.6606249809265137,-1.892680048942566,-0.9384945631027222,0.5490387678146362,0.8058086037635803,0.37471869587898257,-0.15970379114151,3.0889525413513185,-2.0752553939819338,-0.6692332625389099,2.3229386806488039,-1.2505050897598267,1.8333702087402344,1.7066528797149659,3.058122158050537,1.2091611623764039,0.4631099998950958,1.6236858367919922,2.4804961681365969,1.0527931451797486,-3.1438841819763185,0.40644827485084536,-0.361613929271698,-0.5179973244667053,-3.989053249359131,2.1454710960388185,1.6207536458969117,8.412444114685059,-2.5099005699157717,0.6165105700492859,1.073587417602539,-0.7200556397438049,2.5488109588623049,1.31719970703125,6.573487758636475,-2.309512138366699,1.9743925333023072,2.338329553604126,2.2400004863739015,-0.08442337065935135,2.789024829864502,4.426963806152344,-0.26212218403816225,-3.047189950942993,-2.20686674118042,-4.807650566101074,-2.782820224761963,-0.31611159443855288,5.358244895935059,1.2560431957244874,1.309338092803955,0.8848556280136108,2.044374942779541,1.9956274032592774,0.3809008300304413,3.738584280014038,-1.9621278047561646,-3.15560245513916,6.380943298339844,-2.2923049926757814,0.8962775468826294,0.7487852573394775,3.745699167251587,4.348422050476074,2.696258783340454,6.883945465087891,-2.4992010593414308,2.9201512336730959,-0.6069950461387634,-2.1336281299591066,0.8072754740715027,-0.6586376428604126,0.4065941572189331,4.0065789222717289,-2.209416151046753,-1.6244196891784669,3.7065436840057375,1.8345941305160523,-0.34478357434272768,-1.224838137626648,-1.5501564741134644,3.2211360931396486,1.7795175313949586,-1.7802419662475587,0.9410871267318726,0.6199502944946289,0.5392959117889404,1.6573435068130494,3.6034135818481447,-0.700529158115387,4.440664768218994,-2.054049491882324,1.2295233011245728,-2.7030296325683595,-3.9018735885620119,1.3902925252914429,-0.8786352872848511,-0.02275139093399048,1.724752426147461,1.719390869140625,1.4608476161956788,4.697396278381348,4.007236957550049,-1.2856268882751465,2.301487684249878,5.016029357910156,0.6141144633293152,1.6656099557876588,5.358393669128418,-3.914085865020752,2.7895150184631349,1.7800498008728028,2.579789876937866,-2.4518826007843019,0.6366493701934815,1.1368178129196168,6.707200050354004,-1.043541431427002,-2.4095470905303957,2.742473840713501,0.6677857041358948,4.177395820617676,0.08070927858352661,3.794095993041992,1.5151928663253785,-0.44773030281066897,0.09059035778045654,-3.4559826850891115,1.201784372329712,-3.641885757446289,2.6291794776916506,-3.6183834075927736,0.6895599365234375,-4.249030113220215,3.5308895111083986,1.039289116859436,-0.19547271728515626,1.1036231517791749,1.0862222909927369,-2.3777496814727785,1.0148555040359498,3.0552220344543459,2.904036045074463,-2.4779884815216066,4.035545349121094,0.2232290655374527,0.4671057164669037,-2.754946231842041,1.5575153827667237,1.483506679534912,-1.0078723430633546,2.3332605361938478,4.021875858306885,0.1441030204296112,0.3700311481952667,-1.525894045829773,-2.2654573917388918,0.7967275977134705,2.7910211086273195,0.5503159761428833,4.925089359283447,0.6918085813522339,-0.9593985676765442,-2.802989959716797,0.37564635276794436,7.0660247802734379,-2.487839460372925,1.0171573162078858,-4.735663414001465,1.4930311441421509,0.41077160835266116,1.8324370384216309,2.846078872680664,1.7912312746047974,-0.7257441282272339,0.25155508518218996,0.06727570295333862,1.3121625185012818,-2.5063021183013918,0.5581911206245422,-2.287342071533203,2.8088889122009279,3.0212626457214357,5.6501946449279789,2.3665883541107179,-1.9073320627212525,0.6321300268173218,-0.8312486410140991,4.5199055671691898,0.8157618045806885,1.0657728910446168,0.5265460014343262,2.1247756481170656,0.053644463419914249,2.9326961040496828,0.6443530321121216,3.1199026107788088,-0.05082273110747337,0.30338096618652346,-0.6489546298980713,3.5431642532348635,4.17731237411499,1.8556718826293946,-2.068129777908325,2.8106307983398439,-0.010427415370941162,-0.4951198697090149,0.4761887192726135,-1.5035945177078248,0.7060296535491943,-1.3918761014938355,-2.7256078720092775,-0.534021258354187,4.003238677978516,2.7394187450408937,-3.1174418926239015,-1.0815056562423707,0.3276224136352539,0.129099041223526,0.7387606501579285,-1.4052097797393799,1.5641052722930909,1.8294085264205933,-3.206509828567505,0.9266630411148071,-0.4095994234085083,6.574784278869629,0.27605804800987246,2.4143903255462648,1.627670168876648,1.2046641111373902,-3.3741180896759035,-1.7328474521636963,0.13972221314907075,-0.5617474317550659,2.63601016998291,3.3812787532806398,-1.7366466522216797,2.299997568130493,1.822633147239685,3.905611515045166,-0.7889041304588318,0.24847528338432313,-1.7558916807174683,2.539186954498291,2.483079433441162,-0.9990067481994629,1.9373992681503297,3.664336681365967,3.6223697662353517,2.098541736602783,-1.2595573663711548,0.8868013024330139,-2.870905876159668,-0.8094321489334106,-0.10199946165084839,-2.8165581226348879,-0.7098815441131592,-3.4202897548675539,2.4364278316497804,1.7981191873550416,-2.0355312824249269,5.924200057983398,2.9929442405700685,4.309970855712891,-0.2382560670375824,-2.6550350189208986,-1.3925820589065552,0.061243653297424319,2.0238962173461916,3.403256416320801,-1.351296067237854,2.2077016830444338,0.21615561842918397,-3.1164121627807619,-0.6580871343612671,-0.3556092381477356,-2.4922115802764894,-2.0827507972717287,-1.5186131000518799,4.776504039764404,-0.09977996349334717,2.906522035598755,0.7230172753334045,-2.320953369140625,-2.957061529159546,1.1753394603729249,1.0164844989776612,0.5577300786972046,-0.40549978613853457,-0.13316155970096589,1.3701990842819214,0.40490493178367617,-0.745912492275238,2.0129754543304445,2.475721597671509,1.1859121322631837,-2.181128740310669,0.23741209506988526,1.3931092023849488,0.9586353302001953,3.310854434967041,1.9224871397018433,1.281041145324707,-0.8013738989830017,-0.2598547339439392,4.657444953918457,5.328591823577881,0.8130932450294495,0.16817370057106019,-4.67340612411499,-3.9850783348083498,-1.122504472732544,-0.8802306652069092,-1.9581058025360108,-2.8209445476531984,3.5709030628204347,3.772031545639038,4.138969421386719,1.6687089204788209,-3.2041220664978029,1.7984423637390137,2.7051753997802736,-2.7192819118499758,0.856375515460968,5.277505874633789,-3.075448513031006,5.443860054016113,2.112766742706299,-0.13056209683418275,2.593021869659424,-2.331071138381958,3.276487112045288,0.19324979186058045,0.6116124391555786,0.5557087659835815,1.586587905883789,4.58673620223999,0.9016661047935486,1.8232556581497193,3.5063250064849855,4.396812438964844,2.7879374027252199,1.1620293855667115,1.952197551727295,5.437731742858887,-0.369523286819458,-0.48595017194747927,-3.2554824352264406,-0.5406516790390015,0.2585621178150177,2.5781776905059816,-0.9296393394470215,-2.5486299991607668,-0.772194504737854,1.7362574338912964,2.706979513168335,-0.20639556646347047,-3.443394899368286,2.2803313732147219,1.5185511112213135,0.7291635274887085,3.40911602973938,1.2364366054534913,0.6475938558578491,1.4153010845184327,-1.9379923343658448,-3.650705099105835,3.903916358947754,-0.9176084995269775,1.431182622909546,3.5322420597076418,5.949538230895996,-3.441474199295044,1.0010921955108643,0.7433558702468872,4.995658874511719,-0.7086954116821289,-1.027391791343689,4.406927108764648,2.283853530883789,0.7534346580505371,0.5915719270706177,-0.3342982232570648,0.619453489780426,-2.8943049907684328,-1.1237276792526246,0.6548275351524353,5.742866516113281,2.3086578845977785,4.151268482208252,3.3668646812438967,-1.7962901592254639,-0.23827683925628663,-2.6782894134521486,6.03535795211792,-0.8553465008735657,4.546238899230957,6.90194845199585,-3.14886736869812,0.32582223415374758,-0.3730463683605194,-2.6951708793640138,1.052946925163269,2.9602229595184328,-2.447388172149658,0.7616190314292908,1.61923086643219,-4.0145487785339359,0.2257213443517685,-4.062570095062256,-0.39523398876190188,-1.925456166267395,4.532793998718262,-3.6417195796966554,-2.4641969203948976,-2.676828384399414,2.3016765117645265,-2.493316650390625,4.366379737854004,-1.7532739639282227,-1.8454936742782593,-0.6183038353919983,1.6286873817443848,-0.38467296957969668,3.1380491256713869,0.18743817508220673,2.3137314319610597,1.2124083042144776,3.86875057220459,0.7820335626602173,0.7936189770698547,1.9278969764709473,3.0111169815063478,-1.425079584121704,1.197712779045105,0.5519810914993286,3.973078489303589,0.9068050384521484,-8.740327835083008,1.247483491897583,0.23768728971481324,2.7136003971099855,4.931884288787842,-0.05392029881477356,2.3345065116882326,-0.22026026248931886,0.9486568570137024,-2.0972883701324465,1.158644437789917,2.6877851486206056,2.1836419105529787,1.914611577987671,-4.684845924377441,1.6902008056640626,-0.5026129484176636,1.620699405670166,-1.5500953197479249,3.3732481002807619,1.59847891330719,-0.7389389276504517,1.650338888168335,0.7152186632156372,3.7007501125335695,-0.5929296612739563,-3.8552474975585939,4.36187219619751,-1.6912705898284913,2.2611334323883058,0.34695327281951907,3.6374900341033937,-1.482055425643921,3.9491162300109865,-0.7934319376945496,1.5837334394454957,1.6733160018920899,1.5528135299682618,-2.6218183040618898,-2.291703701019287,-0.4118918478488922,-4.482071876525879,-1.5750501155853272,3.5237362384796144,1.7878806591033936,-1.2215027809143067,2.0390899181365969,2.2972447872161867,-3.369544506072998,7.780176162719727,-2.8780040740966799,-0.12281233072280884,1.4026153087615967,0.7872434258460999,3.1904914379119875,-1.1057049036026,1.6068739891052247,0.3712759017944336,1.1071747541427613,-0.2733013927936554,3.114100217819214,1.1200093030929566,2.5178239345550539,3.7613744735717775,4.672281742095947,0.7730673551559448,-3.0218520164489748,-2.4241108894348146,0.06783205270767212,2.0902023315429689,3.2372570037841799,0.6305547952651978,6.305078029632568,2.6851539611816408,2.9834697246551515,2.323106288909912,1.5294533967971802,3.8313241004943849,1.042040228843689,0.15187469124794007,-1.9489753246307374,4.4473724365234379,1.5768892765045167,1.8952782154083253,1.2729308605194092,-0.08611200749874115,-0.2921517789363861,-0.1346074342727661,-1.139021396636963,1.389589548110962,-0.4945817291736603,5.794022083282471,2.383455991744995,7.981894493103027,-2.141106367111206,1.3044805526733399,0.7687133550643921,4.902982234954834,-1.259231448173523,4.153547286987305,3.1285533905029299,1.7770471572875977,2.40187931060791,8.801268577575684],"Biases":[0.0,1.0,1.0,1.0,1.0,1.0,1.0,0.5]},"NetworkTrainingRate":1.0399534702301026,"NetworkBestResults":[5.474894046783447],"NotationCoefficient":5.474894046783447,"DNAVersion":19}