{"HasData":true,"NewTraining":false,"NeuralNetworkName":"Jumper V9","StartTrainingRate":1.0,"NeuralNetworkDna":{"Weights":[-4.191173076629639,-2.320158004760742,-1.8388121128082276,-0.7078624367713928,-0.7744045257568359,1.6043357849121094,-4.165785312652588,1.6654092073440552,-3.5885162353515627,-3.0117616653442385,-1.897778034210205,1.6058125495910645,-0.4948512315750122,1.2889971733093262,-1.9348912239074708,3.946349859237671,2.337615489959717,-0.5230625867843628,-0.3803454041481018,0.6799927949905396,0.9204552173614502,2.5850625038146974,-0.15602855384349824,-3.1283254623413088,3.60982608795166,-2.850895404815674,4.818504333496094,-1.3132685422897339,3.495037794113159,-1.695481538772583,4.862857818603516,-1.0692309141159058,2.3890304565429689,0.4089636206626892,1.2912436723709107,4.03483772277832,0.7061366438865662,0.9549140930175781,4.81451940536499,2.574180841445923,-2.374675989151001,-2.045328140258789,-2.870124340057373,5.229961395263672,1.5382925271987916,-1.5720431804656983,-2.7778472900390627,1.3715049028396607,3.395531177520752,-0.07596558332443237,2.895778179168701,-0.04021818935871124,-1.7322920560836793,3.192549228668213,-0.6905090808868408,0.46032536029815676,-2.1150176525115969,1.1081300973892213,0.7526431083679199,-0.07880592346191406,-4.425038814544678,-0.4716440439224243,-3.4292967319488527,3.1603469848632814,0.18383952975273133,2.2563352584838869,1.542191505432129,1.08143949508667,7.198844909667969,-0.028565168380737306,0.6201903223991394,-0.4213954508304596,6.411674499511719,4.947492599487305,-2.398185968399048,-0.9725611209869385,-3.120882749557495,-1.1387381553649903,-4.275022506713867,-0.27743852138519289,-0.3627074360847473,-4.97473669052124,-1.8598111867904664,0.6186054348945618,2.980905055999756,2.5830249786376955,0.2694931626319885,5.560807704925537,0.5245038866996765,0.6403598785400391,-3.011401653289795,-4.961758136749268,0.58155757188797,-0.08022251725196839,4.808764934539795,1.576047420501709,-2.4745912551879885,-3.4462454319000246,2.628152370452881,-0.8544661998748779,9.685205459594727,0.8175044059753418,0.2765490710735321,-0.08949945867061615,-1.0206542015075684,2.228393316268921,2.2820401191711427,0.06023383140563965,0.5450415015220642,-0.07010585069656372,-2.891378164291382,4.525460720062256,0.5146071910858154,-1.3609122037887574,3.1050100326538088,-5.069764137268066,-2.3881945610046388,-4.20205020904541,1.3301939964294434,-0.3514854609966278,0.32746240496635439,-1.6987040042877198,-3.1852691173553469,3.5405304431915285,-1.6353237628936768,-2.2361860275268556,-4.332543849945068,6.137473106384277,-5.30549955368042,2.7117230892181398,2.103238105773926,0.35648059844970705,-1.8962351083755494,-1.6933443546295167,-2.1624755859375,2.5102956295013429,5.281641483306885,3.1486358642578127,3.489858627319336,1.5091665983200074,4.249326705932617,1.813401699066162,0.8371371030807495,-0.16685059666633607,5.690046787261963,0.8576273918151856,-2.5336856842041017,-2.4293599128723146,-0.07537832856178284,0.007580935955047607,-0.7876564264297485,6.270120143890381,0.6571869254112244,1.5466644763946534,1.0440587997436524,1.0579363107681275,-0.04352283477783203,-1.208265781402588,2.8849260807037355,1.5765749216079713,0.6527076959609985,-0.3694898188114166,4.06186580657959,-0.2998974025249481,-2.584054946899414,3.3766732215881349,-2.4493424892425539,4.629612922668457,3.316955804824829,1.8060870170593262,0.7401976585388184,2.3528099060058595,-3.1932222843170168,6.539709091186523,-1.862807273864746,-1.245600700378418,2.7450971603393556,-1.4566302299499512,0.19029419124126435,2.4847590923309328,4.734271049499512,4.243582725524902,0.7571611404418945,0.6023849248886108,-2.2176661491394045,1.0528175830841065,-3.168254852294922,-1.6107481718063355,3.4406869411468508,5.615932464599609,-2.193622350692749,-0.1960708200931549,1.5684103965759278,-1.8331658840179444,0.2922980487346649,6.872014045715332,-5.183558940887451,1.8025263547897339,3.7444100379943849,0.47663414478302,-0.2844291627407074,-2.399569034576416,4.87460994720459,-4.0210371017456059,1.376632809638977,1.3107620477676392,-2.0318920612335207,4.446689605712891,3.9440770149230959,2.052356004714966,-0.7920726537704468,-1.267899751663208,-0.602336049079895,4.323661804199219,-0.44405579566955569,2.5178699493408205,-3.239147901535034,3.3007590770721437,-4.594117164611816,-0.21216174960136414,3.0044169425964357,-2.7200253009796144,0.3974597454071045,-2.5785744190216066,2.6995623111724855,1.473970890045166,-1.6621073484420777,0.8449242115020752,-5.915634632110596,-0.8269509673118591,3.0861988067626955,-3.6070477962493898,-2.8332536220550539,0.5479085445404053,0.8718104958534241,6.219465255737305,0.3927946984767914,3.933218002319336,1.0805046558380128,1.7576191425323487,-1.0427190065383912,3.7639148235321047,-0.6999018788337708,-2.8929224014282228,2.000671625137329,0.07174712419509888,0.9138318300247192,-1.183028221130371,3.0916736125946047,1.1830179691314698,3.7675092220306398,0.5829950571060181,-0.5264908075332642,3.454686403274536,5.218774795532227,-0.8532313108444214,3.9893133640289308,-0.01125982403755188,5.780868053436279,-3.2484169006347658,-0.48059213161468508,4.527867794036865,1.2194939851760865,0.5306268334388733,3.339935064315796,-2.854261636734009,-0.25570759177207949,4.0363969802856449,0.49140095710754397,-0.19768531620502473,0.9085127115249634,1.7505120038986207,0.3842231035232544,5.883698463439941,0.7839401960372925,1.3494951725006104,6.713718414306641,-0.4259001910686493,0.8182958364486694,3.313779354095459,-0.777774453163147,0.30313149094581606,-1.2969658374786378,1.5537397861480713,1.8412282466888428,-2.058628797531128,1.9000747203826905,2.2167320251464845,-0.3785085380077362,-5.1419854164123539,0.2909488379955292,2.8335840702056886,0.4930861294269562,3.6508994102478029,4.838326930999756,2.7929320335388185,-6.19594669342041,4.661072731018066,1.4693520069122315,-0.6698400974273682,3.336383819580078,1.0032155513763428,0.232610821723938,5.3653717041015629,1.9836723804473878,1.4656941890716553,2.6808767318725588,3.9384634494781496,2.7451372146606447,4.688823223114014,0.09697926044464112,-0.5846227407455444,-0.5359132289886475,1.5290820598602296,1.2535921335220338,-1.3963899612426758,4.050514221191406,0.3668314218521118,-0.6428247094154358,4.566969394683838,-3.158346176147461,-5.35917329788208,5.643558025360107,-2.152601718902588,-3.5697875022888185,-2.1468403339385988,-1.540715217590332,4.207829475402832,3.6737258434295656,-2.456070899963379,1.218461513519287,-1.074347734451294,-1.3561606407165528,-1.0595508813858033,-2.8211793899536135,-1.5364326238632203,1.4986459016799927,0.6120038032531738,-0.09274688363075257,0.5687317848205566,-3.3649580478668215,1.3893334865570069,-1.3118385076522828,-0.730581521987915,-2.8122715950012209,0.7217388153076172,-2.7338674068450929,-2.197463274002075,2.0611088275909426,2.0811028480529787,1.1956665515899659,4.019767761230469,0.0710659921169281,0.8935851454734802,3.8575937747955324,-2.4582173824310304,-1.8661571741104127,-2.983366012573242,1.1752794981002808,-2.5555901527404787,6.30819034576416,2.600187301635742,1.121001958847046,4.078445911407471,3.241892099380493,-0.6678077578544617,1.8291442394256592,-0.4168779253959656,6.011413097381592,-1.807725191116333,-1.4580426216125489,5.067148685455322,-0.2617540657520294,-0.9392783641815186,0.9741968512535095,-1.6230835914611817,-0.7770019769668579,0.24558305740356446,0.043815359473228458,2.1655187606811525,1.098860263824463,-1.1180248260498047,-5.170050144195557,0.36212417483329775,4.420093059539795,4.269491195678711,1.1028341054916382,-1.2390087842941285,-1.764735460281372,2.95896053314209,1.4326157569885255,-3.704965829849243,-2.753777503967285,2.38368821144104,0.6204198002815247,-3.892789363861084,0.3973703682422638,-3.2682435512542726,-0.5321566462516785,0.6927239298820496,8.587606430053711,-3.239656448364258,-7.686277389526367,1.689643383026123,1.5264687538146973,-0.07063460350036621,1.4559357166290284,2.488105297088623,-1.0978682041168213,-0.5601192712783814,1.2125831842422486,-2.3300302028656008,-3.5989348888397219,2.1131234169006349,2.0336287021636965,-7.226357936859131,-0.6438663005828857,-3.4264543056488039,1.883439540863037,-2.128706932067871,4.155316352844238,5.045677185058594,0.09781652688980103,0.2582269310951233,-1.389200210571289,2.2587969303131105,-0.3234207332134247,1.6060502529144288,-0.7279398441314697,3.489553928375244,0.46236541867256167,-1.798651933670044,2.704801082611084,0.13121838867664338,2.360280752182007,1.8992836475372315,2.784524440765381,3.5232906341552736,-0.84831702709198,1.697170376777649,-1.0745800733566285,2.1000943183898927,-1.6150119304656983,8.279731750488282,0.10912397503852844,-0.7589276432991028,-2.389235019683838,-4.012691497802734,-0.4806382358074188,1.2495012283325196,-1.308618187904358,0.8772169351577759,-3.1882803440093996,4.391448974609375,0.7360610365867615,1.5512675046920777,3.297877788543701,1.4776887893676758,4.122217178344727,-2.6649551391601564,0.46821916103363039,0.9482831954956055,-0.9903186559677124,4.12045955657959,-0.541701078414917,1.2629562616348267,3.022111177444458,0.23549219965934754,-0.25783997774124148,5.414425849914551,2.4716763496398927,-0.5328942537307739,2.686851739883423,-1.1869906187057496,-0.4337409436702728,0.7355249524116516,1.8879945278167725,1.424921989440918,4.807168960571289,1.614914894104004,-0.02913534641265869,0.7609896659851074,1.6998385190963746,3.7566471099853517,3.410599946975708,1.8227341175079346,-2.0539348125457765,-4.7528181076049809,-1.8772612810134888,-2.360605478286743,0.2934328615665436,3.592907428741455,1.059870719909668,0.45077618956565859,-1.6949406862258912,0.6779757142066956,1.0352332592010499,0.058022111654281619,6.210882186889648,-1.2450063228607178,2.5781896114349367,-0.5841543078422546,-0.18013101816177369,-0.8785222768783569,3.9371018409729006,-4.653370380401611,0.9649556279182434,3.0713534355163576,0.5056905150413513,3.569065570831299,0.2680310308933258,1.112251877784729,4.305399417877197,4.217333793640137,2.337778091430664,-0.074168860912323,1.0730687379837037,0.45965737104415896,5.0886735916137699,-2.2340610027313234,1.741641640663147,2.7396528720855715,2.214921236038208,2.9574761390686037,0.8778508305549622,2.484327554702759,1.1956937313079835,4.121746063232422,-1.8159573078155518,1.743215799331665,-0.46737876534461977,2.4469714164733888,-0.6599206328392029,-2.392756700515747,2.1779778003692629,3.429588794708252,-0.7848787307739258,-2.1964683532714845,-5.029932498931885,0.879934549331665,6.216597080230713,2.448251724243164,3.6984758377075197,-0.5548878908157349,0.12036159634590149,4.92523193359375,0.5766741037368774,-3.607304096221924,3.592038154602051,2.2124812602996828,0.46043574810028078,0.8027464151382446,2.623917818069458,4.587477684020996,-5.063655853271484,0.38603925704956057,1.72061288356781,3.9006869792938234,1.8557288646697999,-1.1875821352005005,1.666827917098999,0.4988883137702942,-5.221656799316406,4.548995494842529,2.3639771938323976,-2.684140682220459,5.170848846435547,0.8866714835166931,1.6450366973876954,3.6165363788604738,0.744105339050293,2.1229515075683595,5.370025157928467,-3.9740214347839357,6.069357395172119,1.0381975173950196,4.426815032958984,4.775137424468994,-1.8909738063812256,-2.335341215133667,-1.024011492729187,2.235531806945801,-1.328881859779358,0.6903507709503174,6.590917587280273,4.681235313415527,1.2116129398345948,-0.2867949903011322,-3.1068286895751955,4.68029260635376,-0.15461331605911256,-5.599287033081055,-1.344763994216919,3.504507541656494,-3.0267932415008547,2.2654342651367189,-1.179233193397522,-2.18613338470459,0.7742165923118591,-1.4973620176315308,-2.7641758918762209,1.0179321765899659,-1.689209222793579,4.957590579986572,-0.6050636768341065,2.2466046810150148,2.752692699432373,3.227717876434326,1.0130571126937867,6.666576385498047,1.708613395690918,1.408568024635315,1.2472842931747437,1.3897550106048585,-0.26980549097061159,-3.4358022212982179,2.816967248916626,1.6378626823425294,2.4730336666107179,-4.390320777893066,1.3739486932754517,-0.7491902709007263,-0.049507081508636478,2.127664566040039,-3.6683461666107179,-0.9408754110336304,-0.91805100440979,2.7952375411987306,-2.0458261966705324,1.1665091514587403,-4.147272109985352,2.899528980255127,1.981702208518982,5.164824485778809,2.5681750774383547,3.464160442352295,-3.8640353679656984,4.382265090942383,-0.297491192817688,-0.8966076970100403,-1.4042350053787232,-0.4830113649368286,0.5026789903640747,-3.3124709129333498,0.5247397422790527,8.094375610351563,6.000795364379883,3.1459150314331056,0.9459528923034668,2.881680488586426,6.494539737701416,0.2042110562324524,-0.9618699550628662,-0.598884105682373,1.0963201522827149,1.0706257820129395,-1.5884453058242798,-1.7956552505493165,5.058351993560791,-1.4707450866699219,4.236756324768066,-1.3975871801376343,0.6460241675376892,-0.8900766372680664,-5.7623291015625,1.1901898384094239,2.601858615875244,0.5374139547348023,3.221956491470337,1.1508572101593018,-1.7368937730789185,0.02194982022047043,2.5092849731445314,4.177044868469238,2.358335256576538,3.117549180984497,-1.7724674940109254,3.575479030609131,7.645965576171875,-0.4202159643173218,-0.2707080841064453,-2.5684657096862795,4.565513610839844,2.406492233276367,2.517753839492798,2.7795114517211916,-0.8788223266601563,-0.47865113615989687,-4.42838191986084,0.07622852921485901,0.41002562642097475,0.06515911221504212,2.908170700073242,-0.28644102811813357,1.743158221244812,1.004606008529663,0.21311917901039124,3.6781864166259767,-0.5767356753349304,2.3830645084381105,-0.18353810906410218,5.877395153045654,0.1304279863834381,-0.6064079999923706,-3.2693426609039308,-2.375511646270752,2.658315420150757,0.9699829816818237,-4.255949020385742,4.952936172485352,0.7279918789863586,3.5197839736938478,1.1743013858795167,0.5053796768188477,4.047738552093506,-1.083443522453308,2.5309016704559328,4.089357376098633,2.7286791801452638,0.8385396003723145,2.498098611831665,-0.1299646496772766,6.181464195251465,-1.1296592950820923,0.3264138996601105,0.6955317258834839,3.434011936187744,-0.4256872534751892,-1.5648436546325684,-1.4389612674713135,1.4786185026168824,-3.921198844909668,2.619967460632324,-1.1969114542007447,-2.7014918327331545,3.0396432876586916,1.621917724609375,0.31707173585891726,1.7759113311767579,1.1400296688079835,3.167851448059082,5.311939239501953,2.7200472354888918,3.03605055809021,-5.673822402954102,10.014155387878418,3.6137378215789797,-0.49052321910858157,-0.14224913716316224,2.8948116302490236,-0.24068817496299745,0.29390132427215578,-2.9133238792419435,2.300370454788208,5.3584113121032719,0.9199780821800232,-1.7354241609573365,-1.675316572189331,-2.1456143856048586,1.9668582677841187,1.0244697332382203,-5.205287456512451,-0.8126575946807861,-2.960846424102783,2.361400842666626,-2.443096399307251,7.298702716827393,5.332800388336182,2.890044689178467,0.6929101943969727,1.3394079208374024,4.786245346069336,1.2370381355285645,-0.3491455018520355,-2.0990185737609865,4.018970489501953,0.14027650654315949,0.8481830358505249,2.296231269836426,3.0849294662475588,-1.9684722423553467,3.206967830657959,-3.8179848194122316,1.4258899688720704,2.6296491622924806,-1.5284653902053834,-1.8547070026397706,2.459587812423706,9.01475715637207,4.349231243133545,5.5849480628967289,5.093222141265869,-0.7310752868652344,4.714205265045166,-1.8538039922714234,2.8667142391204836,1.8773812055587769,4.028729438781738,-3.6420063972473146,3.4952592849731447],"Biases":[0.0,1.0,1.0,1.0,1.0,1.0,1.0,0.5]},"NetworkTrainingRate":1.0504770278930665,"NetworkBestResults":[82.99798583984375],"NotationCoefficient":82.99798583984375,"DNAVersion":23}