{"HasData":true,"NewTraining":false,"NeuralNetworkName":"Jumper V9","StartTrainingRate":1.0,"NeuralNetworkDna":{"Weights":[-3.875697612762451,-2.389113426208496,-1.6914763450622559,-0.31442707777023318,-0.3381824493408203,1.6868491172790528,-4.556405544281006,1.3728517293930054,-3.9459593296051027,-3.283717632293701,-1.4971442222595215,1.1911942958831788,-0.027318891137838365,1.1904877424240113,-2.1895856857299806,3.9187309741973879,1.894299864768982,-0.931582510471344,-0.67169189453125,0.18480587005615235,0.6893925666809082,2.492922067642212,-0.2250368595123291,-3.3473780155181886,4.129317760467529,-3.0411009788513185,4.786654472351074,-1.3988662958145142,3.288058280944824,-1.7783968448638917,5.175323963165283,-1.0758190155029297,2.1261541843414308,0.4126705527305603,1.5438923835754395,4.1064629554748539,0.26544898748397829,0.5002158284187317,4.529366493225098,2.9709548950195314,-2.7106964588165285,-1.787125825881958,-2.49345064163208,4.965298652648926,1.1902785301208497,-1.3594472408294678,-2.760209083557129,1.6197340488433838,3.009195566177368,-0.18718482553958894,3.314155340194702,-0.06543980538845062,-2.202632427215576,3.6633012294769289,-1.0039637088775635,0.08723130077123642,-1.5753613710403443,1.6195907592773438,1.2826074361801148,-0.4051647484302521,-4.024161338806152,-0.8232828378677368,-3.1197361946105959,2.9641940593719484,0.49141573905944826,1.8707116842269898,1.7966527938842774,0.9248417615890503,7.548836708068848,0.13847468793392182,0.4559606611728668,-0.35159483551979067,6.423652648925781,4.576276779174805,-1.9220294952392579,-0.984025239944458,-3.630413055419922,-1.1151490211486817,-3.8369104862213136,-0.0553218275308609,-0.08669711649417877,-5.138153076171875,-1.8558180332183838,1.0976283550262452,3.117722988128662,2.182981252670288,-0.040622442960739139,5.29102087020874,1.0021073818206788,0.4653044641017914,-3.1078386306762697,-4.892483711242676,0.7526062726974487,-0.21042579412460328,4.855833530426025,1.7019810676574708,-2.3624117374420168,-2.9470834732055666,2.6374454498291017,-1.1638263463974,9.234912872314454,0.6631579399108887,0.8035769462585449,-0.0663975179195404,-0.970746636390686,2.365205764770508,2.199667453765869,-0.38242068886756899,0.5133522748947144,0.13553597033023835,-2.6431796550750734,4.124639987945557,0.16025817394256593,-0.9872826337814331,3.2368195056915285,-4.899095058441162,-2.498741626739502,-4.146193504333496,0.8823269605636597,-0.1516009122133255,0.8202879428863525,-1.3347595930099488,-3.6899566650390627,3.746519088745117,-1.8406906127929688,-2.076212167739868,-4.781412124633789,6.052224159240723,-5.272775173187256,2.711850643157959,2.180795192718506,0.491716206073761,-2.067070722579956,-1.2498068809509278,-1.82297682762146,2.9865691661834719,5.697463512420654,2.8803348541259767,3.2581052780151369,1.9715986251831055,4.766180515289307,1.9606894254684449,0.6503749489784241,-0.6540677547454834,5.217528343200684,1.3553438186645508,-2.118008613586426,-2.808708906173706,0.06555108726024628,0.44752228260040285,-0.30652379989624026,6.314480781555176,1.1804213523864747,1.2947897911071778,1.406909704208374,0.8028955459594727,-0.34182146191596987,-0.6821495294570923,3.424945592880249,1.1054327487945557,0.16779553890228272,-0.8154237866401672,4.365532398223877,-0.2014610916376114,-2.375340461730957,3.706212043762207,-2.682170867919922,4.1325531005859379,3.3790946006774904,1.637864351272583,1.2644301652908326,2.0759682655334474,-3.3311684131622316,6.05735445022583,-2.40158748626709,-1.4683841466903687,2.783717155456543,-1.2899441719055176,0.14406993985176087,2.8721978664398195,5.195125579833984,4.299007892608643,0.7165257930755615,1.0878477096557618,-2.466946601867676,0.9467487931251526,-2.9475033283233644,-1.3702126741409302,3.279250383377075,5.2087883949279789,-1.9228148460388184,0.2801041007041931,1.6911675930023194,-2.349067449569702,0.43774721026420596,7.132437229156494,-5.592061996459961,1.3796117305755616,4.215641021728516,0.1822860836982727,0.15353509783744813,-2.64005446434021,5.228607654571533,-4.095973014831543,1.487565279006958,1.620588779449463,-2.0523972511291506,4.935366630554199,4.372624397277832,1.9023923873901368,-0.9965294599533081,-1.112776756286621,-0.7793750166893005,3.9078030586242677,-0.001848168671131134,2.4722347259521486,-3.157494068145752,3.3369712829589845,-5.044198036193848,0.0772150307893753,2.671342372894287,-2.3954873085021974,0.45296043157577517,-2.4462218284606935,3.192218780517578,1.4913522005081177,-2.017498254776001,0.8066457509994507,-6.278645992279053,-0.9057378768920898,2.765127182006836,-3.385951280593872,-2.7654318809509279,0.5626347661018372,0.545459508895874,6.145714282989502,0.7164493203163147,3.8848280906677248,1.2942122220993043,1.9740535020828248,-0.8636950254440308,3.88031268119812,-1.2387827634811402,-3.352032423019409,2.4218502044677736,0.32491815090179446,0.9281666874885559,-0.6637839674949646,2.774818181991577,0.8944718837738037,3.7960777282714845,0.8262026906013489,-0.7835643291473389,3.788356304168701,5.50312614440918,-0.52301025390625,4.121627330780029,0.2724354863166809,5.982858657836914,-2.712470531463623,-0.7507937550544739,4.920749664306641,1.0714727640151978,0.4301755130290985,3.106994152069092,-2.548602819442749,-0.6749274730682373,4.08452033996582,0.7457651495933533,0.2891140878200531,0.6248179078102112,2.0417022705078127,0.2325601726770401,5.370678901672363,0.31383198499679568,1.325583577156067,6.679162502288818,-0.3598938584327698,1.3120050430297852,2.772493839263916,-1.065610408782959,0.6344317197799683,-1.7146563529968262,1.0907750129699708,2.30897855758667,-2.125129222869873,1.8951497077941895,1.8914432525634766,-0.8991180658340454,-4.909682273864746,0.3638174533843994,2.7898411750793459,0.830456554889679,3.6641180515289308,4.4074578285217289,3.075857162475586,-6.455799579620361,4.627983093261719,1.1490650177001954,-0.4117172360420227,3.5561327934265138,1.151268482208252,-0.2251555621623993,4.921999931335449,1.8892953395843506,1.9795770645141602,2.329092502593994,4.22054386138916,2.26423716545105,4.398979187011719,0.5499974489212036,-0.16555722057819367,-0.6965504288673401,1.4438986778259278,1.0814260244369507,-1.180885672569275,4.281363010406494,-0.05135584622621536,-0.17648684978485108,4.5841450691223148,-3.653630018234253,-5.474982738494873,5.775539875030518,-1.8861274719238282,-3.814194679260254,-2.4295053482055666,-1.2281866073608399,4.507024765014648,3.8910295963287355,-2.52022647857666,1.6222875118255616,-0.7811040878295898,-1.6619999408721924,-1.0639137029647828,-2.545319080352783,-1.9558565616607667,1.1815972328186036,0.42974549531936648,-0.07722361385822296,0.7817184329032898,-3.6173465251922609,1.8641462326049805,-1.475178837776184,-0.2649700343608856,-2.7478482723236086,0.4424665570259094,-3.0980048179626467,-1.8817507028579713,2.453939199447632,1.7512469291687012,1.1684321165084839,4.056008338928223,-0.15934330224990846,1.163312315940857,4.3283281326293949,-2.602376937866211,-1.9131815433502198,-3.077941417694092,1.1580849885940552,-2.2921860218048097,5.956631183624268,3.0044827461242677,1.327315092086792,4.491058349609375,2.7950258255004885,-0.13369014859199525,2.0844407081604006,-0.5759307742118836,5.930347442626953,-1.2811411619186402,-0.9686496257781982,5.437125205993652,-0.650026798248291,-0.8876187801361084,1.5061922073364258,-1.5308184623718262,-0.3540419936180115,0.19367161393165589,0.5552136301994324,2.346208095550537,0.9038407802581787,-1.6170017719268799,-5.275050163269043,0.49923014640808108,3.98897647857666,4.720038890838623,0.8795938491821289,-1.6720789670944214,-1.9185186624526978,2.5286993980407717,0.9213038682937622,-3.460355281829834,-2.957590103149414,2.124180316925049,0.8725273013114929,-4.300558567047119,-0.004224225878715515,-2.7738921642303469,-0.5838558673858643,0.5533376932144165,8.814159393310547,-3.483670234680176,-7.321901321411133,1.4500625133514405,1.2061232328414918,-0.3375728726387024,1.5525288581848145,2.9817631244659426,-0.6870124936103821,-0.1416127234697342,0.7437124848365784,-2.813384771347046,-3.900942325592041,1.6275300979614258,1.7712475061416627,-7.6747565269470219,-0.7735313177108765,-3.4911112785339357,2.316082239151001,-1.9536062479019166,4.645266056060791,4.771976470947266,0.14673832058906556,0.6636512279510498,-0.9891897439956665,2.2076642513275148,0.18555419147014619,1.0734636783599854,-0.648951530456543,3.3376967906951906,0.41150572896003725,-1.3553411960601807,2.5422325134277345,0.23980602622032166,1.9818751811981202,2.0443572998046877,3.1357738971710207,3.12250018119812,-0.4338524043560028,1.6475286483764649,-1.2100759744644166,1.7474710941314698,-1.3086204528808594,7.903731346130371,0.38798967003822329,-0.879093587398529,-2.4785356521606447,-4.47766637802124,-0.5656495690345764,1.2509729862213135,-1.7336324453353882,0.36768537759780886,-3.643049478530884,4.400710105895996,0.6551116108894348,1.3362324237823487,3.2667365074157717,1.900986671447754,3.7360973358154299,-2.5207865238189699,0.4009281396865845,1.2510865926742554,-0.905852735042572,4.51986837387085,-0.030769377946853639,1.6581047773361207,3.449639320373535,0.23652102053165437,0.189109206199646,4.885261535644531,2.0416035652160646,-0.8443036079406738,2.9235239028930666,-1.4423640966415406,-0.3600465953350067,0.698632001876831,1.8386216163635255,1.1311047077178956,4.963764667510986,1.761853575706482,-0.16467447578907014,1.2833988666534424,1.7338981628417969,4.108500003814697,3.6039161682128908,2.036716938018799,-1.6376056671142579,-4.639238357543945,-1.4206911325454713,-2.8895626068115236,0.7551806569099426,3.3974781036376955,0.6107369661331177,0.9749889373779297,-1.373214602470398,1.0925066471099854,0.9430851936340332,-0.11959868669509888,6.2997541427612309,-0.9429666996002197,2.0465805530548097,-0.3969452679157257,-0.5902833938598633,-0.8334859013557434,4.266926288604736,-4.481621265411377,1.4928861856460572,3.366762638092041,0.16582342982292176,3.5330023765563967,0.4151166081428528,1.4786877632141114,3.884036064147949,3.82120680809021,2.2411201000213625,-0.1971549391746521,0.5530232787132263,0.8613449335098267,5.254732131958008,-2.141857624053955,2.142570972442627,3.073281764984131,1.709089994430542,2.6846439838409426,1.003823161125183,2.8684136867523195,0.870773434638977,4.522218227386475,-1.6865296363830567,1.9741301536560059,-0.64613938331604,2.2584989070892336,-1.081028938293457,-1.9886512756347657,1.7278358936309815,2.9291234016418459,-1.1774117946624756,-2.4848756790161135,-4.844029426574707,0.9388097524642944,5.873319625854492,2.3042263984680177,3.301544666290283,-0.4537155330181122,-0.2085600644350052,4.568384170532227,0.9167338013648987,-3.651463508605957,3.848877429962158,2.5922346115112306,0.10149654746055603,1.1451712846755982,2.174386978149414,5.124255180358887,-5.304420471191406,0.2559427320957184,1.675160527229309,3.4468934535980226,1.337309718132019,-1.4418020248413087,2.006193161010742,0.6347039937973023,-5.468415260314941,4.780391693115234,2.423783540725708,-2.8958241939544679,5.4914350509643559,0.9384065270423889,1.934800148010254,3.71760892868042,0.3029769957065582,2.526506185531616,5.521478176116943,-3.5419492721557619,5.638908386230469,0.8833291530609131,4.054347515106201,4.2740702629089359,-2.201633930206299,-2.4003236293792726,-1.4891893863677979,2.48557186126709,-1.8484693765640259,0.5278642177581787,6.689144134521484,5.126837730407715,1.312743902206421,-0.09035049378871918,-3.4666528701782228,5.022902011871338,-0.5618386268615723,-5.486540794372559,-1.544866681098938,3.3350934982299806,-2.888397216796875,2.6424384117126467,-1.3805787563323975,-2.3252477645874025,0.448534220457077,-1.2526215314865113,-2.7484707832336427,0.9497085809707642,-1.4689927101135255,4.670210838317871,-1.0636954307556153,2.5663399696350099,3.197706937789917,3.3523037433624269,0.6435601711273193,6.253357887268066,2.0116965770721437,1.9322500228881837,1.5660163164138795,1.8422131538391114,-0.40451091527938845,-3.1775991916656496,2.3684566020965578,1.3870644569396973,2.9973883628845217,-4.494304656982422,1.6685134172439576,-1.0839781761169434,0.30831262469291689,1.7082427740097047,-3.166264533996582,-1.0870651006698609,-1.3336395025253297,3.0961952209472658,-2.4552197456359865,1.4428867101669312,-3.859388589859009,3.0818378925323488,1.9811855554580689,5.4722819328308109,2.1037709712982179,3.827531099319458,-4.1974196434021,4.887003421783447,0.05165797472000122,-0.8896991014480591,-1.206378698348999,-0.4208223223686218,0.09838274121284485,-2.8484582901000978,0.7248020172119141,8.633957862854004,5.900752067565918,2.8573460578918459,1.484849452972412,3.006732702255249,6.052119255065918,0.41691482067108157,-0.9266180992126465,-0.32932907342910769,1.535986304283142,0.9917088150978088,-1.942895770072937,-1.369101881980896,5.329790115356445,-1.9003757238388062,4.445958137512207,-0.9123712182044983,0.2301047146320343,-0.8609731197357178,-5.782258987426758,1.3904752731323243,2.8567957878112795,0.5434198379516602,3.02877140045166,1.2201917171478272,-1.8139886856079102,-0.36407992243766787,2.659973621368408,3.6906700134277345,1.937444806098938,2.6032028198242189,-2.078709125518799,4.072533130645752,8.036270141601563,-0.4711754322052002,-0.4110855758190155,-3.105257272720337,4.776887893676758,2.108391761779785,2.439006805419922,2.580456256866455,-1.2817332744598389,-0.39625588059425356,-4.433746337890625,-0.33526530861854555,0.3575807809829712,-0.25361305475234988,2.8613104820251467,-0.34563887119293215,1.2019963264465333,0.7700823545455933,0.5966076850891113,3.173539876937866,-1.0877926349639893,2.3056797981262209,-0.49036240577697756,5.408169746398926,0.19338762760162354,-1.0683692693710328,-3.173856258392334,-2.2629668712615969,2.6953554153442385,1.1392245292663575,-3.9337737560272219,5.343958377838135,0.5013120174407959,3.426934242248535,0.6452853679656982,0.9861928820610046,3.870577812194824,-0.8558838367462158,2.987422466278076,3.957888603210449,2.3059513568878176,0.42245596647262576,2.9569144248962404,-0.5254889130592346,5.80148983001709,-0.8228014707565308,0.7261870503425598,1.1578831672668458,3.0609259605407717,-0.6070191860198975,-1.565730333328247,-1.0630961656570435,1.174437165260315,-3.451550006866455,2.520311117172241,-1.1896764039993287,-2.7565221786499025,3.1338000297546388,1.4548330307006837,0.557758629322052,2.0874128341674806,0.8998773097991943,3.4335672855377199,5.387776851654053,2.7929482460021974,3.1545052528381349,-5.314826011657715,9.726554870605469,3.9108221530914308,-0.7287384867668152,-0.0324874222278595,2.9095258712768556,-0.036510393023490909,0.4827995002269745,-3.1977956295013429,1.8425474166870118,4.958588123321533,1.4257155656814576,-1.8022115230560303,-1.8302723169326783,-2.2029213905334474,1.7256426811218262,0.7930992841720581,-4.8480377197265629,-0.974031925201416,-3.3790478706359865,2.8985819816589357,-2.6471564769744875,7.490896224975586,5.162790775299072,2.6333022117614748,0.862298846244812,1.1440176963806153,4.563948631286621,1.2161879539489747,-0.5988931059837341,-2.0809526443481447,4.547508716583252,0.6121558547019959,0.8773776888847351,1.7684590816497803,2.5859603881835939,-2.084705114364624,3.0505807399749758,-3.6108503341674806,1.129417896270752,3.0304172039031984,-1.2911863327026368,-2.0389633178710939,2.3445358276367189,9.138612747192383,4.148189544677734,5.4592671394348148,4.875908851623535,-0.3976464867591858,4.4377946853637699,-1.3280065059661866,3.051353931427002,2.115241527557373,3.922811508178711,-3.5725908279418947,3.719383716583252],"Biases":[0.0,1.0,1.0,1.0,1.0,1.0,1.0,0.5]},"NetworkTrainingRate":0.5078492760658264,"NetworkBestResults":[119.25543212890625],"NotationCoefficient":119.25543212890625,"DNAVersion":24}