{"HasData":true,"NewTraining":false,"NeuralNetworkName":"Jumper V9","StartTrainingRate":5.0,"NeuralNetworkDna":{"Weights":[-4.001649856567383,4.8158087730407719,0.37522053718566897,5.3442792892456059,-0.3997640609741211,-0.6193249225616455,-4.56859827041626,-4.156843185424805,0.48495984077453616,-1.074878454208374,4.19769287109375,2.5116262435913088,5.073244094848633,-1.2856531143188477,1.1345481872558594,2.4806056022644045,-1.2083032131195069,-2.1800663471221926,4.586044788360596,-3.524449110031128,-1.766381025314331,5.227627754211426,-1.9110416173934937,1.9117019176483155,3.4344422817230226,-1.273207664489746,-1.5709296464920045,-2.4638020992279054,-3.645263910293579,0.4788370132446289,0.36151909828186037,5.496220588684082,-1.476672649383545,2.6207313537597658,-4.917751789093018,-4.16316556930542,5.084864139556885,0.22264337539672852,2.015835762023926,2.501809597015381,-2.3650786876678469,-2.8194127082824709,1.024686574935913,0.5310657024383545,1.7011393308639527,2.7975640296936037,-4.399273872375488,-4.097236633300781,-3.8358101844787599,0.4678962230682373,4.855297565460205,2.0216400623321535,-3.239147186279297,-3.2254819869995119,-3.997115135192871,-0.0723104476928711,4.4453606605529789,-1.4579039812088013,2.138888359069824,-3.7112576961517336,3.3876678943634035,-0.27205753326416018,5.272027969360352,-1.7235734462738038,-1.7632510662078858,-3.4784739017486574,5.627382755279541,-3.1598498821258547,4.735698223114014,4.14400577545166,-0.7483868598937988,3.9358251094818117,-0.6000392436981201,3.3572609424591066,-3.7248950004577638,-0.30288076400756838,4.631876468658447,4.653707504272461,-1.9653407335281373,-2.2416934967041017,0.13821721076965333,-1.8766857385635377,-2.5515024662017824,-2.564110279083252,3.9351911544799806,1.2441726922988892,-4.055843830108643,0.6070449352264404,2.3801817893981935,-2.6064422130584719,-3.4164648056030275,5.0639190673828129,2.6369991302490236,1.511327862739563,0.49892187118530276,4.378413677215576,4.568273067474365,-1.1297420263290406,3.594266176223755,-1.7518037557601929,-0.5410633087158203,4.577989101409912,3.87046480178833,-4.114413738250732,4.682715892791748,-0.4391515254974365,-3.1713974475860597,0.7834529876708984,3.1003034114837648,-3.438403367996216,1.5495063066482545,-0.11506319046020508,-3.6977460384368898,-4.180896759033203,1.1124143600463868,1.9732962846755982,1.7487720251083375,3.813488483428955,-0.3549540042877197,1.0829083919525147,3.0970511436462404,1.0432004928588868,4.476694583892822,2.002336263656616,0.1049952507019043,2.7160511016845705,-0.6325814723968506,2.0225830078125,2.082610607147217,-0.40730881690979006,0.27928900718688967,-1.5994160175323487,1.699193000793457,-3.6701056957244875,-4.032499313354492,2.6737632751464845,-0.03321194648742676,-1.0055516958236695,5.247775077819824,4.10935640335083,4.178758144378662,-3.658134937286377,4.8151702880859379,-4.525851726531982,-3.3591277599334719,3.3483943939208986,-3.0084331035614015,2.541555881500244,3.326580047607422,4.641592502593994,0.940044641494751,-2.6199278831481935,4.489006996154785,-3.9939510822296144,-1.6504024267196656,4.814525127410889,-2.885667562484741,5.781816482543945,-1.4430679082870484,1.9710215330123902,-3.022996187210083,5.543461799621582,4.280057907104492,-2.3449018001556398,4.917515754699707,-0.04447197914123535,-0.06426382064819336,5.233994960784912,4.3731465339660648,-1.5871871709823609,-0.8315706253051758,-0.39301037788391116,-2.383634567260742,4.4312968254089359,-3.5646274089813234,4.419320106506348,-4.3752217292785648,1.7064584493637086,-0.8016910552978516,1.32115638256073,4.192315578460693,-1.8626903295516968,3.260287284851074,-3.674858331680298,5.345136642456055,4.713438987731934,-4.557594299316406,1.6681156158447266,-3.626134157180786,-2.9037303924560549,-2.585940361022949,-0.5102932453155518,4.967227458953857,0.534027099609375,-0.11335110664367676,-2.8126749992370607,-1.0152218341827393,0.08859658241271973,3.4484856128692629,-0.03631472587585449,4.795286178588867,-4.830316066741943,1.4173245429992676,-3.4906516075134279,-2.387662887573242,-4.055691719055176,4.7897491455078129,0.790654182434082,0.2996528148651123,-3.7154040336608888,-3.838312864303589,1.683447241783142,2.8538050651550295,4.002715110778809,-2.59127140045166,4.083555221557617,-3.515984535217285,-3.6418814659118654,-2.130821704864502,-2.0895543098449709,-3.391265392303467,0.2898862361907959,0.07551026344299317,0.9583287239074707,1.9017328023910523,-3.2744383811950685,3.6956276893615724,-4.065988540649414,1.2491374015808106,3.555398464202881,-2.5456461906433107,-2.946627378463745,0.5667593479156494,1.897779941558838,-1.6166863441467286,0.4643392562866211,1.8130879402160645,-4.084354400634766,-0.7159111499786377,-2.280313491821289,3.258746862411499,3.6197562217712404,3.387868881225586,-0.9561797380447388,4.260385036468506,3.541856050491333,1.9273011684417725,-3.0992984771728517,-0.16625356674194337,-2.0015177726745607,4.137131214141846,1.1986374855041505,3.2445414066314699,-0.36071324348449709,-0.48804306983947756,1.4267014265060425,4.906937599182129,-1.9095195531845093,-1.7972921133041382,1.4974383115768433,-2.858417510986328,1.8255285024642945,-2.434978485107422,1.8474184274673463,-0.30229902267456057,-2.0170650482177736,2.210836887359619,-3.4843943119049074,0.11288237571716309,-2.7657809257507326,0.289048433303833,1.0436049699783326,-3.355215072631836,1.6453077793121338,-3.931428909301758,0.3832085132598877,3.5650148391723635,-1.4625686407089234,2.575654983520508,-0.5553500652313232,-3.716743230819702,-3.3321869373321535,-0.47917771339416506,4.066659927368164,-1.7437942028045655,5.297780513763428,4.290919303894043,-3.4646377563476564,-3.6964619159698488,2.527452230453491,-3.855067014694214,-2.497103214263916,-3.113813638687134,-3.7094264030456545,-4.501091480255127,-3.349220037460327,4.032769680023193,-3.9299232959747316,0.42908358573913576,0.17778968811035157,-3.755995273590088,-2.342649459838867,-4.310176849365234,-1.0319366455078126,-4.727630615234375,-3.590099334716797,-3.401198625564575,-2.4030518531799318,1.0443257093429566,3.3501129150390627,-2.9261586666107179,-0.6549441814422607,-1.3779230117797852,0.014603376388549805,4.7350053787231449,0.5699255466461182,4.561922073364258,2.782508134841919,1.6755659580230713,3.5026087760925295,-3.5649659633636476,4.5242791175842289,0.9685518741607666,-1.850524663925171,1.4302401542663575,4.013972759246826,-3.4413511753082277,2.89741587638855,-3.991642951965332,2.0034422874450685,1.5787826776504517,0.5091414451599121,3.0376334190368654,5.211082935333252,3.6934654712677,-3.3895716667175295,-1.7216609716415406,-3.0456504821777345,-3.6868269443511965,1.4272041320800782,3.20363712310791,-4.409911155700684,-1.8905049562454224,-2.850996971130371,4.296042442321777,-2.83005952835083,2.8566222190856935,-0.4187479019165039,-0.7151079177856445,3.1574556827545168,-1.351620078086853,3.4489102363586427,-1.2005003690719605,3.5156617164611818,5.225540637969971,1.7170320749282838,-2.9304041862487795,1.645145297050476,5.0925822257995609,2.013213634490967,-1.9126819372177125,-3.296942710876465,2.199859619140625,4.309509754180908,-4.461142063140869,-2.528632164001465,3.034529209136963,-4.269888877868652,4.151236534118652,1.9743638038635255,1.3726747035980225,2.043663740158081,2.192385673522949,3.256746530532837,4.979849338531494,-1.5301038026809693,4.768429279327393,-0.5966694355010986,-1.8226087093353272,-4.761166095733643,-3.0416059494018556,-2.9502274990081789,-2.7258105278015138,1.2481019496917725,4.9312052726745609,-2.875765800476074,-1.2846410274505616,5.058465480804443,-0.2311697006225586,0.9888172149658203,4.120997905731201,-3.1918985843658449,1.5126242637634278,-3.3034558296203615,0.2585420608520508,0.4852714538574219,3.8399765491485597,-4.169780731201172,3.8895275592803957,1.5605194568634034,5.558071136474609,-2.6284584999084474,-1.9669091701507569,0.45948314666748049,0.9103384017944336,1.778296709060669,4.446850776672363,-2.9556689262390138,4.0363450050354,0.9941084384918213,3.8054909706115724,-3.585719347000122,1.6986743211746216,-2.2650251388549806,-2.1806607246398927,1.2679157257080079,0.8249711990356445,0.21167731285095216,4.90848445892334,2.6903533935546877,1.0002059936523438,1.029215931892395,5.3343610763549809,-0.17496609687805177,3.9230704307556154,3.296571731567383,2.013774871826172,3.384836435317993,0.08022069931030274,3.7884202003479006,-1.939859390258789,0.09960460662841797,-3.8410873413085939,-4.3550591468811039,-2.701354742050171,-3.2928903102874758,-3.1307132244110109,-0.036865234375,-0.49626708030700686,4.69446325302124,1.1559548377990723,-3.575728416442871,4.7186055183410648,-1.4423338174819947,-2.226806879043579,-0.08621907234191895,4.245850086212158,0.16065144538879395,-3.9739787578582765,-0.00747990608215332,2.4663939476013185,0.14648723602294923,-3.750833511352539,5.671041488647461,-3.589050054550171,4.814550876617432,-2.169391632080078,2.492725372314453,-2.453293800354004,2.3671085834503176,-0.7901327610015869,-2.252446413040161,5.068758487701416,-1.435168981552124,2.558720111846924,0.525564432144165,0.735321044921875,-1.203177571296692,-2.477388381958008,-1.6459695100784302,-3.1858983039855959,3.131211757659912,0.33153343200683596,-2.119537115097046,0.3949720859527588,2.8507461547851564,0.5236198902130127,-3.4012880325317385,-2.2591962814331056,4.406766414642334,0.43770456314086916,3.060584545135498,1.4689416885375977,0.5204916000366211,-2.8203155994415285,-0.943814754486084,-1.1323487758636475,5.192925453186035,-2.2989649772644045,-1.0273375511169434,-0.4434545040130615,1.9965379238128663,-1.9199682474136353,5.445971965789795,1.1780400276184083,-3.6907191276550295,-1.2167268991470338,1.9585899114608765,-2.828169107437134,4.398975849151611,-1.7032067775726319,0.2430253028869629,4.963146209716797,5.3303093910217289,-2.0926647186279299,-2.118638515472412,5.443426132202148,5.684638500213623,2.7638516426086427,4.32010555267334,5.04087495803833,-0.31586122512817385,4.059163570404053,-0.19852423667907716,2.4692060947418215,-2.8135271072387697,-1.7590844631195069,5.24554443359375,4.266622066497803,0.3301243782043457,-1.4016234874725342,1.4373807907104493,-2.696397066116333,-0.32233262062072756,-1.5668379068374634,1.806577205657959,-3.9125216007232668,3.0169782638549806,-3.9535443782806398,1.9482697248458863,0.37921833992004397,-2.371901512145996,-3.343080759048462,0.8791775703430176,-4.590765476226807,4.969910144805908,0.27995920181274416,2.780421733856201,-1.145401954650879,-2.102891206741333,4.735129356384277,3.613093137741089,5.805705547332764,-2.274292469024658,2.844386577606201,1.9529902935028077,-1.8459134101867676,-1.4132351875305176,-2.576134204864502,3.4933841228485109,3.028286933898926,3.8878250122070314,-1.6092641353607178,-4.12991189956665,4.5190300941467289,3.825192928314209,-4.728241920471191,2.477135181427002,4.89204216003418,-4.215615272521973,1.9745374917984009,3.5589685440063478,1.9599769115447999,0.5993332862854004,4.854247093200684,-4.3558831214904789,-2.1233911514282228,1.9953142404556275,-1.2749220132827759,1.915618896484375,-2.0077757835388185,-4.229995250701904,0.14954066276550294,4.431861877441406,-3.0178050994873049,0.46281981468200686,-1.576442837715149,0.1266770362854004,-1.157811164855957,-4.713494300842285,2.0099735260009767,-3.3929030895233156,4.949727535247803,0.5232863426208496,-3.205709934234619,-1.2291994094848633,3.0960259437561037,-1.6272633075714112,2.084465742111206,0.4858841896057129,1.3305102586746216,0.5090031623840332,-1.7284770011901856,-1.8105812072753907,3.063896656036377,-2.2847366333007814,-2.157196521759033,1.81795072555542,0.4131300449371338,-0.7544312477111816,-0.13800716400146485,-1.5606184005737305,1.976219654083252,2.0666491985321047,-0.9284203052520752,-0.5029752254486084,0.646782636642456,1.8057340383529664,0.3598010540008545,4.4995012283325199,-0.5400562286376953,2.867825746536255,-0.5840413570404053,3.1739935874938967,-2.2844762802124025,-1.354265570640564,-4.384793758392334,2.069734811782837,1.243455410003662,-2.067415714263916,2.263035535812378,4.358273506164551,-0.18257498741149903,1.7093225717544556,3.6424179077148439,-3.3573925495147707,-1.507256269454956,2.5404911041259767,3.760072708129883,2.75313663482666,-4.035599708557129,-3.1849184036254885,4.49033260345459,0.6912274360656738,2.261748790740967,1.2048765420913697,0.15714120864868165,1.214633584022522,-0.7671699523925781,-2.854470729827881,2.767988920211792,4.88823938369751,-0.38193511962890627,2.0755422115325929,4.645381927490234,-1.7148113250732422,0.6576757431030273,1.2798182964324952,1.6137003898620606,-2.130171060562134,-2.7645554542541506,0.25690340995788576,0.16467714309692384,3.6056599617004396,0.6757626533508301,4.001195907592773,4.375513076782227,-3.6425046920776369,-0.3902432918548584,0.7782070636749268,-2.8601741790771486,-0.9393787384033203,-4.124715805053711,-0.2820611000061035,-2.166238307952881,3.9349007606506349,-2.799311876296997,-3.9288692474365236,1.5030817985534669,-3.4702367782592775,2.577723979949951,-2.8411221504211427,-4.193262100219727,4.623654365539551,4.351233005523682,-3.3562984466552736,5.017425060272217,4.116878986358643,2.182772159576416,2.7223596572875978,-0.009098291397094727,3.633176803588867,-4.1119866371154789,4.14309549331665,1.244913101196289,1.8671377897262574,-1.9457931518554688,1.958564281463623,-0.059595584869384769,5.01221227645874,4.141120910644531,-2.0049123764038088,-0.35628342628479006,5.50458288192749,-1.8744484186172486,0.9555869102478027,1.285517930984497,4.279318332672119,4.823415279388428,1.2137287855148316,3.521512508392334,0.18477916717529298,-1.381890058517456,-2.0309319496154787,-1.4772350788116456,-2.1421308517456056,-3.1489834785461427,4.499290943145752,3.8883326053619386,4.889516830444336,3.7593812942504885,-0.49225473403930666,2.931734085083008,-1.0296932458877564,-1.4467533826828004,-2.4332876205444338,-1.5444238185882569,2.1405978202819826,-0.3173058032989502,-0.21160316467285157,4.305071830749512,-4.907949447631836,-3.0557422637939455,5.233743667602539,1.31017005443573,-3.7028956413269045,-3.140284776687622,4.8636393547058109,-3.5227129459381105,2.0441689491271974,5.248488903045654,-2.546830892562866,-4.564446926116943,-3.961874008178711,-3.842006206512451,-2.986600875854492,-1.307335615158081,0.7452681064605713,-1.950063943862915,1.2416434288024903,4.748453617095947,-3.0887956619262697,1.397737741470337,-2.5516045093536379,-4.157014846801758,1.3634049892425538,-4.043169975280762,4.952748775482178,0.9561965465545654,-1.354856014251709,2.647266387939453,-0.8017621040344238,3.366053581237793,-4.315779685974121,0.9305989742279053,0.9956314563751221,3.52329158782959,-3.792705774307251,2.473896026611328,4.086343765258789,4.187453269958496,0.8409042358398438,1.1936994791030884,3.44026517868042,0.6817407608032227,1.1555254459381104,0.38258886337280276,-1.2072548866271973,-2.4161224365234377,-1.7822051048278809,-4.376028060913086,-0.34813356399536135,-3.2646844387054445,5.200438499450684,-1.0171363353729249,-1.4113529920578004,3.610405921936035,0.8212330341339111,2.975337028503418,2.872629165649414,4.889504909515381,-0.33152198791503909,2.2841663360595705,-1.3089876174926758,2.020982265472412,-0.8049008846282959,-1.0464890003204346,3.4173014163970949,-0.30167698860168459,-2.3366565704345705,-0.7742810249328613,-1.7333287000656129,4.399354934692383,-2.1429224014282228,-3.330963611602783,2.743661880493164,-0.7561564445495606,3.6381468772888185,-0.566673994064331,-2.07891583442688],"Biases":[0.0,1.0,1.0,1.0,1.0,1.0,1.0,0.5]},"NetworkTrainingRate":2.967900514602661,"PerformanceSolvers":[{"ParameterName":"Timer","EvaluationParameter":33.45262145996094,"EvaluationParameterWeight":1.0,"ParameterType":1,"ExpectedValue":0.0}],"PerformanceCoefficient":32.50530689954758,"DNAVersion":2}