{"HasData":true,"NeuralNetworkName":"Jumper Big Neural Net 8 Layers","StartTrainingRate":1.0,"NeuralNetworkDna":{"Weights":[2.9227139949798586,2.489158868789673,-0.8803231716156006,1.177351951599121,-1.5711766481399537,1.3127456903457642,0.793446958065033,0.9515894651412964,2.4397754669189455,-0.51298987865448,-2.600428581237793,2.877162456512451,1.8929641246795655,1.3236699104309083,2.3771114349365236,-0.2135571539402008,0.8750165104866028,-1.5118921995162964,-2.009974956512451,1.4898579120635987,1.1886866092681885,3.146909236907959,2.13277530670166,3.743588447570801,0.7403850555419922,-1.2530863285064698,0.5201122164726257,2.0574393272399904,0.20929425954818726,-1.4731295108795167,0.9894676804542542,-0.28563785552978518,2.8375322818756105,-1.5274025201797486,2.2810516357421877,2.4389419555664064,0.9060096740722656,0.784293532371521,-2.0664515495300295,1.560701608657837,-0.17206531763076783,2.745589256286621,-0.19130191206932069,-3.6778440475463869,-1.4864752292633057,2.515821933746338,0.907843291759491,-0.9458141326904297,0.718114972114563,-0.3307337462902069,-0.6889761090278626,-2.652482748031616,0.5461821556091309,0.22310125827789308,0.22603830695152284,0.735687792301178,-0.829903781414032,2.5453743934631349,-1.5435361862182618,2.67798113822937,-2.5776925086975099,1.8534979820251465,-1.3187246322631837,0.043951839208602908,-3.77901554107666,1.548933982849121,-0.12474995106458664,-1.4569683074951172,0.3602061867713928,0.5164373517036438,-0.9384711980819702,1.7392184734344483,0.2493010014295578,0.7573217153549194,-0.3036983013153076,0.30991435050964358,0.8316942453384399,3.1985089778900148,3.4211320877075197,0.607513427734375,2.924762010574341,1.2947251796722413,0.3980875015258789,0.527047872543335,0.8776055574417114,2.6882221698760988,0.25138890743255618,0.538578987121582,-0.3201825022697449,0.16391772031784059,-0.1994202882051468,-0.6786704659461975,-2.0947794914245607,0.13367688655853272,0.61224764585495,-1.0916194915771485,-0.657760500907898,2.159353733062744,0.8018759489059448,0.0645957887172699,0.07462553679943085,-0.21180422604084016,1.4510079622268677,3.250763416290283,1.011783242225647,-1.0438344478607178,-2.3394863605499269,-2.1349737644195558,0.7213023900985718,0.6629818081855774,0.7058345675468445,1.1885850429534913,-0.2248058319091797,-0.36540812253952029,0.1019035130739212,0.518524169921875,3.1019093990325929,-0.34046342968940737,1.4752386808395386,-0.47490930557250979,-0.5846117734909058,1.052390456199646,-1.7085893154144288,1.0024642944335938,1.1611603498458863,2.8711307048797609,-1.9672385454177857,0.4100674092769623,-2.33249568939209,0.4466925263404846,-1.0870413780212403,1.7355070114135743,2.267876625061035,0.368167519569397,1.7217611074447632,-2.443960189819336,-1.0881388187408448,0.5188599824905396,-0.7520103454589844,2.1246249675750734,-0.9958688020706177,2.652914047241211,2.074108600616455,1.700743556022644,0.435943067073822,3.6110501289367677,-3.4888124465942385,-1.190181016921997,-1.0707383155822755,0.26155877113342287,-0.2628641426563263,0.06056094169616699,1.8824409246444703,2.7463252544403078,0.8994595408439636,0.35192447900772097,2.863680601119995,3.2287228107452394,2.486882448196411,2.3625736236572267,0.7806352972984314,-0.8240041136741638,1.8853354454040528,-0.8813095688819885,3.2818164825439455,2.4721620082855226,4.003179550170898,-0.7732584476470947,2.3868885040283205,-0.9636296033859253,0.19063159823417664,2.9900755882263185,-0.5802445411682129,-1.3695764541625977,0.7610547542572022,-0.4216992259025574,5.020639896392822,1.7360094785690308,2.3061766624450685,-1.7134997844696046,2.05100154876709,-0.4926357865333557,0.8356289267539978,0.581520140171051,0.8304511308670044,1.876356840133667,0.4454323649406433,1.6597285270690919,1.8712917566299439,0.024188250303268434,-0.6204771995544434,-1.0258151292800904,-3.9649922847747804,1.3542780876159669,2.0785837173461916,-2.0487582683563234,-0.3893108665943146,3.3135063648223879,-0.42760539054870608,-2.2833313941955568,1.2615768909454346,3.11081862449646,-0.525971531867981,0.6186223030090332,-0.9982367157936096,-1.056201696395874,1.3010743856430054,1.1785471439361573,-2.894474744796753,-0.8823421001434326,3.403238534927368,-1.3782931566238404,-1.0455080270767213,0.5029975771903992,2.645763397216797,1.3000502586364747,2.946873903274536,0.17721974849700929,3.532714366912842,0.10276317596435547,-1.537583351135254,-0.21427059173583985,2.238396644592285,-1.0691101551055909,1.6728639602661133,-1.0598082542419434,-2.3204240798950197,1.582557201385498,-1.3442888259887696,1.5753474235534669,-1.3725041151046754,1.0006332397460938,4.150215148925781,-1.0589618682861329,1.6808619499206544,-0.6260920763015747,1.5438977479934693,1.086028814315796,2.5238332748413088,0.32404041290283205,0.21967467665672303,0.2234927862882614,-0.9325090646743774,0.4108580946922302,0.9282348155975342,-2.7430903911590578,-2.631253480911255,0.9817872047424316,1.6544076204299927,-1.288991928100586,1.549108624458313,0.42863139510154726,2.0518786907196047,3.3293464183807375,1.483788251876831,4.122233867645264,0.8489866852760315,-0.15032127499580384,-0.7932633757591248,1.801182508468628,-0.9414315223693848,1.0632357597351075,1.6591647863388062,-0.5686129331588745,0.5991864800453186,-0.5072323083877564,0.41963398456573489,-1.4979503154754639,-0.023627668619155885,-0.7659206390380859,2.3271660804748537,0.818284809589386,0.2673604488372803,3.8984222412109377,0.4568883776664734,1.1267547607421876,2.225339412689209,-0.22091007232666017,1.5103310346603394,1.638763189315796,0.072090744972229,-0.4496957063674927,2.033747911453247,1.5529661178588868,-0.8884771466255188,-3.8606338500976564,2.4144933223724367,0.7300362586975098,-1.5665324926376343,1.5301177501678467,5.2949395179748539,-1.4237550497055054,-0.9677045345306397,0.004371464252471924,0.11605188250541687,3.0349233150482179,0.4993635416030884,-0.1040150374174118,0.09902951121330261,3.5106964111328127,-0.9936293363571167,-0.4061398506164551,0.676791787147522,1.6138687133789063,-0.9478456377983093,1.965956687927246,0.7631913423538208,1.930385708808899,0.7700778841972351,-0.13816672563552857,1.458954930305481,2.720782995223999,2.1771578788757326,-0.09059393405914307,-0.2659081816673279,1.2032393217086793,1.8357114791870118,0.09110666066408158,-1.1699856519699097,-2.1713383197784426,-0.13449957966804505,0.7892524600028992,-0.19986245036125184,2.7277088165283205,-1.3561257123947144,-0.323110431432724,2.2487235069274904,2.00724196434021,-0.5009124279022217,-1.0588103532791138,6.9411540031433109,0.4880097210407257,0.5259777307510376,4.788416862487793,2.1588456630706789,2.2498693466186525,2.147881031036377,-0.10859903693199158,2.3377127647399904,-0.24162626266479493,-2.3082854747772219,3.2673325538635256,0.9515122175216675,1.8599772453308106,0.0442044734954834,-4.200785160064697,0.511240541934967,1.6620006561279297,-1.5911710262298585,2.780803680419922,1.527945637702942,-1.2156834602355958,4.2208991050720219,-1.3483431339263917,0.7395829558372498,2.092874765396118,-0.6767452359199524,1.6991043090820313,-0.29873156547546389,0.6408514380455017,3.573688268661499,2.2169742584228517,0.6728740930557251,1.1810325384140015,-0.670769214630127,-0.6900717616081238,0.4206599295139313,4.121918678283691,1.5219062566757203,-1.6070886850357056,2.75085711479187,2.854721784591675,-1.838220477104187,-1.5303332805633546,-0.30321890115737917,0.32052260637283327,1.3509997129440308,1.55295991897583,-0.794385552406311,0.527493953704834,4.474080562591553,3.9138989448547365,-2.6658005714416506,1.7421082258224488,1.00884211063385,1.0909082889556885,0.8435694575309753,2.540645122528076,0.9036110639572144,-0.6425096392631531,-2.510495901107788,0.04918438196182251,-1.6230751276016236,-0.10544353723526001,-0.6078131198883057,0.4076611399650574,0.6394953727722168,1.7111594676971436,1.542290210723877,2.2103347778320314,-0.5118730068206787,-0.24319633841514588,2.0539135932922365,-0.9698710441589356,-1.407520055770874,-1.2118958234786988,-2.8668785095214845,-0.6164250373840332,1.5781992673873902,0.8796167969703674,-2.36212158203125,3.2965152263641359,1.1887105703353882,2.914578437805176,-0.5669000744819641,-2.730894088745117,0.8691586852073669,1.8033121824264527,-0.07793194055557251,1.722920536994934,-0.19301170110702516,0.29052814841270449,2.3329648971557619,0.922102689743042,2.6266112327575685,0.7281887531280518,1.8607182502746583,2.2987418174743654,-1.787672996520996,-0.0879870131611824,-0.7962325811386108,2.304605007171631,2.488537311553955,-2.2578368186950685,3.045260429382324,3.2950336933135988,1.4565232992172242,1.523545503616333,0.025104820728302003,1.9610346555709839,-0.3194373846054077,1.8130048513412476,-1.9054512977600098,0.03413817286491394,1.6267602443695069,2.5204391479492189,0.9657333493232727,1.331068992614746,1.2253220081329346,-1.9894732236862183,2.2527246475219728,1.374866008758545,-0.11987683176994324,-0.4448016881942749,-1.0935497283935547,-1.4806970357894898,0.4389271140098572,-0.2426401823759079,2.1972639560699465,1.1820013523101807,1.1949454545974732,3.21578311920166,0.8682656288146973,2.259105920791626,1.8548455238342286,1.8898577690124512,-0.8219983577728272,-0.455267071723938,1.1824934482574463,-0.05211488530039787,2.816709041595459,1.864362120628357,0.11274704337120056,0.4644354581832886,1.1659297943115235,2.512681007385254,0.778801679611206,1.6279468536376954,0.9498504400253296,1.783489465713501,-0.2282204031944275,-0.042598068714141849,-0.5569044351577759,0.3480568528175354,0.01482972502708435,2.8558547496795656,-1.5605900287628174,3.1013665199279787,0.06142544746398926,0.896030843257904,0.8977335095405579,-0.6023207902908325,-1.973388910293579,-0.2060527503490448,0.5128200054168701,-1.69036066532135,2.090646743774414,-3.4358766078948976,-1.3938723802566529,-1.399518370628357,2.1370136737823488,1.0829881429672242,4.171971797943115,-1.950969934463501,-0.6232558488845825,1.850061058998108,3.6353607177734377,-1.295052170753479,1.8541672229766846,1.1667543649673463,2.4968650341033937,1.858487844467163,-1.1850626468658448,-1.1234500408172608,3.5344443321228029,1.4734718799591065,-1.0662435293197632,2.2091944217681886,-1.995632529258728,1.2466236352920533,2.9183497428894045,-1.3753372430801392,-1.422384262084961,-2.921583652496338,1.5705986022949219,-0.5160706043243408,2.356476306915283,1.5422556400299073,-0.4189372658729553,-2.156308174133301,-2.6759743690490724,-1.0202291011810303,3.216195583343506,-1.6032320261001588,-0.6992980241775513,0.40286609530448916,-0.6894004344940186,1.877058982849121,0.91500324010849,0.6504354476928711,0.07437720894813538,0.37977442145347597,-1.4077427387237549,0.205645352602005,1.991405725479126,1.559281349182129,1.2510223388671876,2.259551525115967,0.31420502066612246,2.6113762855529787,-0.05034226179122925,-0.43868371844291689,0.23500728607177735,2.5031051635742189,-1.296539306640625,0.1367882490158081,-1.577478289604187,-1.615960717201233,1.7935686111450196,1.1334340572357178,-0.7584837675094605,-0.5894193649291992,2.785127639770508,-0.2820325493812561,2.459005355834961,-0.2362438142299652,-0.49526482820510867,0.22497670352458955,2.002776861190796,0.30068355798721316,4.845583915710449,2.8072400093078615,-0.4442037343978882,2.117307424545288,-0.3721562623977661,2.9155943393707277,1.0683294534683228,3.7204713821411135,0.3359566628932953,2.4771580696105959,-1.2343440055847169,0.11693164706230164,2.34975004196167,0.9139143824577332,-0.05616067349910736,1.1788890361785889,-0.28603285551071169,-1.0583693981170655,1.2747091054916382,-1.6080979108810425,1.5339553356170655,1.9940249919891358,-1.511075496673584,-0.1659415364265442,-2.9043164253234865,1.2356431484222413,-0.22955933213233949,0.4240850806236267,-0.08707785606384278,-2.1251256465911867,-0.34119942784309389,1.6888484954833985,-0.142347514629364,0.451039582490921,0.9918688535690308,1.1038615703582764,-0.3505362272262573,-2.295957326889038,0.24887868762016297,-0.3594464659690857,0.5468723773956299,-0.5196342468261719,1.958088755607605,1.9063618183135987,-3.6937763690948488,-0.6032803654670715,0.6206949949264526,-0.4539075493812561,0.4282037019729614,-3.1255102157592775,1.384521245956421,0.1725996434688568,0.4417736530303955,1.6313438415527344,3.6204984188079836,1.2126681804656983,-0.2641042470932007,-2.1536648273468019,-0.6743957996368408,-1.3083691596984864,1.0826400518417359,0.23699170351028443,2.5459041595458986,-1.432628870010376,2.8044183254241945,-1.5384728908538819,3.2058873176574709,0.6927971839904785,0.8566927313804627,3.64640474319458,-0.4456377625465393,-0.10660862922668457,3.0719645023345949,-0.27371564507484438,-0.4500524401664734,2.119842767715454,-1.5053797960281373,-0.8729169368743897,0.6712788343429565,-1.267995834350586,1.9968762397766114,0.4611191749572754,0.5936970114707947,0.8626058101654053,1.5212265253067017,-2.122419595718384,-0.5314711332321167,2.1539793014526369,0.43062472343444826,1.6533695459365845,-1.0742419958114625,0.4359259605407715,-4.035825729370117,-0.8616938591003418,1.2507559061050416,-0.35739147663116457,0.3053062856197357,-1.4276570081710816,0.17471110820770265,-0.1483941674232483,-0.6579254269599915,2.2820749282836916,0.9111261367797852,1.08176851272583,1.6066642999649048,1.3448121547698975,0.5197033286094666,3.053253650665283,2.9121336936950685,2.2132461071014406,-3.7236876487731935,0.803918719291687,-0.637053370475769,-0.3606869876384735,-2.1768574714660646,1.053504228591919,-2.4535727500915529,0.7594228982925415,3.4839859008789064,-0.18553414940834046,0.08374693989753723,-1.4653217792510987,-2.304011344909668,-2.380098819732666,4.328469753265381,-1.0335851907730103,-1.3285667896270753,-0.15173134207725526,-0.48459964990615847,3.6980605125427248,-3.260127067565918,0.2516607642173767,1.1888340711593629,2.3668909072875978,-2.1212716102600099,-2.7664988040924074,-0.2385132908821106,-3.4348578453063967,3.1653900146484377,1.7363426685333253,0.4774715304374695,-0.6224353313446045,-1.3741904497146607,-0.19981171190738679,0.9367367029190064,2.609300374984741,-0.9350607395172119,-2.4412620067596437,3.5076675415039064,-1.1305490732192994,-0.14312595129013062,3.589104175567627,1.3656346797943116,0.8931512236595154,-2.382920980453491,3.762420415878296,-1.345703363418579,1.4817694425582886,-2.6373038291931154,2.7112796306610109,-1.2780261039733887,0.19715672731399537,2.876509666442871,1.730128288269043,0.27996429800987246,4.4882001876831059,0.08393055200576782,-1.798598051071167,2.208618402481079,-0.7825588583946228,1.1386351585388184,3.2046334743499758,1.3362246751785279,-1.6557703018188477,3.7019031047821047,1.081104040145874,2.4520695209503176,4.46611213684082,-0.08122394979000092,3.235870599746704,0.7003336548805237,1.1551382541656495,2.5991275310516359,-0.7689973711967468,1.06609046459198,-2.3716864585876467,-2.3116824626922609,1.6774190664291382,1.3286986351013184,-0.8925068378448486,0.8232038021087647,-3.5566506385803224,-1.8478927612304688,-1.438801884651184,1.5956671237945557,-2.28414249420166,-1.3162622451782227,0.7396344542503357,1.8585643768310547,0.605543851852417,-0.15989069640636445,4.481110572814941,0.13797786831855775,2.226109504699707,0.7087085247039795,-1.3041481971740723,-0.2732696533203125,3.362962245941162,0.7272669672966003,3.571307897567749,-1.6276296377182007,-0.5242878198623657,0.6262722015380859,-0.9826962947845459,0.5906598567962647,-0.27474597096443179,0.6967306137084961,-0.6271815299987793,4.261790752410889,2.8425326347351076,1.7012128829956055,2.7582545280456545,-1.0282942056655884,6.575748443603516,-1.0073760747909547,-0.026321634650230409,1.164199709892273,4.078619480133057,0.858493447303772,2.189578056335449],"Biases":[0.0,1.0,1.0,1.0,1.0,1.0,1.0,0.5]},"NetworkTrainingRate":0.8132381580939033,"NetworkBestResults":[126.59528350830078],"NotationCoefficient":126.59528350830078,"DNAVersion":11}