{"HasData":true,"NewTraining":false,"NeuralNetworkName":"Jumper V9","StartTrainingRate":1.0,"NeuralNetworkDna":{"Weights":[-4.368008613586426,-2.584045886993408,-1.4587087631225587,0.11267976462841034,-0.15709596872329713,1.4886505603790284,-4.149814605712891,1.487790822982788,-3.8714280128479006,-3.5287997722625734,-1.285115122795105,1.0369527339935303,0.23528587818145753,1.0034059286117554,-2.5999839305877687,3.5057969093322756,1.7839568853378297,-1.1209163665771485,-0.49707478284835818,0.2615416646003723,0.7614153623580933,2.087578773498535,-0.49122685194015505,-3.6233694553375246,3.946756362915039,-3.0344715118408205,4.49622917175293,-1.5440298318862916,3.437659740447998,-1.4816124439239503,5.04703426361084,-1.369309902191162,2.596759796142578,0.2827965319156647,1.2434519529342652,4.038860321044922,0.6940789222717285,0.2703941762447357,4.704187393188477,2.565046787261963,-2.841216564178467,-1.3613495826721192,-2.0752484798431398,4.884999752044678,0.8523999452590942,-1.5817925930023194,-2.9197049140930177,2.0539422035217287,2.9990246295928957,0.29678624868392947,3.705721139907837,0.14504334330558778,-2.6483705043792726,4.028775691986084,-0.7818607091903687,0.5284720063209534,-1.8637739419937134,1.6253259181976319,1.004023790359497,0.08772330731153488,-4.480445384979248,-0.7205625772476196,-3.127255916595459,2.9409639835357668,0.5835084319114685,1.5132648944854737,1.412395715713501,1.255615234375,7.146665573120117,-0.17228862643241883,0.026608124375343324,-0.09479250013828278,6.53181266784668,4.637396335601807,-1.9210569858551026,-0.7580375671386719,-3.588704824447632,-1.2159267663955689,-3.9010720252990724,0.39016908407211306,0.17621317505836488,-4.664527416229248,-1.7780773639678956,1.589267611503601,3.4250755310058595,1.7755330801010132,-0.44108256697654726,5.262478828430176,1.1024396419525147,0.06450033187866211,-3.4849936962127687,-5.062206268310547,0.6517444252967835,0.014700978994369507,4.811059951782227,1.5630664825439454,-2.520240306854248,-3.272219181060791,2.928011178970337,-1.0365245342254639,8.778192520141602,1.0967828035354615,0.7402409911155701,-0.2558101415634155,-1.2417510747909547,2.194775104522705,2.5995423793792726,-0.8632519245147705,0.2172558456659317,-0.2607499063014984,-2.5715982913970949,4.104266166687012,-0.1295013725757599,-1.2634978294372559,3.0373101234436037,-4.650270462036133,-2.2635388374328615,-4.119180679321289,0.8500540256500244,-0.14732827246189118,0.46590566635131838,-1.4140357971191407,-3.430302143096924,3.885549545288086,-1.4180158376693726,-2.262213706970215,-4.588408946990967,6.080906867980957,-5.0299906730651859,2.867877960205078,1.8006720542907715,0.05113730579614639,-2.5573039054870607,-1.293526530265808,-1.6038181781768799,3.020702838897705,5.194756031036377,2.8071510791778566,3.3043689727783205,1.5516420602798463,5.056135654449463,2.3940911293029787,0.7092365026473999,-0.9911307096481323,5.436099529266357,1.153184413909912,-2.4726343154907228,-2.5560710430145265,-0.17458806931972505,0.66606605052948,-0.12462803721427918,6.431323051452637,1.5866022109985352,1.237853765487671,1.4661375284194947,0.7655189037322998,-0.5701698660850525,-0.28096050024032595,3.4751133918762209,1.5379513502120972,0.5353596210479736,-0.5255629420280457,4.603328704833984,-0.5287976861000061,-2.0148444175720217,4.07429838180542,-2.2654623985290529,3.7417047023773195,3.576916217803955,1.393383264541626,1.598471760749817,2.4790358543395998,-3.321773052215576,6.052734375,-2.5139288902282717,-1.7611160278320313,2.5492618083953859,-1.0124375820159913,-0.2199268490076065,2.9352939128875734,4.943825721740723,4.408300399780273,1.063812494277954,0.6072292327880859,-2.1025748252868654,0.9613158106803894,-2.8854286670684816,-1.7879706621170045,2.9897186756134035,5.701082229614258,-1.7050909996032715,0.10997910797595978,1.4376511573791505,-2.578653335571289,0.008691921830177307,6.693453311920166,-5.515390396118164,1.6314082145690919,4.188433647155762,-0.08033408224582672,0.381619393825531,-2.9994449615478517,5.645874977111816,-3.988041400909424,1.3158525228500367,1.9283283948898316,-2.1439788341522219,5.365440368652344,4.042481899261475,1.5194077491760255,-1.1215245723724366,-1.1301220655441285,-0.7410897016525269,3.638329267501831,-0.011260420083999634,2.80145525932312,-3.012514591217041,3.0312705039978029,-4.918248176574707,0.4734010100364685,2.234433889389038,-2.881869316101074,0.38840439915657046,-2.1511831283569338,3.5580198764801027,1.5151898860931397,-2.0288243293762209,0.9342740178108215,-6.121156692504883,-0.6771379113197327,3.262647867202759,-3.8853201866149904,-2.947654962539673,0.07903105020523071,0.9344964623451233,5.889168739318848,0.9844782948493958,4.108429431915283,1.541034460067749,2.0453104972839357,-0.9926076531410217,3.377413749694824,-1.148095965385437,-2.881126642227173,2.846968650817871,0.368120402097702,0.8302992582321167,-0.23148106038570405,2.686528444290161,0.5556472539901733,4.297615051269531,0.3415357768535614,-1.005897879600525,4.035549640655518,5.6552958488464359,-0.16855256259441377,3.7746803760528566,-0.04776158928871155,6.4191436767578129,-3.1795156002044679,-0.9535200595855713,5.269047737121582,1.3292675018310547,0.37605977058410647,3.4209625720977785,-2.3806962966918947,-0.48774945735931399,3.9438016414642336,1.0026947259902955,0.24711062014102937,0.12835493683815003,1.8525042533874512,0.17873331904411317,5.471127033233643,0.5050044059753418,1.215995192527771,6.7841620445251469,0.12371820211410523,1.6541798114776612,3.252610445022583,-0.953019380569458,0.5213066935539246,-1.2305841445922852,1.1671069860458375,2.737833261489868,-2.313809394836426,2.3119359016418459,1.4591400623321534,-0.5495954751968384,-5.153358459472656,-0.09752556681632996,3.1407248973846437,0.9190189242362976,3.8948147296905519,4.131988048553467,2.696498155593872,-6.6996870040893559,4.191273212432861,0.8251591920852661,-0.8975441455841065,3.1338489055633547,0.8974378108978272,0.06594192981719971,5.081300735473633,2.2369987964630129,2.3108601570129396,2.400897264480591,4.204083442687988,2.639407157897949,4.6566243171691898,0.9147294759750366,-0.5867695212364197,-0.672636866569519,1.1546612977981568,1.495849609375,-1.4995836019515992,4.118627071380615,-0.4478614628314972,-0.3945191204547882,4.571854591369629,-3.6159205436706545,-5.41609525680542,5.810542106628418,-2.383972406387329,-3.7280526161193849,-2.8661396503448488,-1.1107085943222047,4.7215800285339359,3.612637519836426,-2.461974620819092,1.3414809703826905,-0.7682427167892456,-1.8270469903945923,-1.1275272369384766,-2.8660948276519777,-1.7433830499649048,1.485329270362854,-0.026140905916690828,0.11820995807647705,1.2048025131225587,-4.008912563323975,1.9666686058044434,-1.804550051689148,-0.249529629945755,-2.9336891174316408,0.5791228413581848,-3.4757235050201418,-1.5300865173339844,2.6817798614501955,1.9371391534805298,1.3831188678741456,4.29789924621582,0.20169752836227418,1.281420111656189,4.254770278930664,-2.742532253265381,-1.6362788677215577,-2.7970824241638185,1.2725238800048829,-2.290287494659424,5.722029685974121,2.7296597957611086,1.485595464706421,4.554386138916016,2.480746030807495,0.243825301527977,1.5791282653808594,-0.7043443322181702,6.147360324859619,-1.0510398149490357,-0.559823215007782,5.374014854431152,-0.8321553468704224,-0.8786838054656982,1.101544976234436,-1.4146759510040284,-0.5251897573471069,0.2614663541316986,0.2675059139728546,2.205531358718872,0.5663707852363586,-1.4291876554489136,-5.503765106201172,0.9835858345031738,4.097874164581299,5.029129981994629,0.7683903574943543,-1.8011767864227296,-1.43272864818573,2.396664619445801,1.3208949565887452,-3.3666396141052248,-2.50624680519104,1.641404151916504,1.3410875797271729,-4.6127777099609379,-0.1398547738790512,-2.7410717010498049,-0.31016021966934206,0.4292560815811157,9.008909225463868,-3.0489628314971926,-7.746301651000977,1.5526151657104493,0.827980637550354,0.11546085774898529,1.2815186977386475,3.177098512649536,-0.501853346824646,0.09694325923919678,0.49193549156188967,-2.3929443359375,-3.8343567848205568,1.8087161779403687,1.8571741580963135,-8.061336517333985,-1.1153674125671387,-3.6304004192352297,2.734537124633789,-1.5350298881530762,4.868991374969482,4.394454479217529,-0.21624308824539185,0.6850671768188477,-0.6170156598091126,2.6316072940826418,-0.30326807498931887,1.357443928718567,-1.0168482065200806,2.9901468753814699,0.7983769774436951,-1.4851274490356446,2.920461893081665,-0.06084875762462616,2.365736961364746,2.3043556213378908,2.730071544647217,3.5381977558135988,-0.477679044008255,1.3330984115600587,-1.6924489736557007,1.8101348876953126,-1.400896430015564,7.447895050048828,0.4565557837486267,-0.7661117911338806,-2.142103910446167,-4.545039176940918,-0.25081712007522585,1.112257480621338,-1.731265664100647,-0.05739542841911316,-3.4088544845581056,4.234710216522217,0.49363964796066286,1.4422297477722169,3.7623629570007326,2.018871784210205,3.804823875427246,-2.179960250854492,0.7149253487586975,0.9062293767929077,-0.6922733187675476,4.550062656402588,0.33745846152305605,1.2746577262878419,3.1713223457336427,-0.11731398105621338,0.2692849040031433,4.484704971313477,2.248849868774414,-0.46892374753952029,3.07405686378479,-1.3732552528381348,-0.3510940372943878,0.6261917948722839,1.3625125885009766,0.9824108481407166,5.0845441818237309,2.2580084800720217,0.34252268075942995,0.8378556966781616,2.1800546646118166,4.063459873199463,3.9622268676757814,2.084416151046753,-2.113175868988037,-4.604302883148193,-1.4426236152648926,-2.621763229370117,0.28503143787384035,3.88371205329895,0.6566500067710877,1.1496405601501465,-1.6369147300720215,1.2317256927490235,1.391664743423462,-0.5046300888061523,5.8682379722595219,-0.9165809750556946,1.86006498336792,-0.24939103424549104,-1.0671650171279908,-0.5595283508300781,4.655592441558838,-4.227791786193848,1.9819252490997315,2.895772695541382,0.34260326623916628,3.7626960277557375,0.046403467655181888,1.7646123170852662,3.770084857940674,3.588465452194214,2.6934306621551515,-0.41261279582977297,0.869362473487854,0.7950083017349243,5.16356086730957,-2.1946849822998049,1.957902431488037,2.9480977058410646,1.739234209060669,2.348492383956909,0.813811182975769,3.1357550621032717,0.8679323792457581,4.366122722625732,-1.4456775188446046,2.376831293106079,-0.8153283596038818,2.5411453247070314,-1.4635363817214966,-1.8661553859710694,1.740600824356079,2.5741963386535646,-1.636812686920166,-2.544045925140381,-5.168818473815918,1.033630132675171,5.584255695343018,1.9177861213684083,3.1604256629943849,-0.44218823313713076,0.24434608221054078,4.973196029663086,0.845611035823822,-3.1498444080352785,4.304150104522705,2.6238651275634767,-0.2092570960521698,1.0158849954605103,1.7873146533966065,4.698895454406738,-4.813110828399658,0.5963632464408875,1.3341397047042847,3.0189621448516847,1.8403089046478272,-1.2733361721038819,2.1185407638549806,0.4843541979789734,-5.427581787109375,5.142577648162842,2.250042200088501,-2.8674280643463136,5.56627082824707,0.5138142704963684,1.53200364112854,4.146116733551025,0.6135697364807129,2.305692672729492,5.463394641876221,-3.1149818897247316,5.462331771850586,1.0737358331680298,3.998988151550293,4.371394157409668,-2.5561485290527345,-1.9561721086502076,-1.1456819772720338,2.8971331119537355,-1.7815876007080079,0.34669774770736697,6.659923553466797,4.648927211761475,1.6117902994155884,-0.5843762159347534,-3.680584192276001,5.07076358795166,-0.30206847190856936,-5.933022975921631,-1.4404406547546387,3.1093263626098635,-2.852569580078125,2.7627882957458498,-0.8957325220108032,-2.642302989959717,0.42151910066604617,-1.0674479007720948,-2.7646732330322267,0.7774969339370728,-1.2574193477630616,4.181703090667725,-1.121160864830017,2.488217830657959,3.5506911277770998,3.309967041015625,0.6576521992683411,6.088171005249023,2.3256161212921144,2.305978775024414,1.9481542110443116,2.225253105163574,-0.5474475622177124,-2.830935478210449,2.2012083530426027,1.611409068107605,2.6349451541900636,-4.342232704162598,1.6017645597457886,-0.6859854459762573,0.2635881304740906,1.4964553117752076,-3.2616517543792726,-0.6795425415039063,-1.4911131858825684,2.8059496879577638,-2.548460006713867,1.6746007204055787,-3.3940930366516115,3.379082679748535,2.433417320251465,5.730863094329834,2.2938144207000734,3.9646730422973635,-4.315258502960205,4.443670272827148,0.05266276001930237,-1.018155574798584,-1.3983088731765748,-0.8058866858482361,-0.14896388351917268,-3.1097609996795656,0.4525327980518341,8.255961418151856,5.989636421203613,2.4876928329467775,1.9267100095748902,3.162423849105835,6.267083168029785,0.6579955816268921,-0.7195647954940796,-0.7458229660987854,1.0881091356277466,1.175460934638977,-2.2561028003692629,-1.1611601114273072,5.770468235015869,-1.9415467977523804,4.107231140136719,-1.1526398658752442,0.5649656653404236,-0.5617866516113281,-5.695058822631836,1.845086693763733,3.3295159339904787,0.9980922341346741,3.2644765377044679,1.184309720993042,-1.3147735595703126,-0.6190863847732544,2.6022109985351564,4.080374240875244,2.2135157585144045,2.6125869750976564,-2.4751625061035158,4.104459285736084,7.697019577026367,-0.8976588845252991,-0.5665057897567749,-3.280712366104126,4.789855003356934,1.8192028999328614,2.8848414421081545,2.1964356899261476,-1.066487193107605,-0.493074506521225,-4.577239036560059,-0.6677876114845276,-0.041692525148391727,-0.04412819445133209,2.927293300628662,-0.2614148259162903,1.6732509136199952,1.0247488021850587,0.3875062167644501,3.285299777984619,-1.3168550729751588,2.5087573528289797,-0.389528751373291,5.370085716247559,0.6464918255805969,-1.3394546508789063,-3.031191825866699,-1.868931531906128,2.498415470123291,1.2521467208862305,-3.8953304290771486,5.793469429016113,0.9227206110954285,3.3389573097229006,0.6314539909362793,0.5559407472610474,4.2729105949401859,-1.3051683902740479,3.250378131866455,4.164190292358398,2.192436695098877,0.12701094150543214,2.7255728244781496,-0.9632222056388855,6.308505535125732,-0.4184648394584656,0.5027655959129334,1.568839430809021,3.0416369438171388,-0.7493095993995667,-1.6443315744400025,-1.5170098543167115,1.2920615673065186,-3.367300510406494,2.3297970294952394,-1.073117971420288,-2.988145589828491,2.9814071655273439,1.2262907028198243,0.9307268261909485,2.363919973373413,0.4158220887184143,3.1600003242492677,5.3668951988220219,3.133246421813965,3.582204818725586,-4.971396446228027,9.923222541809082,3.5819387435913088,-0.2662424147129059,-0.018513336777687074,3.0653514862060549,0.2693515419960022,0.6955680251121521,-3.215334892272949,2.0367870330810549,4.790199279785156,1.6452324390411378,-2.1407108306884767,-1.838366985321045,-2.032198429107666,1.4534249305725098,0.7508296370506287,-5.046795845031738,-0.9750197529792786,-3.097494602203369,2.9387364387512209,-2.9855220317840578,7.694221496582031,5.110773086547852,2.282660961151123,0.6615138053894043,1.474144697189331,4.9040327072143559,1.615204095840454,-0.296079158782959,-1.7059444189071656,4.592502117156982,0.8370728492736816,1.1007184982299805,2.1988322734832765,2.990227460861206,-2.450702428817749,2.968852996826172,-3.2136175632476808,1.6109137535095215,3.3417253494262697,-1.4177827835083008,-2.2266931533813478,2.2260444164276125,9.295822143554688,3.9200921058654787,5.9337077140808109,4.984807968139648,-0.6157442927360535,4.569725513458252,-1.484874963760376,3.0548086166381838,1.8571858406066895,4.106338977813721,-3.9967072010040285,3.3692164421081545],"Biases":[0.0,1.0,1.0,1.0,1.0,1.0,1.0,0.5]},"NetworkTrainingRate":0.08371453732252121,"NetworkBestResults":[136.3344268798828],"NotationCoefficient":136.3344268798828,"DNAVersion":25}