{"HasData":true,"NeuralNetworkName":"Jumper Big Neural Net 8 Layers","StartTrainingRate":1.0,"NeuralNetworkDna":{"Weights":[3.8957600593566896,0.4114673137664795,0.1310725510120392,-1.134179711341858,-0.21945253014564518,4.583458423614502,1.5793063640594485,-0.23007100820541385,-1.4787495136260989,2.8498995304107668,1.7815450429916382,-0.5525133013725281,4.335277557373047,1.139367699623108,-0.49651166796684267,-0.6424188017845154,-2.352173805236817,2.614848375320435,1.8440983295440672,-0.5342462658882141,3.121320962905884,0.125342458486557,0.5572352409362793,3.86883282661438,0.044384926557540897,-0.1923792064189911,-1.4577858448028565,2.6461405754089357,2.026299476623535,0.42250052094459536,-2.872485637664795,-0.5981633067131043,1.5482512712478638,0.5999745726585388,0.5876319408416748,-2.572588205337525,1.098097801208496,0.32960015535354617,-2.448794364929199,1.3428637981414796,1.3369450569152833,2.43017053604126,-1.9045045375823977,1.5917444229125977,-0.6315167546272278,-1.519851565361023,-0.9776808619499208,0.4995965361595154,0.5527944564819336,0.1297707557678223,1.7578635215759278,-0.14889028668403626,0.21018677949905396,0.6280293464660645,-0.24562868475914,2.431409120559693,2.1045379638671877,-0.7493445873260498,1.02030086517334,1.7565040588378909,-1.2973079681396485,0.6305870413780212,-0.5027187466621399,0.39661282300949099,1.8563178777694705,0.004027068614959717,-0.5480015873908997,0.1477755308151245,1.260377049446106,4.230504512786865,0.03218910098075867,-2.615203142166138,4.455730438232422,0.8871564865112305,1.8669140338897706,-1.1147481203079224,1.9976046085357669,2.5249595642089845,1.9236656427383426,0.5408735275268555,0.5377349853515625,0.6088286638259888,0.5107765793800354,-0.22461767494678498,0.4456767141819,-0.6736089587211609,-0.2547624409198761,0.03905393183231354,2.1058053970336916,-3.119990110397339,-0.4918052554130554,6.152670860290527,-0.4898205995559693,4.742364883422852,3.929414749145508,1.6268759965896609,-1.765627384185791,-0.08353746682405472,2.6663851737976076,-0.561547577381134,-1.0727680921554566,-1.1934126615524293,-0.05557599663734436,3.998857736587525,-0.9108610153198242,4.245743274688721,0.2960575520992279,-1.5698843002319337,-0.5958276987075806,0.0023788511753082277,-1.3566237688064576,1.564223051071167,-0.2989554107189179,0.0026685968041419985,2.70954966545105,0.4848528504371643,1.9093705415725709,2.441047430038452,-0.8538365364074707,1.428438425064087,0.399078905582428,-0.1940625011920929,1.2520347833633426,-1.1137590408325196,0.9182218909263612,3.705630302429199,-2.534160614013672,-0.039833586663007739,-2.210971355438233,-1.1182960271835328,2.8020169734954836,4.764896392822266,1.0089508295059205,-0.2477969378232956,-0.07040265202522278,1.493776798248291,4.094505786895752,-0.8583165407180786,1.0879451036453248,1.3570200204849244,3.3140950202941896,3.314984798431397,-0.26634135842323305,3.561580181121826,3.1595191955566408,4.073906898498535,2.9068827629089357,2.401955842971802,1.7720940113067628,-1.7000703811645508,0.23726513981819154,2.5941474437713625,-1.2232989072799685,1.1976416110992432,-0.27123039960861208,0.21822014451026917,-1.2043863534927369,0.49679574370384219,1.802882194519043,0.6790256500244141,3.277080535888672,-0.7087647318840027,0.05045291781425476,-0.9764487743377686,0.549147367477417,3.014523506164551,0.9638097882270812,-1.106826424598694,-0.14751826226711274,3.336432695388794,-0.6923773884773254,1.470459222793579,2.5875372886657717,-1.4154083728790284,-0.6640753149986267,-0.5040881037712097,2.5616140365600588,2.1018357276916506,0.8064752817153931,0.6204297542572022,-0.4116070866584778,-0.8661976456642151,-1.7807010412216189,0.8198414444923401,-0.5457660555839539,3.422561645507813,-0.12324672937393189,2.6529946327209474,0.5749664902687073,1.8506407737731936,3.5973050594329836,-0.9420260787010192,-2.1850216388702394,1.2063868045806885,2.5506832599639899,3.139164924621582,0.2239612936973572,-0.7095868587493897,-0.905828058719635,1.4869391918182374,0.5921294689178467,-1.438718557357788,1.9818469285964969,0.2110336422920227,-0.5588158965110779,2.675947904586792,-0.17610034346580506,4.346569061279297,-1.1275646686553956,1.4518378973007205,-0.37054604291915896,2.507145404815674,-0.23299074172973634,-0.49321889877319338,2.87294340133667,2.3745973110198976,0.7822743654251099,-1.9431731700897217,2.1288442611694338,0.41409599781036379,1.4224696159362794,1.9768542051315308,-0.859377384185791,-0.03432130813598633,-0.005924463272094727,-0.9491493105888368,1.0828657150268558,2.417732000350952,3.920194625854492,0.5517815947532654,-2.0012447834014899,0.3404454290866852,4.638362884521484,1.4879940748214722,0.02282240986824036,1.282902479171753,-1.9017151594161988,-2.9824378490448,2.33706283569336,2.399482250213623,1.649630069732666,-0.3525598347187042,3.4831342697143556,-0.017090559005737306,4.538579940795898,0.36318439245224,4.790805339813232,-1.4997745752334598,-0.7282416820526123,-0.2723311185836792,-0.1173420548439026,2.679481029510498,1.557494044303894,-0.23573239147663117,0.8329253196716309,2.0331692695617677,-3.256677627563477,1.901121735572815,0.8816148042678833,1.006676197052002,-0.5931228399276733,-0.3489307165145874,0.06573069095611572,0.1561466753482819,1.216601848602295,0.5282458662986755,2.90197491645813,3.079436540603638,-0.7318727970123291,0.7567047476768494,-1.4774906635284424,3.2862629890441896,3.391278743743897,0.9890427589416504,0.80051589012146,-0.846322238445282,0.7056528329849243,2.296150922775269,0.6835992336273193,-2.591763496398926,-0.08923277258872986,-1.053917407989502,0.7334918975830078,-2.6476333141326906,1.6132524013519288,1.957075834274292,2.2990005016326906,3.643272399902344,0.2366504669189453,-0.9139658808708192,0.5477826595306397,-1.4708318710327149,2.099330425262451,-3.961725234985352,-0.889890730381012,0.299378514289856,-0.9024566411972046,0.7853726148605347,0.530573844909668,1.6208679676055909,-0.3962322175502777,0.9462958574295044,-0.10857488214969637,-0.9127868413925172,-0.46061408519744875,1.7909839153289796,-0.9242438673973084,0.5079857110977173,2.123646497726441,-0.8148150444030762,-3.096208333969116,0.7145402431488037,1.787657380104065,-0.6158272624015808,0.11952316761016846,-1.262967824935913,-0.07934125512838364,1.4515764713287354,0.042800843715667728,1.530543088912964,-0.4179379045963288,0.0577983558177948,2.164535999298096,-2.640029907226563,-0.8331174254417419,-0.803191065788269,1.976266622543335,2.021286725997925,-2.5188472270965578,1.5592378377914429,2.7088894844055177,3.8754913806915289,4.340372562408447,4.938897609710693,-0.2832111716270447,-1.2164466381073,2.428448438644409,-3.263162612915039,-0.437343180179596,-3.215146064758301,-0.0913955569267273,-1.0800548791885377,2.093157768249512,0.12333664298057556,-0.07214105129241944,2.584289073944092,0.3758342266082764,-0.09442903101444245,-1.0367158651351929,-0.9256840348243712,-1.307376265525818,0.15686070919036866,3.3435218334198,2.374178409576416,1.557849407196045,0.23563778400421146,1.63468337059021,-0.46429643034935,-0.6178076863288879,4.137032985687256,-1.3644707202911378,2.482684373855591,1.4326848983764649,-0.6341886520385742,2.7874233722686769,1.1856352090835572,0.4991707801818848,2.5542049407958986,-1.798464298248291,-0.11494690179824828,2.8329899311065676,-2.5306661128997804,0.5660001039505005,-1.232222318649292,-2.881016492843628,1.816622972488403,1.4674789905548096,-2.5353713035583498,-0.11600138247013092,4.437209606170654,-1.9825893640518189,2.41495680809021,1.3712397813796998,1.0695209503173829,1.0825201272964478,1.15818989276886,-0.9120255708694458,2.8138043880462648,2.61994743347168,0.6556034684181213,3.0212409496307379,0.4926352500915528,1.478541135787964,2.897354125976563,1.2810745239257813,0.6942856311798096,2.0762779712677,-1.1730575561523438,-1.8559553623199463,2.1489005088806154,0.7052990198135376,-1.8309025764465333,-0.1895411312580109,1.268267035484314,1.141526222229004,2.578747987747193,1.7187345027923585,1.2887778282165528,-0.1121940165758133,0.4470501244068146,0.7493929862976074,-3.521310806274414,-1.931671142578125,2.819706439971924,1.2493773698806766,-1.16164767742157,1.9081350564956666,0.9050678014755248,-0.4589292407035828,0.16886615753173829,2.131960153579712,0.8790092468261719,-0.917400598526001,3.64662504196167,-2.783249616622925,1.7699651718139649,-2.096874475479126,1.455730676651001,1.5031133890151978,-0.16353100538253785,-0.45729976892471316,-0.7739962339401245,2.3260512351989748,1.3731621503829957,1.262454628944397,-0.13290685415267945,0.9474700093269348,-3.773146629333496,-0.8621311187744141,1.0680009126663209,1.424840807914734,0.2097766399383545,1.425235390663147,-0.7265763878822327,3.1506752967834474,-1.4463207721710206,0.6975768804550171,1.846801996231079,4.052888870239258,2.5013785362243659,2.4771687984466554,1.850756049156189,0.7403920292854309,0.6637049913406372,-1.2631970643997193,-1.5701749324798585,1.6722325086593629,1.5551823377609254,1.577780842781067,1.5783698558807374,-1.0420163869857789,2.189607620239258,-2.06298303604126,0.7719212770462036,-0.6571558713912964,-0.6975338459014893,-0.21296122670173649,1.3341437578201297,-1.28631591796875,-1.113730788230896,-1.1471714973449708,1.814305543899536,1.0013971328735352,-0.551296055316925,1.0419325828552249,-0.4429454207420349,1.0119229555130005,-0.28027117252349856,-0.7708083391189575,2.651658773422241,1.887836456298828,0.935505986213684,1.828603982925415,2.244539737701416,0.7106815576553345,0.2046647667884827,1.9260672330856324,2.092848777770996,-0.3788071572780609,1.35836660861969,1.1524864435195926,0.7053933143615723,-0.37534913420677187,2.8926401138305666,2.2881898880004885,-3.576748132705689,0.6869995594024658,4.362716674804688,3.674154281616211,1.3909554481506348,-1.133087396621704,3.341519355773926,3.930600881576538,1.94175922870636,1.4154608249664309,0.8127539753913879,0.8281770348548889,-0.25261735916137698,-0.6540101766586304,0.1145411729812622,1.9295645952224732,-1.2657577991485596,3.895932197570801,-1.2276794910430909,-1.7237892150878909,-1.0130380392074586,3.179356575012207,-2.4241199493408205,0.5755296945571899,-0.7510360479354858,1.9787510633468629,1.7319965362548829,0.8780298829078674,-1.3992366790771485,0.4302681386470795,-1.1098612546920777,1.884406805038452,0.45107901096344,0.38465309143066409,-1.4520690441131592,-0.4040701985359192,0.4926206171512604,0.2896197438240051,-1.2729488611221314,2.2665419578552248,-0.7858616709709168,1.4604556560516358,4.164985179901123,-0.9575936794281006,0.4795173406600952,2.0535309314727785,2.104114532470703,0.8331649899482727,-0.13594135642051698,-0.6986622214317322,4.989043235778809,1.8479809761047364,-0.269636869430542,0.18280865252017976,-1.1229645013809205,0.22900468111038209,-0.6730377674102783,-1.6896953582763672,2.2865195274353029,2.137473106384278,1.5114904642105105,-1.4778456687927249,0.18198496103286744,1.7829447984695437,1.0345205068588257,0.208515465259552,-1.200868010520935,-0.035859365016222,-0.860243022441864,-0.2611714005470276,1.668068289756775,3.653339147567749,-1.5385245084762574,3.272376298904419,0.8689368367195129,1.4013452529907229,-0.32877135276794436,-2.442554235458374,0.6502202749252319,-0.1114792302250862,3.1895086765289308,0.8161040544509888,2.066875457763672,-1.7298141717910769,-0.16593985259532929,-1.2502272129058838,-0.12133702635765076,1.224153995513916,-1.725297451019287,4.36544132232666,1.7660560607910157,3.147227048873902,0.538773775100708,2.976196765899658,1.5823493003845218,0.5995638966560364,3.8820297718048097,1.565778136253357,2.9076740741729738,4.038653373718262,0.8426751494407654,-1.5360051393508912,1.5070819854736329,1.3187702894210816,2.558890819549561,-0.7259353399276733,-0.8495480418205261,-0.9156453609466552,0.9749186038970948,1.5053575038909913,0.2410635352134705,1.9605700969696048,0.2173263728618622,-1.4945216178894044,-1.6422821283340457,-0.03549620509147644,0.06031832844018936,1.411631226539612,1.182581901550293,-2.2459774017333986,0.9904910922050476,1.2571208477020264,2.0470545291900636,3.201695442199707,0.3313851356506348,-1.3023998737335206,1.7959628105163577,-2.415081024169922,0.1400488913059235,0.6335704326629639,0.6285932660102844,2.968716859817505,0.42411375045776369,-0.31472939252853396,0.1632484793663025,1.0840092897415162,-1.065816640853882,1.0108973979949952,3.1019811630249025,2.520122766494751,-2.116926908493042,-1.1295311450958253,-1.901561498641968,2.726381301879883,-1.5782986879348758,1.1127089262008668,1.07504403591156,-1.4368131160736085,2.16679310798645,-1.572628140449524,1.1467511653900149,0.37041598558425906,1.4988012313842774,2.210019111633301,-0.28332868218421938,-0.22150126099586488,-0.32407230138778689,2.5206515789031984,-1.023966908454895,-0.20214518904685978,1.477308750152588,1.9046452045440672,2.6406753063201906,3.7270236015319826,-0.7660200595855713,2.8682146072387697,-2.5777580738067629,-0.5148106813430786,-2.1272544860839845,1.084877371788025,0.9527791738510132,2.200899124145508,1.6114189624786378,2.246051549911499,-2.788828611373902,3.6849961280822756,-2.0651180744171144,2.389760971069336,2.5716750621795656,-1.820127844810486,2.2159011363983156,0.7869672179222107,3.138952493667603,-1.7854175567626954,0.3401578664779663,-0.7794996500015259,-1.8166835308074952,-0.5314095616340637,1.333611845970154,1.7752149105072022,-0.1426575630903244,0.609326958656311,-1.232962727546692,0.8123822808265686,1.2010749578475953,2.172340869903565,1.5453052520751954,1.052175521850586,1.5491876602172852,2.7466328144073488,-2.9702200889587404,-0.8863987922668457,1.1073004007339478,-0.3347807824611664,0.02263854444026947,-0.5824942588806152,2.845181703567505,-0.08169403672218323,-2.135671138763428,2.889058351516724,-2.971726179122925,-0.5361087322235107,-2.111823081970215,3.0333380699157717,3.6590805053710939,-0.4459248483181,2.404930114746094,-0.44530028104782107,-1.0163005590438846,1.152520537376404,1.6981216669082642,1.094734787940979,1.9875497817993165,1.538987636566162,0.11161702871322632,2.495087146759033,0.05165579915046692,0.17125782370567325,2.292034387588501,-0.6135756969451904,-0.8232889175415039,0.5626919269561768,-1.947564959526062,1.7426462173461917,1.6426918506622317,1.784358024597168,1.367795705795288,0.559035062789917,-2.281174659729004,4.165041446685791,2.004750728607178,0.385602742433548,2.613496780395508,0.3618808090686798,0.2827525734901428,2.351090669631958,0.12767264246940614,1.7224541902542117,3.707152605056763,-2.268765449523926,2.845881700515747,1.4640368223190308,-0.7598206400871277,4.716605186462402,-0.6855355501174927,1.2100269794464112,0.7302767038345337,1.2151285409927369,0.30446481704711916,0.05962038040161133,-0.4500086009502411,-0.08110935240983963,1.379308819770813,0.0810348391532898,-1.523105263710022,2.546631097793579,-0.2975870966911316,2.064039707183838,0.4400300085544586,0.3809033036231995,1.2132939100265504,2.348403215408325,0.943268895149231,1.7865345478057862,-0.43506863713264468,0.030931293964385988,-0.2377218008041382,-0.24211886525154117,-1.125897765159607,0.3887938261032105,0.3866765797138214,1.3497480154037476,-1.60152804851532,-0.05451434850692749,2.02040433883667,-1.7632603645324708,2.6426305770874025,0.17290249466896058,2.0200202465057379,-0.6416728496551514,-0.6419244408607483,-1.5839139223098758,3.434946060180664,0.3493951857089997,-0.1152188926935196,-0.7970613837242127,5.443597316741943,0.4191914498806,2.7350211143493659,-0.8257201910018921,2.936535358428955,0.4032642245292664,3.971773624420166,1.824679613113403,2.238566637039185],"Biases":[0.0,1.0,1.0,1.0,1.0,1.0,1.0,0.5]},"NetworkTrainingRate":1.0083096027374268,"NetworkBestResults":[278.9127197265625],"NotationCoefficient":278.9127197265625,"DNAVersion":11}