{"HasData":true,"NeuralNetworkName":"Jumper Big Neural Net 8 Layers","StartTrainingRate":1.0,"NeuralNetworkDna":{"Weights":[2.9677181243896486,-0.19241538643836976,1.5109763145446778,1.553046464920044,1.3878910541534424,0.7866957783699036,3.201207160949707,1.081723690032959,1.3581509590148926,-3.6906681060791017,0.8488435745239258,2.4298505783081056,2.6275405883789064,3.975964069366455,1.2084195613861085,4.481794834136963,0.1228933036327362,-1.4040905237197877,-1.2149043083190919,-0.15547430515289308,0.8860113620758057,0.5529181957244873,2.2312171459198,0.4967389702796936,2.711245059967041,-0.6420621275901794,0.9722741842269898,1.1829935312271119,2.290018081665039,1.4600193500518799,2.08237361907959,2.4099907875061037,1.4026674032211304,3.3213746547698976,-1.1924898624420167,0.6493031978607178,4.43878173828125,0.28687751293182375,1.4572688341140748,-0.3315741717815399,0.9649165272712708,0.02700519561767578,1.1668733358383179,1.5306116342544556,-1.7616724967956544,-0.9251673817634583,2.677203893661499,1.4602783918380738,0.9223744869232178,0.5563212037086487,2.445796012878418,-0.2728897035121918,2.0401997566223146,3.8409836292266847,0.041252702474594119,-2.5202791690826418,-0.10647010803222656,1.0526762008666993,-0.8164867758750916,1.8931527137756348,-0.10675060749053955,0.9519692063331604,1.1618727445602418,-1.1166799068450928,0.5272584557533264,-1.8703703880310059,1.5981805324554444,-2.789140462875366,-0.14344492554664613,1.6037285327911378,1.3942044973373414,4.434225559234619,0.8939660787582398,-0.13430339097976685,-2.4964964389801027,0.6823199391365051,-0.7708269357681274,0.9725332260131836,-1.0543444156646729,-1.2480374574661255,-0.07054641842842102,4.567907810211182,0.8727453947067261,3.034510850906372,1.3753490447998047,4.827999591827393,0.14034780859947205,-1.959112286567688,2.190873146057129,2.111691474914551,1.5763550996780396,2.1637532711029054,0.909295916557312,0.49007177352905276,-0.975738525390625,0.7777103781700134,-0.4777402877807617,-0.0008308887481689453,1.204350471496582,3.110255718231201,0.054158687591552737,-1.3884812593460084,-0.8632069826126099,0.1410377025604248,-0.8774288296699524,0.7077646255493164,1.8408656120300294,-0.40467435121536257,0.2072257697582245,0.8570134043693543,-0.6027812957763672,3.8729231357574465,0.10824951529502869,2.2127861976623537,0.6296911239624023,-2.0263750553131105,-0.7419516444206238,0.8341325521469116,0.47787779569625857,1.4189094305038453,-0.027391880750656129,3.377206563949585,0.4744087755680084,-0.1542143076658249,-0.14188089966773988,1.5654579401016236,0.31862831115722659,0.8294141292572022,3.3331754207611086,4.703579425811768,-1.0282092094421387,0.9070729613304138,-2.3306498527526857,0.6117828488349915,0.1199604868888855,-3.3153085708618166,-1.8303401470184327,2.824481964111328,-0.1826675981283188,-0.1430540382862091,-0.9214228391647339,1.5010159015655518,-0.8986308574676514,1.2417702674865723,-1.7283439636230469,-1.822335124015808,-1.6445202827453614,1.3542141914367676,1.3660643100738526,4.91216516494751,-0.5578615665435791,0.9348631501197815,3.5209310054779054,0.2843983769416809,-3.2000465393066408,1.9195199012756348,-0.7402870059013367,0.11828966438770294,-0.5487849712371826,2.362678050994873,0.014551252126693726,2.352609634399414,-1.4510489702224732,0.3189113736152649,0.3999149203300476,-1.0121773481369019,0.6213425397872925,0.09257695078849793,2.4554848670959474,1.0731096267700196,0.7732842564582825,1.1446106433868409,-1.8586541414260865,-0.29038429260253909,2.189811944961548,1.5551152229309083,1.509606957435608,2.0252346992492677,1.0783555507659913,2.4954466819763185,2.8272314071655275,-0.775861918926239,-1.5816558599472047,-0.11795288324356079,-2.1377310752868654,0.428503155708313,2.35312557220459,1.0894993543624879,-0.23328059911727906,0.8745514750480652,1.2719420194625855,-0.02611038088798523,-0.6237233877182007,2.735443115234375,3.9034433364868166,0.31846895813941958,0.29878437519073489,0.48065292835235598,-1.3141430616378785,1.202251672744751,-2.621145725250244,4.09011173248291,4.3311662673950199,0.327141135931015,1.4964656829833985,2.042548894882202,-2.2505381107330324,1.088065266609192,-0.18927741050720216,-1.744516372680664,1.1707226037979127,-0.9896172881126404,-2.7256529331207277,3.965684652328491,2.0262703895568849,1.7155681848526,2.4705402851104738,0.7453657388687134,2.332454204559326,1.8215904235839844,1.6854026317596436,-1.4723783731460572,-0.5198322534561157,0.9339873194694519,-1.7353720664978028,-2.70245623588562,0.5236959457397461,-0.3051951825618744,1.681037187576294,-1.4662340879440308,-2.10959792137146,0.29334768652915957,2.4860854148864748,-0.12712466716766358,2.9854354858398439,2.2218663692474367,-0.5430719256401062,-0.6441866159439087,-1.1800577640533448,2.454256534576416,2.1779377460479738,0.02663835883140564,0.8856388330459595,0.06450650095939636,1.8341785669326783,-1.7642719745635987,-0.11273911595344544,1.9392170906066895,0.4078698754310608,-0.343512624502182,-0.715733528137207,0.714228093624115,-1.034579873085022,0.41119611263275149,-1.9621105194091797,2.9336724281311037,1.5102941989898682,0.5265891551971436,-0.8076568245887756,3.6679978370666506,1.9687576293945313,0.048917949199676517,-0.602504551410675,-1.4533742666244507,-1.3967891931533814,0.1769081950187683,1.4140372276306153,-1.6683883666992188,0.018632173538208009,2.53713321685791,-2.3755171298980715,1.3685160875320435,0.4347887635231018,0.8620119094848633,0.6031238436698914,1.074303388595581,4.110387802124023,0.9662522673606873,2.1195809841156008,0.5339922904968262,-1.439130187034607,1.2239197492599488,-3.0742969512939455,-1.5524098873138428,2.1320297718048097,0.2235483080148697,2.8475520610809328,-2.962974786758423,1.6153467893600464,1.7403405904769898,-1.6158409118652344,0.7592620849609375,-1.2861824035644532,0.4732629060745239,-3.4528391361236574,1.708786964416504,-2.299100399017334,-1.1012873649597169,-0.8716013431549072,0.07249617576599121,0.4691218137741089,-0.8408443331718445,-0.7398951649665833,0.12988798320293427,-3.2131476402282717,0.2140260636806488,1.3933905363082886,3.1344199180603029,1.5866470336914063,1.9102559089660645,2.2381720542907717,-1.7580995559692383,-0.9827154874801636,-1.4242825508117676,-0.20183275640010835,-0.3137403130531311,0.5544310808181763,0.8667770028114319,5.335142612457275,1.6951719522476197,-0.16139933466911317,-0.7173773050308228,-0.13975365459918977,2.766376256942749,-0.12581032514572144,-0.5546041131019592,-0.005031853914260864,1.2696588039398194,-1.4303839206695557,1.367427110671997,1.092724084854126,0.9670983552932739,-1.5910168886184693,-1.3420772552490235,3.012502908706665,-1.6046274900436402,2.009995222091675,-1.4101215600967408,2.1941356658935549,-0.05954107642173767,-0.9608758687973023,3.1896824836730959,1.8586838245391846,-0.44438403844833376,1.6739146709442139,-1.3492040634155274,-1.4555872678756714,-0.2293890416622162,1.3201169967651368,-4.085860729217529,2.183523654937744,1.2579017877578736,-2.2305715084075929,2.084343671798706,0.9476453065872192,1.4047164916992188,-1.0992499589920045,-1.023224949836731,1.179641604423523,1.5333291292190552,-1.932773232460022,0.2353154867887497,3.479187488555908,-0.07807866483926773,-1.5968549251556397,1.8994622230529786,0.03222183883190155,1.179783582687378,2.8554067611694338,-0.2167619913816452,2.4412856101989748,-0.40876951813697817,0.6278806328773499,-0.7588416337966919,1.2613637447357178,1.856233835220337,-1.1122115850448609,3.0561320781707765,5.069917678833008,3.5396676063537599,-0.665037214756012,0.407393217086792,1.2118797302246094,-1.146226167678833,2.3242437839508058,0.3124931752681732,-1.0101265907287598,0.6938357353210449,-1.536788821220398,-0.2866426408290863,1.2139344215393067,2.681215763092041,-1.6261180639266968,-0.09778611361980438,-0.6006322503089905,-0.3474353849887848,1.2353380918502808,-1.7149624824523926,-0.44115495681762698,2.2714555263519289,0.9063577055931091,1.2854571342468262,5.169696807861328,2.5094642639160158,-1.0835713148117066,-1.0417219400405884,-0.5294713973999023,-0.5357077121734619,0.35753893852233889,0.7997030019760132,-3.572324275970459,0.710620641708374,0.3312320411205292,0.08532354235649109,0.6123355031013489,2.5965631008148195,1.8787338733673096,1.2593274116516114,0.227643221616745,-0.4058868885040283,1.055966854095459,1.0446572303771973,0.8408505916595459,1.3859646320343018,-2.92665433883667,-1.9297916889190674,2.3294224739074709,-0.2551272213459015,0.33152151107788088,-2.462695837020874,2.912445306777954,-0.21760092675685883,0.12230224907398224,-0.25875797867774966,3.3796186447143556,2.610114574432373,0.19902265071868897,-0.10883453488349915,-0.8899180293083191,-1.7976490259170533,-1.509992241859436,2.75179123878479,-1.8243310451507569,-1.8228188753128052,2.7114005088806154,-0.443398118019104,3.3556346893310549,-1.7222334146499634,-1.4209322929382325,0.776727557182312,0.5392419099807739,-1.0230178833007813,-0.32438400387763979,1.2988536357879639,0.47495049238204958,-1.8248237371444703,0.18283560872077943,2.7426862716674806,1.1491060256958008,-0.3537190854549408,2.7345805168151857,-0.2555522620677948,0.09044903516769409,0.7574684023857117,-0.5200254321098328,2.5608327388763429,0.4908621907234192,-1.7037580013275147,2.683490753173828,-0.32522210478782656,-0.4933345913887024,-1.0360124111175538,0.64825838804245,0.0390985943377018,-2.2416913509368898,4.290353775024414,-0.7607246041297913,1.3116397857666016,0.7994239926338196,0.8903217315673828,-2.9093637466430666,2.0580594539642336,-1.3877267837524415,-2.819460153579712,1.8462345600128174,0.936716616153717,1.0080842971801758,0.7073956727981567,2.504707098007202,-0.2022915631532669,-0.3645545244216919,-1.1295253038406373,1.0305253267288209,-0.06129569932818413,-0.5816155672073364,3.1936769485473635,0.40717369318008425,-0.5949407815933228,-0.7597520351409912,0.7378866672515869,-1.7912299633026124,-0.5401743650436401,0.9737405180931091,0.7320417761802673,0.4262588620185852,0.17251208424568177,0.19675984978675843,3.281574010848999,0.35943546891212466,2.142223358154297,0.15087613463401795,-1.2531626224517823,1.2908819913864136,-1.19158935546875,1.2553906440734864,-0.03811842203140259,-2.3013951778411867,2.232102394104004,-0.37017881870269778,-0.033496275544166568,-1.0694141387939454,1.083028793334961,-0.5553858280181885,3.181431531906128,1.4598603248596192,0.5214821696281433,-2.1216776371002199,0.07371172308921814,1.7599356174468995,0.5118566751480103,2.6859817504882814,1.4626412391662598,1.7708724737167359,0.6578634977340698,3.803130626678467,-1.814753770828247,-2.155289649963379,2.1393399238586427,0.6596759557723999,4.034187316894531,3.8916893005371095,1.5622022151947022,-0.8942350149154663,1.1131455898284913,1.1622045040130616,-2.342942476272583,-0.42070162296295168,-3.0826737880706789,1.778598427772522,3.991281032562256,0.6723648309707642,3.8070008754730226,1.226325511932373,4.2166948318481449,1.8565140962600709,1.3828470706939698,1.3772263526916505,-3.077052593231201,-0.39765840768814089,1.478296160697937,1.1735215187072755,0.1646517813205719,-0.06842949986457825,0.9518181085586548,1.2227931022644044,-3.0272250175476076,0.43869948387145998,-1.7033699750900269,1.1923930644989014,0.09657604992389679,-1.0121134519577027,-2.628492593765259,1.1889289617538453,-0.6702835559844971,2.8692939281463625,-1.8203177452087403,1.3753799200057984,2.55938720703125,1.4505716562271119,0.13171201944351197,-0.6585754752159119,-1.6106581687927247,-2.650799512863159,0.30380335450172427,-1.7467870712280274,-0.16868919134140016,1.2936574220657349,1.9976056814193726,0.0279579758644104,1.1917837858200074,-1.1215190887451172,1.3138395547866822,0.00224187970161438,-1.1263841390609742,-0.14673122763633729,-0.31229376792907717,2.3165364265441896,0.6081204414367676,0.45142579078674319,1.5083014965057374,2.4726433753967287,1.5070574283599854,0.5826117992401123,1.294966220855713,3.592719793319702,0.6536049246788025,1.5469489097595215,-0.1611517369747162,1.9716908931732178,1.309653401374817,3.0238635540008547,3.784628391265869,-0.2535746693611145,-2.0262436866760256,-0.603152871131897,-2.0917227268218996,2.1797194480895998,0.03942607343196869,2.660878896713257,-0.8981919288635254,-1.1753400564193726,2.7390551567077638,-0.3399360775947571,-0.5080355405807495,-1.8930995464324952,-1.2817096710205079,0.6308996081352234,1.2263288497924805,4.166004180908203,5.309266567230225,-0.8312584161758423,0.39002108573913576,0.20359593629837037,-1.952154517173767,-0.5123099088668823,1.0014634132385255,2.8112964630126955,-1.3800721168518067,-1.3967018127441407,0.8118196129798889,-0.6341198086738586,3.203986883163452,2.1966607570648195,0.1438460499048233,2.1545493602752687,3.434995651245117,2.3327958583831789,0.5542702674865723,-1.1396416425704957,2.506427764892578,3.08062744140625,-2.6705565452575685,0.8234691619873047,-0.6347954273223877,-0.07328882813453675,1.4871995449066163,0.7945906519889832,-0.11984571814537049,4.406134605407715,-0.03268378973007202,0.4157392382621765,2.8962297439575197,0.5775125622749329,-0.16105607151985169,1.1305220127105713,-1.9876028299331666,-1.8872663974761963,-0.1570776104927063,-1.0799309015274048,-3.0208020210266115,-0.2523663341999054,0.41366684436798098,-1.4991469383239747,1.810623288154602,-1.3583265542984009,1.114403247833252,0.6341211795806885,1.586107611656189,-0.3554954528808594,2.7470576763153078,2.998008966445923,1.358954906463623,1.5286054611206055,4.189294815063477,-0.4516775608062744,2.8678300380706789,1.2243597507476807,1.4320865869522095,-0.982147216796875,2.3527050018310549,4.4033708572387699,1.677878499031067,0.1777142733335495,-2.1767609119415285,1.5409767627716065,4.503571510314941,4.2445783615112309,0.3745715916156769,2.1840031147003176,2.8977553844451906,0.21496951580047608,-0.6423978209495544,-0.028554052114486696,-0.7273421883583069,-1.7135214805603028,-0.08534485101699829,3.1385412216186525,-0.9573168754577637,1.4336657524108887,3.669896125793457,0.28268080949783327,-0.4982897639274597,-0.304518461227417,-0.591530978679657,1.9658033847808838,-1.8560972213745118,2.98177433013916,0.4390829801559448,0.4783441126346588,-0.2791852653026581,1.068892240524292,0.26973390579223635,0.5646176338195801,1.2074670791625977,-1.5812904834747315,4.871461391448975,-0.719900369644165,0.9661204218864441,3.353111743927002,0.8424973487854004,-0.9579160809516907,1.1701018810272217,3.4851608276367189,1.0616240501403809,2.764986038208008,1.452003002166748,1.2414799928665162,1.944506049156189,-0.4687783718109131,0.8243280649185181,-1.5073341131210328,0.37233811616897585,-2.713038444519043,1.982251524925232,0.7597224712371826,0.49555718898773196,-2.0321836471557619,-1.4032347202301026,-0.41362494230270388,0.5913942456245422,-1.6012893915176392,0.8047133088111877,-0.39130356907844546,2.2924482822418215,1.6241652965545655,2.5273523330688478,3.304058313369751,1.1505763530731202,2.8354148864746095,0.9823890328407288,-0.644274115562439,2.092471122741699,0.11195766925811768,-0.4377014636993408,1.823685646057129,0.08110082894563675,-1.1471810340881348,3.6488184928894045,0.6463546752929688,-0.8408259749412537,1.540865421295166,-3.3877859115600588,-0.012062013149261475,1.238194465637207,2.4076313972473146,0.636371374130249,3.526505708694458,3.4015090465545656,-1.8455747365951539,-0.6413121819496155,-1.4902431964874268,0.6992936134338379,2.647218704223633,1.051620364189148,1.5802927017211915,0.08177810907363892,1.5946664810180665,-2.339818239212036,1.3003448247909547,2.5745983123779299,-2.91629958152771,1.0621412992477418,2.2071046829223635,-0.0970923900604248,-0.12498214840888977,2.5571489334106447,4.381923198699951,-1.3602867126464844,-1.2581804990768433,1.884814977645874],"Biases":[0.0,1.0,1.0,1.0,1.0,1.0,1.0,0.5]},"NetworkTrainingRate":0.6935700680378084,"NetworkBestResults":[87.86871337890625],"NotationCoefficient":87.86871337890625,"DNAVersion":13}