{"HasData":true,"NewTraining":false,"autoSaveIncrement":1,"NeuralNetworkName":"ImaRecog","StartTrainingRate":0.05,"InstanceWeights":[0.004524865399359196,0.006346507191819376,0.005360453787893269,0.0011632238287307435,-0.0058793369195793468,0.001177695892368302,0.008120541320238517,-0.001156442533785683,0.009550995062827596,-0.004525910846202593,-0.004161874304600933,-0.000653705993040328,0.002653181456333576,-0.0006097624314063063,0.009643025062812038,-0.009392660185411881,0.007247403076499423,0.009906941624314962,0.003543622984338378,-0.0037081641395148659,0.006338158173644056,0.006961035661846882,0.009838043507113143,-0.009347496032410998,0.003998839675448293,0.0005256828528482863,0.00868037317818048,0.0037524056498670964,0.0009363086851948439,-0.00837780100217918,-0.006257508516431557,-0.0009334562956045643,-0.004056562685434037,0.009770875582364796,0.00285394945780465,0.005259271764782849,-0.009392114141672903,-0.002379909862009767,-0.0031371631068816245,0.009149103313288233,0.00010258425497570133,0.00431945024725024,-0.007620845417315534,-0.004530970330597354,0.008141959001376277,0.005895311877082714,-0.0032567932145934526,-0.000855824244607159,-0.007063499194133794,-0.005573705209220623,-0.0017985344081178929,0.004374536655086343,0.002396605672499448,-0.00024063895002037275,-0.006101731265011118,0.0075638297375123148,0.0065084636847062339,0.004707949820304267,0.007164384153282447,0.0035949802275723685,0.0024973227141878216,-0.005631864329628583,0.007907248781019472,0.007928796065006775,-0.008268402329771037,0.006771581991003634,-0.006597143307606291,0.002882305873968781,0.0065362881107890479,-0.005616246701970811,0.009999453956261022,-0.0003726870614908107,0.0030441047311965867,0.004394519671050144,0.006189251605509432,-0.007981292073606185,0.004581881079162416,0.004369013837710496,-0.007489455033787272,0.008103527798365583,-0.006217523932558262,-0.0004638025772123605,0.0008159048440008927,-0.003489986105584533,0.0034207334059387138,-0.0006320451715179001,0.006669938031895988,0.006184076264586337,0.005872606847375913,0.005290119720292334,0.008750808080076616,-0.004100063961977168,0.000455705984707783,0.0032678566655460069,-0.0033482194008995875,-0.004265551415395715,0.00641220146623077,-0.00554964148232231,-0.006262568000826318,-0.008629622989627358,0.0024924551846890049,0.0038609009114377679,0.002607887644603797,0.008552747507837017,-0.005573159165481645,0.008574152653372918,-0.008669568076110244,0.008002086001449307,0.003570109444470195,-0.008120439191404936,-0.0070180513416501,-0.007860550153004263,0.002197404854091539,0.009060856354916868,-0.00018749583986936783,-0.007038874708599818,0.003552230826370526,0.0013972348866040045,-0.005491937340931938,0.002363642841746864,-0.009898356040892358,-0.0027812195721926265,0.007009699026592866,-0.008753831609503289,-0.004367054782047428,0.004099517918238191,0.009171606953801403,0.009776248065650579,-0.002257260928050271,0.0004548030209051458,-0.004393493539836954,0.00013152256148472527,0.000631581838536812,-0.008859832044159915,-0.004388927386323423,-0.00007842484399602986,0.006928309778183843,0.002263157336163873,-0.007916826940102888,0.0048465807525657979,-0.0019624770954076566,0.008667852030446682,-0.0073860331798838618,0.003993046038780848,0.002308171061942435,0.006611358233080877,0.0037025311839312925,0.0013948496297909175,-0.006544647494584624,-0.006309344692299769,0.0021822177582337609,-0.004985033420373236,0.00994229585860963,0.0013737891574268167,-0.008731266948735,-0.00472632524311837,0.006851201884844898,0.0013617192541070835,0.0029198022898844456,0.00032732291628016427,0.009402545699571516,-0.008445816141760822,0.0002593469294995751,-0.006884693576434951,0.006273054348432018,0.0028504260968651754,0.0015078680084589253,0.0010572368982514555,0.0034497837412402895,0.009890929004126663,-0.0039671844867836618,-0.008710926509793349,-0.0006859381732931061,-0.0003385180934977333,-0.00567388006284548,-0.008566208071339041,-0.005395186392308765,-0.0069833470121879819,-0.0010620026714457214,-0.0009784130151283058,-0.009603013265693102,-0.0022232426759895139,0.006320895560235204,-0.005947916235750503,0.008272585262671386,-0.009408460119463717,0.00018922670287509907,0.009257792681109994,0.009871434904575085,-0.009662602143205052,0.0030703732711590706,-0.004433409475923241,0.009343355046279428,0.001755850143616948,0.005444035052994282,-0.003516660953646834,-0.0015914948990528918,0.009498660396551088,0.007719991690348831,0.00945774496507726,-0.004896509775378048,-0.007354705714320162,0.007945065888550629,-0.006435576498711284,0.007657839794483893,0.0008931442680271077,0.00570090475291987,0.00028081395210736125,-0.002952330779727702,0.009834941122604043,-0.009331138850809606,0.0038345488970328806,-0.0075762780744471958,-0.006101784694987249,-0.00006966381802673595,0.001625788375561028,-0.0047667117019960249,-0.0037927368347499227,-0.005157278839106336,0.005681514467895736,-0.007338800606009923,0.00225007532734893,0.0011858019936763706,0.0031123858844453405,-0.00317944426703241,-0.00953377501086042,-0.008054281556072777,0.007558211683089943,0.0042174468535079849,0.007842780890801352,0.003025286827713851,-0.0048938467888598549,-0.004703338702536811,-0.0005197476365229811,-0.006081903239750258,0.007751692448627062,-0.00016830856454014276,0.002756472058946486,-0.0036057560302343949,-0.0026205590053557227,-0.00510936487238359,0.009908412750767737,0.0022101234608376959,-0.009963506218028957,0.009668536707604555,0.00923582437412619,-0.006857131401476046,0.005445139741266678,-0.008174486038356315,-0.006181753322566745,-0.00874994925165081,-0.007798758064302969,0.004655939235657425,-0.007961522777546908,0.006796545571087184,0.002853414897273022,0.0014594922920034698,-0.005167319995894711,0.006743867768321124,0.007191614805344313,-0.0010525741759001163,0.008142693069829932,0.006063367098599377,-0.000795111670529057,-0.0031903457051098099,0.005562707938050249,-0.0014621124004303068,0.002943469562075784,0.00998011854476301,0.002178643733346204,-0.008205903059898832,0.002476816239057489,0.009813019195484474,0.007463280166249387,0.0007908793402793251,-0.007247213356777659,-0.009960048133488768,0.001149308211705325,0.0034438491768407875,-0.0024152686411585977,0.0073233563906156249,-0.0034994212973394535,0.005732697721446257,0.0003992001760747283,0.006592730142452164,0.0008240448920168193,0.0004502139754827203,-0.006741815924989906,0.002683706792389837,0.0010646818629767193,-0.003707799843376409,-0.005000988568645431,0.006012604290625364,-0.0007973708355787073,0.008432015170544394,-0.0032520579422135175,-0.006154954347831642,-0.006994764868633247,0.003226839487080852,-0.005894171230445696,0.000697936774556495,0.00019939903644816855,0.005465021196503668,-0.00035312977170251676,-0.007975850262667915,-0.001226765490708298,-0.007611777259787441,0.007192659069408037,0.0012475978821737677,0.004043758927864842,0.0028134630307617895,-0.009689815919701856,0.0013888308272645024,-0.0008408635905202775,0.009868258414728689,-0.007553152878560663,-0.0075900046516163299,-0.004335833077475351,0.0026121581870187807,0.005985609402873371,-0.004887506037432471,-0.004720296475440402,-0.009740237230314053,-0.0010845633182137108,-0.004113556423277388,0.0067950855087466018,0.006464211948432127,0.0006103900310631787,0.009031264995704997,-0.005957062717507157,0.008907740991053985,0.007034716735144478,0.007922468724624472,-0.0006619795927135172,0.0068867945842849089,-0.0028760426458325444,0.0010355575061568798,-0.003914172506851225,-0.001624949561257357,-0.0021805043668395396,-0.001564177848195741,0.0032575549060746818,0.002010586192836325,0.008639947864524994,0.008251218832214932,-0.0040179839236745549,0.003610180604090067,-0.003146532118854361,-0.0006656292503073938,0.005985168049105058,-0.005662053290597188,0.00818087872964371,0.00039307694434797223,0.007241230084207481,0.008993334806986777,-0.004581766750003102,-0.000060363733237778563,-0.0034504154852826225,-0.00623957334842513,-0.004770935771414515,0.002309022560859575,0.0017778327091493799,0.008161394073703045,-0.0027953394003190749,0.0051360179368108598,0.005778746295617311,-0.007612284644326327,-0.00794918958002198,0.0022723418251948178,0.0027443010605612326,0.0014112896152824583,0.006324167855234894,0.0072891164837820079,-0.005207337446141679,-0.002450212748930889,0.0018549390564928485,0.0032691173317232725,-0.008380185094839049,0.0006642178495713594,0.009904427500397167,-0.006815095095343466,-0.00038925593271351214,-0.008723980718629426,-0.006953903053400061,0.009704990573090033,-0.009273137738589729,-0.0033583602092034927,-0.00931876135958301,0.00034468560029970834,0.0014685613342880107,0.0071843210874052349,-0.005514027008560499,-0.007674599158426094,-0.006854013789842843,0.005510473072300886,0.006657989442654883,0.0050961608323716379,-0.005194074406844599,-0.006496070072285864,-0.007527527463402379,-0.006405699279348226,0.0015593701841120477,0.0045811260559508238,0.006590069689131376,-0.005426121566177403,-0.001986221145832084,-0.009108237754138297,-0.004399585609510349,-0.00030855716686162965,-0.002861604249506073,0.0021491159182736258,-0.0016801786383987307,0.005885366665146019,-0.006144000848822296,-0.007955840676071049,-0.007301721506426913,0.0005018134277788057,0.005115297127103107,-0.002500329973409106,0.0044091556754005879,-0.000862893495179198,-0.008293523284743318,0.0017061248196783112,-0.009196219509093194,0.005559979973155995,-0.003074683376157044,0.003998767013660989,0.0041431302736248489,-0.0007178105184425659,0.0008917978084142311,0.006758778224121213,-0.00153680826143213,0.008115884977446813,-0.001808254687026261,0.006310126779745391,0.0016255347205444866,0.005029618011335665,-0.005314050407760801,0.00847221851277734],"DNAVersion":107,"PerformanceSolvers":[],"PerformanceCoefficient":0.0,"NetworkTrainingRate":0.05,"InputLayerNeurons":0,"OutputLayerNeurons":0}