{"HasData":true,"NewTraining":false,"autoSaveIncrement":1,"NeuralNetworkName":"ImaRecog","StartTrainingRate":0.05,"InstanceWeights":[-0.0760848905694928,0.09432141608221195,0.0535542755092558,0.18869220625235803,-0.027367318622690024,0.07978932604014982,-0.1772937254694956,0.05274210153796273,0.17810255620745928,0.1419655745592955,-0.17819614127811804,-0.004994737378000372,0.10381489793306012,0.07337944812103899,0.007215722257317414,-0.02084322537018259,0.08123545654481125,-0.12516800682812044,-0.02083932814193766,-0.2911363227114085,-0.043995403363273368,-0.09095265521644333,0.27609038693092149,-0.01826514301030404,-0.2771027083111542,-0.22285287446178954,0.2772472847480282,0.10439562305016563,-0.14939070458436339,-0.07428619329736752,0.08401132662178244,-0.05786956902306867,-0.1626298018246532,0.1919268467706401,0.11721584165516687,0.37893058906772766,-0.07329445194748226,0.16706749282285697,-0.35942682741039158,0.11660364547775172,0.3607213594602804,0.29428627327319309,-0.3609131122940662,0.03265031216997649,0.21934632844525019,0.15519719599912139,0.04628341458288567,-0.06363380569954409,-0.1617840303412383,0.17894557226604486,0.1289127204486758,0.3274525243226129,-0.10083761829674484,0.16296870436653816,-0.31251878104412159,0.12921289984505053,0.31347691436185079,0.2618343031821236,-0.3136247956498732,0.0785911658593331,0.20411864708904174,0.1550150515307713,0.08542756746636475,-0.09493957241483527,0.046094572499002988,0.049412647883087228,-0.14936375546246448,0.3227715258773247,0.28283121681442427,-0.019351297318695304,-0.294972333002701,-0.15786681139120249,0.29699002768755319,0.1975000549378218,-0.2972299081285391,-0.43245522256222237,0.06900283058992063,-0.05110760071925327,-0.37837631861938555,0.3137071802921597,-0.09766396068359693,-0.08967786227883104,0.24720871292736558,0.05377070865368386,0.195221645891541,-0.2579832289251757,0.13244701722035918,-0.03581248417237668,-0.2123418747630136,-0.034603108609337709,0.6126406167388564,-0.4381975930035031,-0.18900163398883045,0.18864327657381123,0.18646997475110434,0.08281973105459042,0.11563315129261218,-0.244772521679891,0.0225839878875384,-0.5674693212736991,0.4198154072084231,0.13769347809110059,-0.043343652631678799,-0.21396499689135649,-0.02351558889513135,0.5706120541762049,-0.42096638220730006,0.015363230814550265,0.4163453844446192,-0.3594613399520806,0.023600166281688336,-0.5710203918584856,0.42115308816176208,0.26364388834691679,-0.3636593813989465,-0.16381234317439284,0.05959817988488817,0.23606530392369497,-0.29346391481511477,0.09544609569889214,0.07890106514251082,-0.23760838354625839,0.2351423891781472,-0.29966670863641689,-0.17146045997760823,-0.2029278285030835,0.22477561188395515,0.18066040905987319,-0.2651157211463481,0.6713105189927774,0.1685114921263463],"DNAVersion":5,"PerformanceSolvers":[],"PerformanceCoefficient":1.0,"NetworkTrainingRate":0.05,"InputLayerNeurons":0,"OutputLayerNeurons":0}