{"HasData":true,"NewTraining":false,"autoSaveIncrement":0,"NeuralNetworkName":"ImaRecog","StartTrainingRate":0.05,"InstanceWeights":[-0.045765919936486289,0.018163095709405203,-0.022327035708388719,0.2063540134835029,0.038603857980834137,0.012166698196263261,-0.14450230359450953,0.005928520539794713,0.15024168039610048,0.10142003519340615,-0.15461034157176499,-0.09087229428100817,0.06946291330141298,-0.0008875072376187783,-0.05077450045948314,0.05380611779515619,0.11517528121549745,-0.0255388557393564,-0.02523736867373803,-0.22387417193598209,0.04601176157780559,-0.030621568778532748,0.19234007170858243,-0.0808103812928236,-0.1911229699738933,-0.1656491498809286,0.19541071213961704,-0.04760337849927742,-0.14073741715877578,-0.04287235471785411,-0.06545099736866955,0.029530062059642666,-0.2263066033541724,0.09418973977829906,0.15629574885340395,0.3331407257482889,-0.2068623105784045,0.11483389901434595,-0.2907368055444725,0.21141983769367307,0.28951472398124236,0.267154426743374,-0.29504909407687748,0.2595783385542907,0.24820306272279075,0.15967789049859927,0.2494601311829823,-0.19793409349199379,-0.26682475011076309,0.11334544960041541,0.21819623479213252,0.30987277954222849,-0.28538039511124516,0.14666277633452505,-0.291944917880695,0.2680668201348016,0.2893889060779547,0.2870823413077667,-0.2895335327353291,0.38050833554904175,0.2804639226769898,0.20776836500280927,0.3468715843864845,-0.2867938571430879,0.11954524466678865,-0.05971913507671092,-0.1769202130829426,0.11184751075540882,0.25248529544492046,-0.08888691296661437,-0.02847842238683279,-0.18130499300343839,0.035853012849507707,-0.03858973980688784,-0.04175995263324382,-0.3868104777744104,-0.09108985576955417,-0.14588667408543466,-0.32591671832855398,0.26888711036298165,-0.29883853174811428,-0.08858347408317458,0.3230990222499969,0.11138201695509612,0.01493379587419414,-0.12198581679200713,0.2457969576643539,-0.07108602263289302,-0.19930081562605238,0.1758446583262493,0.42943910226451295,-0.41893912805167396,-0.3467029922840633,0.11251425050336393,0.2607053127726551,0.1498513977554924,0.0018220269741915973,-0.15387084489937859,-0.23070626417020213,-0.2977410914443209,0.38564899504643115,0.3216464487096471,0.0018947927912324873,-0.2954513867515818,0.22216503398264024,0.30382110037774576,-0.3841146708163667,0.272879762944633,0.2080120562013303,-0.3705022275334201,-0.2198497383483323,-0.31484342389612698,0.3865385787056421,0.4780595050318432,-0.2734168784423784,-0.2743517263158531,0.29819816483738417,0.13897711800082206,-0.353347617858889,0.23175150899573283,-0.02305161997849683,-0.21332417738260163,0.4452095692521587,-0.15092186908040293,-0.319873136473297,-0.3375324719953556,0.16113385091158317,0.23338435486185234,-0.24083249419500359,0.5564030388360426,0.1605163785022551],"DNAVersion":14,"PerformanceSolvers":[],"PerformanceCoefficient":0.23224862619411,"DataPrediction_Accuracy":0.8222222222222222,"NetworkTrainingRate":0.05,"InputLayerNeurons":0,"OutputLayerNeurons":0}