{"HasData":true,"NewTraining":false,"autoSaveIncrement":0,"NeuralNetworkName":"ImaRecog","StartTrainingRate":0.05,"InstanceWeights":[-0.03026150414594336,0.0007286105975577536,-0.04664132753876005,0.1984061775463827,0.06602150749418259,-0.00781290847959282,-0.12656744814471919,-0.012397255259231339,0.13718916996755224,0.08522007074963195,-0.1409954232689361,-0.13970768422893624,0.05692041346969579,-0.0222542291541293,-0.07634056652632285,0.08318532312218353,0.1837241823205183,-0.010778715346129103,0.001422870669823832,-0.35613639194149557,0.052600987765007798,-0.017612557035656653,0.298746325528935,-0.1304959391042045,-0.2931239014919577,-0.2552933784657494,0.3028378555966371,-0.04211955133048184,-0.22203694943873854,-0.039855356332151137,-0.11007412800546407,0.0023268428021344805,-0.32464623357034735,0.1073061144318422,0.21048466541634229,0.4177332970756811,-0.29888203924882258,0.13559749167261465,-0.38121212847913446,0.3072283759068037,0.37460448524532849,0.37219056531541308,-0.38355190928382568,0.3863321637882688,0.35903327954922018,0.21231587965705812,0.3735983467820664,-0.2826906118665996,-0.40417305791816035,0.14184918357738028,0.3270794757354218,0.39701180311054698,-0.4412236933928944,0.19680719682710944,-0.40357381972944175,0.41037128643951506,0.3955135145229716,0.4243646429967065,-0.39043786968919028,0.6162230537376207,0.42667039527990288,0.3002200516898355,0.5524823823382311,-0.44874268026273186,0.12113749261508458,-0.06949942887569334,-0.24186442751038826,0.21400066834154164,0.3338419429193671,-0.11188131788447338,-0.07193774003813106,-0.2088551103673237,0.08528813570403894,-0.022506630233616169,-0.092837135757835,-0.5456653096640013,-0.0882721240690159,-0.18374604414427857,-0.42632586503810607,0.37755311698440666,-0.5091148897310043,-0.02883693778228616,0.41449352497734939,0.1578187060598625,-0.062028585236591899,-0.0894034239119428,0.3662705016123214,-0.23247961633308829,-0.15686317892479008,0.37025145275787299,0.4637205366563037,-0.563628529852666,-0.5395393726600606,0.27194129199721919,0.2765583027263043,0.21580515849570554,-0.09955945149416502,-0.11976115505872889,-0.44485547243438808,-0.28007678934668575,0.5130157465950043,0.5271024724859232,-0.08598057971006699,-0.3603223466663139,0.4277828819486828,0.28681902218426749,-0.5096341456971382,0.5016085585824446,0.16989690587607243,-0.49809071665770407,-0.4272437342887861,-0.30255465516830218,0.5118700746129472,0.745247642771347,-0.5070552494405393,-0.30460569602793027,0.5270569520713534,0.09059116667061887,-0.4739678204644962,0.34926097322316948,-0.14981859712899305,-0.19636613456256625,0.7234636081397782,-0.2781166760167259,-0.42897640093725306,-0.504812549106293,0.37303118081251515,0.20701194453571315,-0.5989072303302699,1.420846297713671,0.08749488309843387],"DNAVersion":6,"PerformanceSolvers":[],"PerformanceCoefficient":1.0,"NetworkTrainingRate":0.05,"InputLayerNeurons":0,"OutputLayerNeurons":0}