{"HasData":true,"NewTraining":false,"autoSaveIncrement":1,"NeuralNetworkName":"ImaRecog","StartTrainingRate":0.05,"InstanceWeights":[0.004524865399359196,0.006346507191819376,0.005360453787893269,0.0011632238287307435,-0.0058793369195793468,0.001177695892368302,0.008120541320238517,-0.001156442533785683,0.009550995062827596,-0.004525910846202593,-0.004161874304600933,-0.000653705993040328,0.002653181456333576,-0.0006097624314063063,0.009643025062812038,-0.009392660185411881,0.007247403076499423,0.009906941624314962,0.003543622984338378,-0.0037081641395148659,0.006338158173644056,0.006961035661846882,0.009838043507113143,-0.009347496032410998,0.003998839675448293,0.0005256828528482863,0.00868037317818048,0.0037524056498670964,0.0009363086851948439,-0.00837780100217918,-0.006257508516431557,-0.0009334562956045643,-0.004056562685434037,0.009770875582364796,0.00285394945780465,0.005259271764782849,-0.009392114141672903,-0.002379909862009767,-0.0031371631068816245,0.009149103313288233,0.00010258425497570133,0.00431945024725024,-0.007620845417315534,-0.004530970330597354,0.008141959001376277,0.005895311877082714,-0.0032567932145934526,-0.000855824244607159,-0.007063499194133794,-0.005573705209220623,-0.0017985344081178929,0.004374536655086343,0.002396605672499448,-0.00024063895002037275,-0.006101731265011118,0.0075638297375123148,0.0065084636847062339,0.004707949820304267,0.007164384153282447,0.0035949802275723685,0.0024973227141878216,-0.005631864329628583,0.007907248781019472,0.007928796065006775,-0.008268402329771037,0.006771581991003634,-0.006597143307606291,0.002882305873968781,0.0065362881107890479,-0.005616246701970811,0.009999453956261022,-0.0003726870614908107,0.0030441047311965867,0.004394519671050144,0.006189251605509432,-0.007981292073606185,0.004581881079162416,0.004369013837710496,-0.007489455033787272,0.008103527798365583,-0.006217523932558262,-0.0004638025772123605,0.0008159048440008927,-0.003489986105584533,0.0034207334059387138,-0.0006320451715179001,0.006669938031895988,0.006184076264586337,0.005872606847375913,0.005290119720292334,0.008750808080076616,-0.004100063961977168,0.000455705984707783,0.0032678566655460069,-0.0033482194008995875,-0.004265551415395715,0.00641220146623077,-0.00554964148232231,-0.006262568000826318,-0.008629622989627358,0.0024924551846890049,0.0038609009114377679,0.002607887644603797,0.008552747507837017,-0.005573159165481645,0.008574152653372918,-0.008669568076110244,0.008002086001449307,0.003570109444470195,-0.008120439191404936,-0.0070180513416501,-0.007860550153004263,0.002197404854091539,0.009060856354916868,-0.00018749583986936783,-0.007038874708599818,0.003552230826370526,0.0013972348866040045,-0.005491937340931938,0.002363642841746864,-0.009898356040892358,-0.0027812195721926265,0.007009699026592866,-0.008753831609503289,-0.004367054782047428,0.004099517918238191,0.009171606953801403,0.009776248065650579,-0.002257260928050271,0.0004548030209051458,-0.004393493539836954],"DNAVersion":572,"PerformanceSolvers":[],"PerformanceCoefficient":1.0,"NetworkTrainingRate":0.05,"InputLayerNeurons":0,"OutputLayerNeurons":0}