{"HasData":true,"NewTraining":false,"autoSaveIncrement":0,"NeuralNetworkName":"JumpV1","StartTrainingRate":0.5,"InstanceWeights":[38.13415576787407,53.48638522353578,45.176234361128397,9.803288001451499,-49.54921972591789,9.925254044710027,68.43739211983821,-9.746137360511007,80.4928105741319,-38.14296646813898,-35.074979918837119,-5.509230433356753,22.360186658941918,-5.138887787455222,81.26841074009957,-79.15841355986619,61.07885504637089,83.49261729163563,29.86455042099502,-31.25125201053061,53.416022299668018,58.66543969952976,82.9119654265305,-78.77778415022621,33.70097486124033,4.430291296146834,73.1554805910665,31.624105675396974,7.890917871963683,-70.60549656451575,-52.736332116794638,-7.866878821219376,-34.187446404570348,82.34589508434519,24.052196821804896,44.323503795762437,-79.15381167336577,-20.0571388055505,-26.439033214997705,77.10579212692518,0.8645481386316423,36.402980867353658,-64.2261107408756,-38.18560622622824,68.61789366333383,49.683851690418709,-27.447238489492006,-7.212620083327664,-59.52897042495402,-46.97345089706556,-15.157487620021155,36.86723194925584,20.19784589442313,-2.028030094595542,-51.42348997753483,63.745600355940087,54.85130408460059,39.67713422375899,60.379197427807039,30.297373265531165,21.046657741239213,-47.46359784315444,66.63982905512089,66.82142285105215,-69.68351863894002,57.068783189977839,-55.598668316382248,24.2911758621924,55.08579967833557,-47.33197734325865,84.27228240109516,-3.1408904356745208,25.654766219037737,37.03564258166564,52.161084138433547,-67.26384285528131,38.61466615280947,36.820687365163319,-63.11879352596406,68.29400745841711,-52.399354501956967,-3.9087836132015014,6.876191812755218,-29.41251551856641,28.82887534310104,-5.326679778454781,56.21215957195334,52.11746797762102,49.49250077428422,44.58348075346058,73.74908399875766,-34.55406160952911,3.8405480542382786,27.54047780706694,-28.21774990190972,-35.948738305809538,54.04003609982829,-46.77064930433172,-52.77897187488403,-72.72777381423974,21.005635719205388,32.538469935911347,21.97846452593254,72.07989120590044,-46.96884901056497,72.26028710324916,-73.06441855737751,67.43908760035332,30.087770054566698,-68.43653140984908,-59.14595008446514,-66.24626756815822,18.519043462127365,76.36207425698579,-1.5801565201076294,-59.321442933155029,29.937094631685878,11.775460286091786,-46.28433677964463,19.920045427110403,-83.42026066957102,-23.439252006407416,59.07555937550382,-73.77456536272058,-36.80417705442028,34.54945972302851,77.2954457976827,82.39117269956646,-19.023491804020407,3.8329381566471909,-37.026994667513779,1.1084311695456384,5.322774952451388,-74.66790399931974,-36.988512548383948,-0.6609401502726175,58.389636148461679,19.073184894450575,-66.72055079559725,40.84547252744764,-16.5391455086728,73.04995625919574,-62.2471863645415,33.65214789653752,19.452546550329996,55.71846727931998,31.203779215939325,11.755358084848487,-55.15624996042119,-53.17319125635027,18.391051350100264,-42.012308473859167,83.79057176290849,11.577866985601359,-73.5843974322649,-39.83199656198294,57.739794848003288,11.476145601057379,24.607183972724834,2.7585755540021754,79.24172559316216,-71.1787069693486,2.185695116777892,-58.022052389676328,52.867347545260397,24.02250303358494,12.707841766986027,8.910063173851443,29.073702517773645,83.35766791776084,-33.4341947940212,-73.41297455036049,-5.780873205906801,-2.852925019496595,-47.81769335181242,-72.19333264117087,-45.468949929461697,-58.85347280862949,-8.95022762545487,-8.245760046144595,-80.93120378050667,-18.73679657476133,53.270538372391907,-50.12718483526569,69.71877109414271,-79.29157048125026,1.5947436942327969,78.021792254446,83.19337772054071,-81.43340027399681,25.876149289319988,-37.363393740191337,78.74288520932139,14.797757937996357,45.88063122188144,-29.637322826919996,-13.412623145177959,80.05175031273069,65.06168463887292,79.70692780434098,-41.26625877526168,-61.983168245508107,66.95853985467052,-54.237033590586218,64.53788782526634,7.527141612865012,48.045449019643289,2.3666124948094504,-24.881323950181846,82.88581949650205,-78.63993092011694,32.316383369036817,-63.85051106108344,-51.42394026872629,-0.5871049530871365,13.701637880327504,-40.172361054144698,-31.964004335552116,-43.46393919622302,47.88203373891517,-61.84912494824348,18.962933800135976,9.993569740906386,26.230218504174645,-26.795365659154986,-80.34768534142546,-67.87897547208611,63.69825314369255,35.54332804621774,66.09651376270317,25.496174791602788,-41.24381595459639,-39.63827315990656,-4.380271142199869,-51.256385558478637,65.32884875259721,-1.418452141836098,23.230687675382386,-30.388188372936545,-22.08525480631812,-43.06013521329789,83.50501548701901,18.62623191703196,-83.96932606355692,81.48341493371618,77.83665020787896,-57.789766966703528,45.88994119045215,-68.89202139651219,-52.09789094604196,-73.74184606037106,-65.72550309722162,39.23880522135784,-67.09723338763796,57.27916846498849,24.047691712198096,12.30014630118145,-43.54856293709991,56.835216356164767,60.608688879096117,-8.870767202644544,68.6240801635464,51.100168736187558,-6.70095342528942,-26.88723958269676,46.880769322075028,-12.322227758652368,24.806644368712108,84.10932957734792,18.36093058191134,-69.15679426543214,20.87383555806854,82.70106832498017,62.89819989769082,6.665284664617073,-61.07725614766699,-83.9401824044919,9.686011516867313,29.02368785805426,-20.355131579438138,61.71896591287375,-29.49203237494258,48.31339025260909,3.364334704663762,55.56147553547861,6.944793601228573,3.7942631116415819,-56.81792405986449,22.617444680407265,8.972807016919099,-31.248181836179915,-42.14677349233206,50.672355606813528,-6.719992964437027,71.06239668392223,-27.40733108924858,-51.87203753676422,-58.949698945274409,27.194797806735815,-49.674238675954779,5.881993678935555,1.680472952180041,46.057495900699787,-2.97606769082781,-67.21798096820534,-10.338797330843894,-64.14968713460591,60.61748961126262,10.51436623534081,34.07954032505971,23.71098982909395,-81.66274950328152,11.704633492441632,-7.086536351992974,83.16660725381856,-63.655619115297927,-63.96619437665831,-36.541050256072,22.014455326827784,50.44485110367044,-41.19037807716223,-39.78118798638371,-82.08768459929097,-9.140361727166786,-34.66777186950441,57.26686351449552,54.478364238850819,5.144177001821352,76.11268750136434,-50.204268533730019,75.07166567669282,59.28640082837842,66.76809799772716,-5.578957753586692,58.03975902922206,-24.238391326901938,8.727356011953442,-32.98742634415893,-13.694568614726585,-18.376611421273326,-13.182403551761285,27.453657787974604,16.944593992390446,72.81478864294333,69.53870147542071,-33.86231662049403,30.425477302822097,-26.51799232878921,-5.609715930659543,50.44113151162422,-47.71802100018588,68.94589700690374,3.3127300154935925,61.02683099066114,75.7930236888029,-38.61370262227654,-0.5087267361247523,-29.079026659729153,-52.585180108919079,-40.20796019510521,19.45972271790101,14.983020151168537,68.78168639749413,-23.55824951852476,43.28475893596255,48.70147328831138,-64.15396321341319,-66.99329304156734,19.150588906380734,23.128114293124573,11.893909160344539,53.29811625509621,61.43040264625024,-43.88581753949465,-20.649629632164005,15.632848422458995,27.55110230882157,-70.62558895463848,5.597821085008132,83.47142903858539,-57.43549807592217,-3.280527719955685,-73.522991355115,-58.60532829785544,81.79063675405165,-78.1511156178063,-28.303213474710885,-78.53561728052959,2.9049028452059026,12.376577363902772,60.54721969681851,-46.47050161591302,-64.6791305228356,-57.763492707217157,46.44055014842142,56.11146058466591,42.948855678076089,-43.77404077668048,-54.74685458061476,-63.439656100486129,-53.98523769467658,13.141886056793787,38.60830305242574,55.53905406381154,-45.72966193631606,-16.739252967686665,-76.7613899269424,-37.07833673260751,-2.6004236647705905,-24.116709021251557,18.11207935649765,-14.160022069082036,49.600036542858557,-51.77972485990872,-67.04934640677871,-61.53663384973885,4.229127218687612,43.1101304077539,-21.072001984980618,37.158990266173187,-7.27219752457364,-69.89523022047922,14.378688400822386,-77.50287274511779,46.85777888390182,-25.912473511338093,33.70036249033625,34.91701106587161,-6.04948340032031,7.51579407076577,56.96087703197844,-12.951741202093674,68.39814991357209,-15.239407102101485,53.17978244566611,13.699500154879667,42.38805351521431,-44.78516113133076,71.40121792605636,14.253005434142505,82.88715859673188,-75.50176102969924,8.341690671836755,-57.25527242113844,78.54138229500102,-9.569642521695249,-11.793653871175757,71.37747862466873,-74.99103058803418,23.700299710564694,-32.39455092161745,84.11560955791792,61.57484549589595,-7.628960559192335,28.109425711683238,-68.36689176179307,83.04008194356713,31.834291509947783,-75.59560910768589,64.45969586261784,33.83726882957289,-27.40151670521824,53.24803095530856,74.16066655205948,3.1992982343656819,-53.213063729004499,1.7187123049415703,-19.437440642635829,-20.68262301797911,3.528037725937325,-19.647803077357595,-35.26259593757731,55.98579676929353,48.951876868472627,38.54871595703708,-16.047320782470299,6.039963395279618,-12.642923465635067,-71.76737075252291,-27.849462881998769,70.15806464743346,46.599768153263138,25.63115736631003,54.527101176710818,-44.36653929521267,57.12215176165627,9.750297589606129,-8.249773814831248,40.92805147381095,37.26978991986346,14.936302498908369,-73.72312228232913,-53.46643631124067,-77.33536222415721,64.69262089216525,26.01179101435437,-44.472907697411908,18.45790840737312,23.822313632091779,47.47756173640964,72.9885294609589,-76.6330975161357,7.7832173550521779,5.757815973624315,-40.92878149967345,-81.40883927163566,-56.147071498971268,-71.65391566017245,38.099207771366248,-40.12013779344237,9.870029130523183,11.406121121606363,19.324777974874878,36.5307380619087,78.57851550278014,71.51438496390566,31.244210216067356,82.9978140661936,34.250321559676219,30.354030760305205,21.31352296898522,-74.3083981678229,23.911392171148873,26.324471349753293,72.86861951462493,-30.20156508262423,-66.0730439139324,49.04427470585498,68.53614026390301,-71.73995934491308,-55.85129737265406,71.85893927550221,47.81164718986909,-34.96804820133659,-16.561108055361918,62.5142778759732,-45.460333489384847,-64.40354289491012,11.17899838878849,-47.234584311172508,28.992338973031555,-2.8726710378172104,37.927902701398149,-3.2286950203424777,-56.877123498255588,-80.74670291029369,-8.771015969608334,-5.720290085553653,-71.63699343934195,77.45512021585546,79.04446508588269,-43.1938374760097,68.48447113529264,77.74516715938229,-58.112845520171379,63.020043341186148,-16.267605399688866,65.73563029289461,17.1660807465953,73.54966787054654,68.94108892989215,-20.91446191723044,-55.9131716364797,25.562282828683619,-68.545724708384,22.28797414261666,47.87135821933314,-29.984058111384124,-31.185038170325158,-68.2126466607888,32.69783416569469,11.370868823381747,-12.45806861019069,-2.791978416747051,-82.91519250032239,-60.09069028079337,-27.95941658162535,-57.13679709610442,-1.075289439586954,69.33843813732276,62.84633517457984,23.924130459217066,36.40438385760106,75.35790433564334,-66.50754014319986,71.61942439095138,-80.90241614738622,54.3433643180824,-61.132086968761047,4.695732891047651,-5.495001011933567,-26.919079494683765,2.707260646090357,21.906214805837839,-31.898788953468967,-34.37008339733371,-31.2363836889332,-71.91126441488108,-18.959854599554306,5.111786646723567,-44.34117684203109,-63.06384214581998,-58.81213620282432,80.85253750904285,-39.51959823743496,-16.603288025094878,53.54111542177677,-13.000434735556063,76.38347537210889,-82.2990395269737,6.702575635215792,-43.40769259118023,-17.465964555114146,32.10452689686824,-73.57355159162936,-39.259925816920588,26.958038512764334,-46.99419168452719,7.792938684287807,-55.88826481173953,18.913506002407077,77.80487818884665,-53.12885543021881,48.39611322622289,21.55923863874044,-24.659970627217335,-75.61327611030447,49.91260087156731,-55.17007375087374,35.73177518460717,55.4225776957356,-40.3250364543401,46.09994179104558,78.08980820128531,29.40273069175815,41.633293032804107,-1.5406176255544125,39.828730636153839,30.600618285482459,34.37263216949056,-66.198575318421,16.374902875765625,62.23677323356922,-63.10993172938295,82.2700415434275,-46.36419270834915,74.8237693480261,54.8796180368177,11.202882109871306,-76.91574742414426,22.948762377497695,-68.51907629200184,4.572681188426739,-47.34847407541045,70.47516493191216,-37.86917074328197,74.34189757199469,-22.931365141451445,-24.983585417293257,69.41725667737826,-25.266896202386229,-80.64836973738638,-42.107245272277868,-43.62518410009407,-53.44473293511367,-37.24927219804001,-5.23075009463017,-11.278888468803596,-81.57508808248564,-30.929960336837536,46.557576096229627,71.40619216420619,6.682074317586064,57.697190802393198,-73.96657378091406,-81.73828116095433,-68.7087793323185,-74.29580798843156,50.40295597039103,-16.353452940506214,-15.20685568764778,-46.21600985952639,-45.56716552589988,-62.53121061432539,-71.4938714804862,39.66476970014158,39.3791666448291,9.171531578860473,-76.66224101822276,-17.0049828525555,51.56827974840524,-62.886136771698478,-19.464568234148648,45.460245895700158,-24.637355915718876,-69.82708986863078,-25.794736139552133,21.585073046067597,74.61168549332627,35.2424294538718,43.1434416738769,1.8257735292340232,52.17782183170773,-42.144041840886959,-39.19643923277806,35.81945450088727,9.075733678007941,31.152374673629468,-57.65878458209218,67.93656180527072,-53.43727569855935,64.36082127283049,10.942563175753122,75.64675181080882,0.3472280774301866,-63.32777063045558,49.195680076109187,-63.85291894554839,-56.40819690720383,-8.83261834765956,7.648445444726728,69.87460261410503,-18.89353173817657,19.70677905766557,1.7786442023529903,25.16682858033249,6.593876110759148,45.49871270948174,-1.9423375694838679,80.13740037531203,28.33333926619364,-6.016968090790411,-64.63060919416219,-69.11635777107637,24.7799896732128,67.24425507071399,-14.116947403638334,80.85376060258267,60.94211290604838,-23.036441693777737,-53.68784826546202,-76.05009231639647,-17.44656812664321,-60.321918535897669,-47.844591441592118,71.48434276317052,10.448184340143975,-10.834435757361553,-39.16386646932599,-45.58646957285914,-34.74588565714415,-46.218701481599449,-6.283614334324427,-0.8325804466098159,-56.68290027845067,57.54572334736747,-63.557579020185098,-51.80584151355368,40.35419824435587,19.91361647448514,-55.05130589746775,47.85390525612178,-51.18217204448241,-53.519300669808448,-44.673661748518409,36.856576679826947,44.71454617939689,-4.217963340766225,-33.41012214999984,17.379857294311969,35.06606106077845,52.61880376112216,-40.518147564001157,50.90512907417001,-39.42165436979327,-0.5783465264727854,3.0442864531525339,-42.848497489874649,-16.725513788338188,14.571185726778259,-69.55824004740724,-66.84857241947509,0.3856948912119733,-40.63275228422056,30.606401744860564,-9.724843539802752,-84.01023804406187,20.478855540043417,71.84342679497004,51.51115061344108,46.52494980330331,-46.58799017768038,-43.77732192936882,-43.24838785603233,-52.262020083905699,-17.264869233988187,59.40896401568186,-48.20415174443059,68.62862750021641,-0.42428383382311476,-57.50708770382213,-69.61073660668559,-61.70119789495744,27.73316052395789,3.624353653958176,-3.087805130670598,78.57633036999774,27.08814087910153,-45.68781036441232,28.1723305356179,-29.775447393380835,63.567802757285068,49.1965565623802,-58.49387177001831,5.1949722342966189,-72.47961776558837,-36.8086739226859,73.72746452733374,0.15118187292676656,49.328066078880109,36.58993043629282,-60.04119364824206,8.215494151859542,-0.6443884758451879,55.13179177860428],"DNAVersion":9,"PerformanceSolvers":[{"ParameterName":"Timer","EvaluationParameter":667.0278930664063,"EvaluationParameterWeight":1.0,"ParameterType":1,"ExpectedValue":0.0}],"PerformanceCoefficient":588.376220703125,"DataPrediction_Accuracy":0.0,"NetworkTrainingRate":0.498416930437088,"InputLayerNeurons":0,"OutputLayerNeurons":0}