{"HasData":true,"NewTraining":false,"autoSaveIncrement":1,"NeuralNetworkName":"JumpV1","StartTrainingRate":0.5,"InstanceWeights":[19.171903380633095,26.89021925454077,22.712300373043719,4.928591877591353,-24.910813784721005,4.9899101669302869,34.4068209436903,-4.899859457948409,40.467668841456887,-19.176332950156689,-17.63390620667935,-2.769759325809972,11.241558376370329,-2.583569982372773,40.857600941552259,-39.796802262303227,30.70732481077283,41.97581825214895,15.014368710889727,-15.711531355689747,26.85484437470398,29.49398299382996,41.683896188282,-39.605441260112268,16.94312672885125,2.227323903400564,36.77883454908592,15.898983111051639,3.9671499730235846,-35.49683298395942,-26.513130909375556,-3.9550643676403807,-17.187699743209334,41.3993049684558,12.092214558689337,22.283591052495824,-39.79448866910627,-10.0837036910598,-13.292193836956786,38.76484917465896,0.4346505920478678,18.301557171062144,-32.28960402671985,-19.19777003997284,34.49756788910621,24.97849985153921,-13.79906789044591,-3.626136532312184,-29.92812208254662,-23.61584893960436,-7.620409637834418,18.53495887374471,10.154444019736724,-1.0195898202985037,-25.85310101908177,32.04802797795535,27.576430657411,19.947634042003736,30.355572739892346,15.231969903030626,10.581183208996622,-23.862269758513486,33.50309816018025,33.59439423426415,-35.03330963193322,28.691265752113304,-27.95216717375288,12.212360999066722,27.694323050090128,-23.7960977020957,42.36779399795524,-1.5790790893196026,12.89790449795349,18.619627127382935,26.22392564341464,-33.81682038751047,19.413479429397598,18.511558637102647,-31.732901558066265,34.334734468464208,-26.34371579730577,-1.9651365097541387,3.456997602446003,-14.787108678524295,14.493684245027213,-2.6779821919681638,28.260599203775145,26.20199766824132,24.88229839638552,22.41429417188619,37.07726798623704,-17.372015119957874,1.9308311602000732,13.845943851164848,-14.18644162548983,-18.073187240590788,27.168566602034209,-23.513890669831779,-26.53456799919183,-36.563805454159147,10.560559434139833,16.358678701639563,11.049648008749948,36.23808321070132,-23.61353534640728,36.32877704263738,-36.73305321536091,33.90492448350601,15.126592127439114,-34.40638822272363,-29.735559042594493,-33.305235570843787,9.310428008917866,38.390945862580299,-0.7944218908158607,-29.823787872401409,15.050840230192654,5.920099247552294,-23.269397601915249,10.014780151187154,-41.93944104281402,-11.784057250841986,29.700170193833445,-37.09007871294832,-18.503258097180554,17.369701526760836,38.86019734163252,41.42206823794083,-9.56403883827941,1.9270052928532109,-18.615279398392347,0.5572625080771744,2.6760190451422427,-37.53920369505937,-18.59593255682777,-0.33228690779311106,29.35532307264809,9.589021982896864,-33.543680923269139,20.535014793541995,-8.315036567759432,36.72578231142127,-31.294702050349874,16.91857902795687,9.779745623328499,28.012395965928709,15.687664462276466,5.909992888771989,-27.72974184917151,-26.732761344240676,9.246080120368749,-21.1216402366703,42.12561452323565,5.820759440773259,-36.99447200249734,-20.025490906170395,29.02861609895837,5.769619130546065,12.371233716729666,1.3868707179840208,39.838687292157057,-35.785013862149629,1.098855730633195,-29.170520756566387,26.57899876682093,12.077286040480529,6.388852975166101,4.479524112825008,14.616770828255899,41.90797260812952,-16.80900335389736,-36.90828934385644,-2.906327420330731,-1.434304804305073,-24.040290872205614,-36.29511576308313,-22.85946279164429,-29.58851642527555,-4.499716745124625,-4.145546471956995,-40.68807052666782,-9.419903138291698,26.781702495960219,-25.201385085190997,35.051032763636609,-39.863746752874209,0.8017555759936881,39.22536719552124,41.825375898590149,-40.940549241809538,13.009204584400746,-18.784403649050135,39.587895857319448,7.439555949899019,23.066435092537199,-14.900130296762045,-6.743181010364079,40.24592629736864,32.70968785228808,40.07256717400013,-20.746564600389627,-31.16196724170072,33.663329651668338,-27.267606866148755,32.446349600808947,3.7842618730729407,24.15479477481255,1.1898117363885526,-12.50905727817332,41.67075135173806,-39.536135705678379,16.247024933081705,-32.100771715481489,-25.85332740246559,-0.29516634650032699,6.888482839296522,-20.196608766957558,-16.069866775328003,-21.85144592905078,24.07263792854299,-31.09457712666527,9.533593370797128,5.024255805387053,13.187212478913232,-13.471339567423494,-40.39470729599942,-34.12607761002367,32.02422422092248,17.86936769430994,33.229947015708649,12.818172838433137,-20.73528149786068,-19.928096686411484,-2.2021763279725699,-25.76908946271952,32.84400430618507,-0.7131251988078231,11.679201770956736,-15.27762709484771,-11.103336700588482,-21.648433936534646,41.98205143075732,9.364316882542289,-42.21548304430013,40.96569405502089,39.13228724247123,-29.053739524720809,23.071115668632787,-34.6353852947529,-26.19215533791155,-37.07362912095668,-33.043421826188239,19.727264635267159,-33.73305766740711,28.797036709513269,12.089949619965426,6.183884544064437,-21.893990418397068,28.57384029242693,30.470949305656153,-4.459768108055632,34.50067814504229,25.69055163323076,-3.3688967027296856,-13.51752907784726,23.569253383334588,-6.194985971659,12.471512203643242,42.28586965140624,9.2309369384668,-34.76849955304784,10.494297053237889,41.5778679106718,31.62199836268989,3.3509642739254357,-30.706520966270476,-42.20083110289737,4.86963125853493,14.591626015044533,-10.233519218742585,31.029139819873554,-14.827085687504179,24.28950192452306,1.691415441069311,27.933468545512996,3.491487073469207,1.9075614580243197,-28.565146610156537,11.370894553666313,4.511068508467195,-15.70998782903153,-21.189242371562913,25.475469069682036,-3.378468809351676,35.726538998619329,-13.779004490424809,-26.078607793625705,-29.636894005880145,13.672153624699405,-24.97366691946579,2.957165622978039,0.8448558627880989,23.155353608378744,-1.4962146420674634,-33.79376337601589,-5.19781858304232,-32.25118214570801,30.47537386372948,5.2860856498196269,17.13345008463156,11.920673131710599,-41.05585430562262,5.884491157710597,-3.5627480799826767,41.8119170769348,-32.002790011703577,-32.158931370632938,-18.37097139899074,11.067742342909459,25.36109143983572,-20.708415665841959,-19.99994695265466,-41.26948994117524,-4.5953064482131948,-17.42918282365379,28.790850409667269,27.3889355747081,2.586229128871362,38.265566955222769,-25.240138826802008,37.7421944185074,29.806170494135068,33.56758522498776,-2.8048146566418858,29.179422749431578,-12.185823634066715,4.387668295269229,-16.58439102456163,-6.884928774066962,-9.238820462596838,-6.627438371975053,13.802295185446998,8.518875331176025,36.607552060186979,34.96050296790875,-17.0242411145611,15.296374061878696,-13.331890441487552,-2.820278295134228,25.359221419170749,-23.990180710943979,34.66247119651721,1.6654712423624965,30.68116977601587,38.10485633752836,-19.412995015519518,-0.2557617871888269,-14.619447534560214,-26.43713940956586,-20.214506194530967,9.7833534334018,7.532696316572874,34.57991449965897,-11.84388311453059,21.76136325727634,24.48461022872773,-32.25333193945821,-33.68080177679971,9.62793676173797,11.627633119849249,5.979649284179365,26.795567245080883,30.884064966228448,-22.063544785645868,-10.381577779341468,7.859396739863245,13.851285307321576,-35.50693441021007,2.8142981750302216,41.965165882059519,-28.875631243363686,-1.6492815749565815,-36.96360016714655,-29.463762055100209,41.12014947529424,-39.29038436916211,-14.229408339379612,-39.48369214218038,1.460436596981952,6.222310173798885,30.440045744274387,-23.362991761322744,-32.517359206147997,-29.040530170688215,23.347933695153566,28.209972902604336,21.592488276940168,-22.007349145445546,-27.523918788241568,-31.894214851971147,-27.141016766255086,6.607068247526231,19.41028038792673,27.922196176168677,-22.99053545616082,-8.415640364872692,-38.59170136086339,-18.641091563143843,-1.3073600357948366,-12.124647993487074,9.105827268311123,-7.118934968130988,24.936361881561696,-26.032197700473078,-33.708982542319599,-30.937472582793768,2.126188892567285,21.673568963607005,-10.59392499867263,18.68164003528622,-3.656089023044796,-35.13974738842998,7.228869217370525,-38.964481003213169,23.55769496672713,-13.02746654565008,16.942818860076689,17.554487545764485,-3.0413708896472277,3.778556909206471,28.63701605407519,-6.511473138385082,34.38709196918365,-7.661594564150778,26.73607505716231,6.88740810026233,21.3105456282689,-22.515688752163105,35.89688099221277,7.165682249014724,41.671424582853607,-37.95842436738794,4.19377548476664,-28.785023000683148,39.48659049663995,-4.811126878746886,-5.929246051732281,35.88494608547733,-37.70165521952081,11.915298686795154,-16.28632358111522,42.289026904485329,30.956683444379278,-3.8354512323756086,14.131981762225817,-34.37137696897717,41.74830662130785,16.004653799987648,-38.00560638171054,32.407038680641438,17.011648366202825,-13.77608131547567,26.770386917655608,37.28419064615091,1.608443543589911,-26.752807184455926,0.8640806538374789,-9.772151145439667,-10.39816516648322,1.773716948570322,-9.877910619910527,-17.728229946421754,28.146795562546534,24.610500343464787,19.380323043584896,-8.067772246808986,3.0365847179555089,-6.356215373098498,-36.08096390870093,-14.00128574567822,35.27188709723437,23.427980365751546,12.886035174133133,27.413438014709759,-22.305227100830519,28.718096740742007,4.901951008387811,-4.14756438959285,20.57653126477555,18.73734443498729,7.5092090701066349,-37.064215762870897,-26.880189961604779,-38.88026527958094,32.524141473964039,13.077398307177062,-22.358703693891365,9.279692429767952,11.976641046879092,23.869290089943737,36.69490005856793,-38.52720249744482,3.913003660808354,2.8947354230610067,-20.576898284446505,-40.928201225845658,-28.227876249213307,-36.02392449023774,19.154333315191736,-20.170353582117359,4.9621459042194939,5.734414403254202,9.715510117536379,18.365786955119828,39.50525917455926,35.95377559160356,15.70799110154335,41.727056494097947,17.21931015582924,15.260454394000034,10.715349398308416,-37.358462547721817,12.02142518093694,13.23459798968168,36.63461546961589,-15.183802448191754,-33.218147575969187,24.656953250975318,34.45646646065295,-36.0671828547444,-28.07917614406977,36.12699987933971,24.03725117117461,-17.580146407492415,-8.326078213093867,31.428982003526988,-22.85513088620909,-32.37880784008005,5.62022870800411,-23.747133466137055,14.575865398803187,-1.4442320925266639,19.068209886367656,-1.6232227442592185,-28.59490906038442,-40.595312924299758,-4.4096182892551118,-2.875869325572376,-36.015416862988107,38.94047347351272,39.7395147967859,-21.71565259683719,34.43048986509092,39.08629424403129,-29.216166899516819,31.68325501513744,-8.178520087229578,33.04851326227884,8.630227544597338,36.97701175489751,34.66005394127585,-10.514721909036379,-28.110283359738447,12.8514085787839,-34.46128502919978,11.205253616031936,24.067270823231817,-15.074451066123423,-15.678242422938498,-34.29383042011993,16.438798886660359,5.716691350471226,-6.263279805058321,-1.4036639691859008,-41.685518595955269,-30.210526100317119,-14.056564842937254,-28.725459665956039,-0.5406005410861473,34.85982080276336,31.59592343221559,12.027829340755354,18.302262522811156,37.88610057829235,-33.43659006037807,36.0065840439196,-40.673597576903407,27.32106451829558,-30.734087099127707,2.3607743629208319,-2.762605500395608,-13.53353655733569,1.3610722064748125,11.013324544258824,-16.037079816260705,-17.279520283312637,-15.704056323940428,-36.15330628356847,-9.532045306211643,2.5699449147359019,-22.29247615637932,-31.70527481428394,-29.567734493786099,40.64852114828388,-19.868433004299836,-8.347284144837547,26.917734799373365,-6.535953756875367,38.40170524883443,-41.37574839035187,3.3697122669226164,-21.823168012425776,-8.780993787787195,16.140514332986077,-36.989019268470219,-19.737882990631758,13.553123159304598,-23.626276346878645,3.917891048009774,-28.097761481967177,9.508743601783087,39.116313896088417,-26.71047155814784,24.331090805292836,10.83888267142795,-12.397772147156076,-38.01448844715581,25.093503241835039,-27.73669174407737,17.96410927850947,27.863637814775485,-20.273366150520979,23.176693231407837,39.25956213533007,14.78218936799054,20.931090655347274,-0.77454375661077,20.0238489656794,15.384425991440052,17.280801675611668,-33.281258346606,8.23246377112419,31.28946686061331,-31.728446299928039,41.361169687150368,-23.309545079122058,37.61756482160365,27.590665464640887,5.632236221576888,-38.66930441678109,11.53746414853496,-34.44788756821397,2.2989102595739347,-23.80439141539671,35.431308904104998,-19.03868246131559,37.37530433501614,-11.528717707926719,-12.560469114296163,34.899446734008467,-12.702903288833968,-40.5458760336139,-21.16936960395018,-21.93251162082732,-26.869278613975167,-18.72702917370858,-2.6297536526813638,-5.6704483319651068,-41.01178262615665,-15.550002332665305,23.40676835713123,35.89938178477738,3.35940525283356,29.007196963550244,-37.186610726513368,-41.09382776049327,-34.5432605556771,-37.352132849372,25.340028709294648,-8.221679840602214,-7.645229377607556,-23.23504632064452,-22.908840570893994,-31.437494918448424,-35.94346246117761,19.941417791837269,19.79783118105727,4.610977055652314,-38.541854359926997,-8.549235761846031,25.92589391148327,-31.61593363983627,-9.785789511176637,22.85508684858378,-12.386402626706572,-35.10548990414434,-12.968274216077865,10.851870890288446,37.51093990519933,17.718091269706777,21.690316164711473,0.9179055624165887,26.232340499645347,-21.187869036909996,-19.705965182760179,18.008189954909729,4.562814770104615,15.66182088717581,-28.987888280035578,34.155029073446097,-26.86552949679066,32.357329593235899,5.50136117393082,38.03131831745823,0.17456852046381833,-31.837964559341616,24.73307212843234,-32.10198227665395,-28.359156750801867,-4.440588814660318,3.845247236386346,35.12937688281853,-9.49870156319025,9.90756072684157,0.8942113470035722,12.652594405815249,3.3150637048018369,22.87442599540195,-0.9765080008953417,40.28898676878316,14.244554046736772,-3.0250238548133305,-32.49296516341925,-34.748170151564369,12.458111585838469,33.80697265112808,-7.097279229137679,40.649136057168067,30.638577855463948,-11.581544824935192,-26.991504569419449,-38.234097297270768,-8.771242255464337,-30.326775842220948,-24.053813856207574,35.93867190939953,5.252812777385164,-5.447000237482684,-19.689589263032269,-22.918545658517095,-17.46845444142448,-23.236399530576138,-3.1590799500619237,-0.4185788712924653,-28.49726355783172,28.931046873045223,-31.953500465545348,-26.045327818348416,20.288027207238643,10.01154800257679,-27.676981341044358,24.05849636585479,-25.731778703081024,-26.906767457666534,-22.459632564442857,18.52960194917485,22.48018716550296,-2.1205762656570439,-16.79690085953246,8.737703460487989,17.629422260948208,26.454043662416415,-20.370452540965525,25.592495665285523,-19.81919183639298,-0.2907630574950871,1.5305115471306606,-21.54203331212148,-8.408733008103047,7.325647028756207,-34.97032596272213,-33.60804364886764,0.19390766728207399,-20.42806993353043,15.387333619055456,-4.889154013839234,-42.236051495903598,10.295721299025413,36.11920099741969,25.89717230394548,23.390365525521245,-23.422059001941475,-22.008998741222635,-21.743077738265098,-26.274671075043039,-8.679893344122107,29.867788996962429,-24.234582388949979,34.50296431337412,-0.21330821423019653,-28.911622847255573,-34.99671854810995,-31.02020696910243,13.942814867631947,1.8221396716868799,-1.552390512688679,39.50416060154159,13.61853197580471,-22.96949462605168,14.163607090815548,-14.969572265237679,31.958640437728407,24.73351278090682,-29.407727412669748,2.611766374146707,-36.43904528332878,-18.505518892579457,37.06639882160157,0.07600651443021905,24.799629040548508,18.395545853926206,-30.18564172467461,4.130330328075558,-0.3239655723257182,27.717445526118924],"DNAVersion":5,"PerformanceSolvers":[{"ParameterName":"Timer","EvaluationParameter":1.0242196321487427,"EvaluationParameterWeight":1.0,"ParameterType":1,"ExpectedValue":0.0}],"PerformanceCoefficient":0.031241416931152345,"NetworkTrainingRate":0.4978587329387665,"InputLayerNeurons":0,"OutputLayerNeurons":0}