{"HasData":true,"NewTraining":false,"autoSaveIncrement":0,"NeuralNetworkName":"JumpV1","StartTrainingRate":0.5,"InstanceWeights":[38.98056208725982,54.67354181695471,46.178943074075089,10.020876794178335,-50.64898899711754,10.145549933678638,69.95639365549873,-9.962457666688828,82.27938804420336,-38.9895683453453,-35.853486327536689,-5.631510509048747,22.856481985524746,-5.252947926203118,83.07220303684176,-80.91537343272857,62.43453023705239,85.34577694535622,30.527408787542215,-31.944888900027928,54.60161715342854,59.96754795107945,84.75223722687918,-80.52629576637003,34.44898455275277,4.528623787695972,74.77920241794777,32.32601823513775,8.066060670279193,-72.17262024333412,-53.90684091307158,-8.041488060995212,-34.94625357094977,84.17360267538592,24.58604714509543,45.30728573493581,-80.91066940509663,-20.50231685373272,-27.025860544487988,78.81719305880219,0.8837372092486849,37.21096290944101,-65.65164081768005,-39.03315451381054,70.14090151941739,50.78660918420416,-28.0564434302964,-7.372707729033485,-60.850245165134797,-48.016049713849479,-15.493915503352114,37.6855182721537,20.64614700556048,-2.07304321874648,-52.56485959764116,65.16046526871634,56.06875572261135,40.55778770790933,61.71934337396127,30.969838347722399,21.51379864826673,-48.51707571217499,68.11893279556792,68.30455715500129,-71.2301785648096,58.33545286599457,-56.83270807063493,24.830330442674634,56.308456061237389,-48.38253383062959,86.14274710490374,-3.2106040417507959,26.22418635730798,37.857666861276,53.31882502325933,-68.75679688854855,39.471737636223519,37.637940608153737,-64.51974615325124,69.80982650108455,-53.56238391454366,-3.9955409855546155,7.028812267736637,-30.06534074840732,29.468746392553937,-5.444908052689361,57.45981606598024,53.27424078033277,50.591011140491279,45.573033008914929,75.38598114486014,-35.32100598046996,3.925790904841793,28.15175224032569,-28.844056722000528,-36.74663821111216,55.239481246409017,-47.80874684014565,-53.95042708153679,-74.34200247911329,21.47186612230327,33.26067725956491,22.466287342265017,73.67973979803095,-48.01134568621744,73.86413967093478,-74.68611921768998,68.93593127682046,30.75558289053004,-69.95551384162856,-60.45872350004317,-67.71663601807818,18.930082728624833,78.05696800541281,-1.615228870270015,-60.63811149871457,30.60156315262419,12.036822411439303,-47.311640370088408,20.362180620415619,-85.27181433252163,-23.95949771843174,60.38677043471937,-75.4120280802134,-37.621063842953748,35.31630195283793,79.01105618594335,84.21988524951822,-19.445727549259315,3.9180121018355686,-37.848827002421717,1.1330333438331282,5.44091655715472,-76.32519480667435,-37.8094907537547,-0.6756100415724751,59.68562280471655,19.496523602241767,-68.20144619472588,41.75205785415506,-16.906239967535226,74.67133592169569,-63.62879324273357,34.39907384958388,19.88430537642194,56.95516603040244,31.896362423441077,12.016274031964928,-56.38047002194028,-54.35339635582178,18.79924976879952,-42.944792297566149,85.6503446624784,11.83484343058343,-75.21763927912743,-40.71608729180103,59.02135795738142,11.730864289942325,25.1533525084487,2.8198034934804534,81.00053461752718,-72.7585533346723,2.234207693543789,-59.30988034384141,54.04076429332901,24.555694288659767,12.989898557302931,9.107826402763088,29.719007626631439,85.20783230383832,-34.17628317089507,-75.04241158215342,-5.909182526370887,-2.91624709170752,-48.8790305445851,-73.79569912168157,-46.47815560823418,-60.15975454740035,-9.148882324099305,-8.428778740820281,-82.72751160313918,-19.152668978557509,54.45290413892249,-51.23978232597322,71.26621346557207,-81.05148583739138,1.6301398138903416,79.75352425910714,85.03989560498926,-83.24085459448935,26.450483133581995,-38.19269261776186,80.4906222263289,15.126201444329695,46.89897436916374,-30.29513776539881,-13.710322904383894,81.82853823364406,66.50576068879085,81.47606222029815,-42.18218365943648,-63.35891511185804,68.44471753786931,-55.44085119324261,65.97033794760911,7.69421021841699,49.11184136134067,2.419140621650325,-25.433577157367386,84.72551097509022,-80.38538281610286,33.03366137224598,-65.26770451849434,-52.565319883266898,-0.6001360359164143,14.00575246354889,-41.06400634105898,-32.67346111301878,-44.4286426768774,48.9447989981843,-63.22189665776642,19.383825430731635,10.215381930309901,26.81241108858496,-27.39010196227961,-82.13104168566896,-69.38558267594653,65.11206716183524,36.332229671664688,67.56355835334959,26.06207491523841,-42.15924270934228,-40.51806410365538,-4.47749341186146,-52.39404621391964,66.77885464125477,-1.4499353838909173,23.746304199629379,-31.062669141046418,-22.57544788538085,-44.0158760661961,85.35845032477592,19.03965028393864,-85.83306650263642,83.29197935414949,79.56427289387215,-59.072439231803318,46.90849097706011,-70.42111365228982,-53.25422922692099,-75.37858255687587,-67.18431292390102,40.10972977798558,-68.58648944192918,58.550507745528829,24.58144204236776,12.573154090368174,-44.51514468325153,58.09670190157273,61.95392850074199,-9.067658238172449,70.14722533204139,52.234362082521467,-6.84968437818108,-27.48401507268433,47.9213110257754,-12.595725656634443,25.357240025903065,85.97617746318888,18.76846045536479,-70.69176328509609,21.33714059184761,84.53665916056356,64.29425634103932,6.813223931844528,-62.43289585000637,-85.8032759857432,9.900997300410646,29.66788286697161,-20.806923723615726,63.08884867867048,-30.146622520470627,49.38572968158913,3.439007766049736,56.79468977768954,7.098936706603496,3.8784786452082367,-58.079025794262019,23.119449975145888,9.17196287624843,-31.941750581649349,-43.082241833175299,51.797053430592509,-6.869146509252615,72.63966148532743,-28.015650265701507,-53.023362890281628,-60.25811647041612,27.798399702583468,-50.77678280416199,6.012547417970536,1.717771874829341,47.07976464640735,-3.042122975118614,-68.70991707436086,-10.568272016187445,-65.5735209519288,61.962924569481987,10.74773775876196,34.835952462999198,24.23726689557476,-83.4752943425786,11.96442358231283,-7.2438255073474189,85.01253095460754,-65.06848685023785,-65.38595548208397,-37.35209681606414,22.503076976665374,51.56449935324812,-42.10461875196877,-40.66415099490839,-83.90966108177847,-9.343236545595694,-35.43724009552176,58.53792968061517,55.68753829379114,5.258354537280224,77.80204598824764,-51.318576934989987,76.73791817281071,60.60229161720903,68.25004873036315,-5.702785461402364,59.32797999094967,-24.776374328694879,8.92106396565804,-33.71959847582815,-13.99852629212544,-18.784489338659033,-13.474993474003778,28.063005208262145,17.3206875795119,74.43094864468259,71.08214711320949,-34.613907371606867,31.100785717047886,-27.106572194596028,-5.7342263313242809,51.56069720302937,-48.77714591615354,70.47618505831837,3.386257685454342,62.38135148187144,77.47528708034284,-39.470752719657,-0.5200181759278943,-29.72444994053307,-53.75233401213284,-41.100395622439787,19.891640822557315,15.315575643327014,70.30832971377018,-24.081136438783977,44.2454854227242,49.78242641090149,-65.57789194040575,-68.48024208882092,19.575645634238833,23.641454150766547,12.157900316640103,54.48109412628017,62.79388060859727,-44.859884817211419,-21.107958305284055,15.979827172305005,28.162612558115627,-72.19315859392528,5.7220674737306809,85.324118408621,-58.71030716896872,-3.3533406441486934,-75.15487026393122,-59.906102347317339,83.60602011369957,-79.88571801804319,-28.93141720078117,-80.2787538840442,2.9693785907907905,12.65128157807084,61.89109497976904,-47.50193722634483,-66.11471559623124,-59.04558180222143,47.47132097131955,57.35688201520523,43.90212662702786,-44.745627114240047,-55.96198791057743,-64.84773043022791,-55.18346656373709,13.433576673332624,39.46523330370102,56.771770650445009,-46.74465424614652,-17.110788909897914,-78.46514668281484,-37.90130862987017,-2.6581413453805937,-24.65199122449821,18.51408585476319,-14.474310714538533,50.70093371827221,-52.92900128821774,-68.53753958600716,-62.90246966582986,4.322994774722502,44.06698092855169,-21.539705419947607,37.983752308231547,-7.43360752085329,-71.4465891888975,14.69783045292439,-79.22308707636775,47.897810303533479,-26.487613589550905,34.44835858997561,35.692011278282659,-6.183754655995106,7.6826108120467799,58.225151677813119,-13.239211460180205,69.91628044918814,-15.577653228577379,54.36013383982218,14.00356729023466,43.32887718468606,-45.779189781840567,72.9860030313652,14.569357891061522,84.72687979730745,-77.17755970344699,8.526838593872375,-58.526081317246958,80.28464685584356,-9.782045438228373,-12.055419812081237,72.96173682452238,-76.65549334875009,24.22633950461354,-33.11356389205322,85.98259683101252,62.941529438243417,-7.798289086273178,28.73332822316141,-69.88432850737566,84.88319735294424,32.540869247533127,-77.27349078562415,65.89041047594016,34.58830363266238,-28.009706828561574,54.42989715866102,75.80669897510845,3.270308230224785,-54.39415381759264,1.7568599688091973,-19.868864185686289,-21.141683995504104,3.606344256294048,-20.08389571798013,-36.045266575972949,57.22842902972235,50.03838782152688,39.40432364346005,-16.40349894994233,6.174023349766163,-12.92353936236454,-73.36028279967538,-28.467595390774016,71.71525735506616,47.63407289798931,26.200053494496843,55.737356971927187,-45.35127642843576,58.39000597933676,9.966710234112276,-8.432881597074556,41.836469680797147,38.09701121466205,15.26782106982647,-75.35944319538274,-54.653150128752198,-79.05185857711105,66.12850539093519,26.589135493332948,-45.46000572957187,18.867590751299749,24.35106158506412,48.53134954090009,74.60854572549835,-78.33400675893086,7.955969687490585,5.885613527491815,-41.8372159099423,-83.2157484486162,-57.39328333124617,-73.24430951581944,38.94483840280261,-41.01062395943228,10.089099275394016,11.6592855827727,19.753700914672643,37.341555737685769,80.32260425340982,73.10168186720921,31.937690809477503,84.83999131926957,35.01052427100857,31.027753383423993,21.786587080831127,-75.9577095666521,24.442117266052518,26.90875592236979,74.48597431900336,-30.8719036551333,-67.53956757975647,50.13283647429732,70.05733356312787,-73.33226298240894,-57.09094435290653,73.45388373100238,48.87285018510715,-35.744181208039659,-16.928689983736488,63.901812981461088,-46.46934792203727,-65.83301116553084,11.427121749333584,-48.28297911235541,29.635838178046673,-2.936431382604317,38.7697311326587,-3.300357492306517,-58.13953919326801,-82.53891564548249,-8.965692977519565,-5.847254733902103,-73.22701169798488,79.17427465626187,80.79889581639137,-44.15254591630565,70.00451761282726,79.47075933417593,-59.40268867246708,64.41880415961447,-16.628672892447434,67.19466489765682,17.547090341024249,75.18213887772704,70.47127026367613,-21.378668673007394,-57.154191946410957,26.12965025267555,-70.06713073906197,22.782666676927634,48.93388653020139,-30.649569009823666,-31.877205411113576,-69.72665986058695,33.423578656710478,11.623250842472542,-12.734581562599884,-2.8539477491719889,-84.75553592715872,-61.42443266910036,-28.579989566774985,-58.40497637417699,-1.0991560168982573,70.87743883194979,64.24124045492244,24.455138286681618,37.21239703974626,77.03051003940155,-67.98370766626432,73.20905269593527,-82.69808501436073,55.54954198346697,-62.48894366810864,4.799956989184854,-5.616965258627361,-27.516561687158214,2.767349625980826,22.392434004142645,-32.60679824349545,-35.13294428148178,-31.929690568729016,-73.50737025255276,-19.380677885780597,5.225245262340391,-45.32535104314767,-64.4635751002319,-60.11750045532426,82.64709929513806,-40.39675513298459,-16.971806158617079,54.72948677883024,-13.288985770536794,78.07884412879861,-84.12570713590235,6.851342593853631,-44.37114765080658,-17.853630217980915,32.81710264161031,-75.20655270973121,-40.13131915554143,27.556385419782413,-48.03725085327701,7.965906786403898,-57.128732302461198,19.33330055875244,79.53179567927038,-54.3080764742509,49.47028873223742,22.037756530576105,-25.20731078866727,-77.29154991604432,51.02043556579362,-56.394600638212548,36.52485948685899,56.652709032164448,-41.220070446758139,47.12315264413946,79.8230498532971,30.055338742561614,42.557364422618167,-1.5748123905300325,40.71274887714391,31.27981403985044,35.13554962488876,-67.66788521543092,16.738351888711994,63.61814898720408,-64.51068766474227,84.09606552786735,-47.393268740356919,76.48451966335873,56.09769811690644,11.451535581337911,-78.62293022049008,23.458121431271814,-70.039890847988,4.674174093579272,-48.399396715855427,72.03939583612375,-38.70969558988209,75.99195250655517,-23.44033805502574,-25.538108367973828,70.95800678821853,-25.827707375108696,-82.43839991949943,-43.041836264860339,-44.59346649059601,-54.63096503553112,-38.0760380919241,-5.346849162410059,-11.529228938742263,-83.38568723348735,-31.616465999813529,47.590944367524389,72.99108767517454,6.830386239408532,58.97780829405109,-75.60829821956637,-83.55250246249523,-70.23380444046966,-75.94483994204463,51.5216743369062,-16.71642586160293,-15.54437931949013,-47.24179690041461,-46.57855114808037,-63.91912155025839,-73.08071307694864,40.54514874761664,40.25320659219847,9.375098227458848,-78.36379711536243,-17.382416800092316,52.7128630485991,-64.28192546804029,-19.896593887418228,46.4692583841678,-25.18419413253841,-71.37693642846762,-26.36726297896368,22.064164345264268,76.26772850332478,36.02465248725526,44.1010315545892,1.8662974695650423,53.335934217857637,-43.0794495513845,-40.0664234554784,36.61448488863328,9.277174045139372,31.843816932064106,-58.93854962882484,69.44444716608342,-54.623342281948129,65.78934131606381,11.185438740604028,77.32576862616505,0.3549349751728311,-64.73336160723004,50.287602361117169,-65.27016584713769,-57.660204546183248,-9.028662650611727,7.818206448413303,71.42550374266705,-19.312882955915659,20.144180699141079,1.818122084123194,25.72541870302869,6.740230430056688,46.508578987776918,-1.9854487059463802,81.91608934143713,28.96221164900408,-6.150517653198154,-66.06511731283367,-70.65042928288516,25.329993716343908,68.73677434348066,-14.430279985736334,82.64834953584033,62.294753037755899,-23.547746833046227,-54.879476430058797,-77.73806147240166,-17.833803276252199,-61.66079314891011,-48.90652565068015,73.07097286507143,10.680086923891688,-11.074911381047328,-40.03312772354101,-46.59828365784453,-35.51708765704897,-47.24454826436178,-6.423082241088386,-0.8510599785993848,-57.9410050936938,58.822978944458117,-64.96827070705534,-52.95569761381943,41.249879497028157,20.355608974028717,-56.27319667395938,48.916046189898498,-52.318185494525298,-54.70718783772622,-45.66521561545659,37.674626503785869,45.70700749636134,-4.31158310904676,-34.15167622271474,17.765611764227985,35.844369511042277,53.786703957812907,-41.417467752357669,52.034993419398947,-40.29663735308901,-0.5911832117210749,3.1118558863832828,-43.799540939541568,-17.096744782714855,14.894600351587654,-71.10211935339892,-68.33230932143197,0.3942555787820303,-41.534616180637978,31.285725865950235,-9.940691219170079,-85.87488654464572,20.933393798301748,73.43802694334468,52.65446590442194,47.55759391800026,-47.62203350445295,-44.74898109372408,-44.20830706880896,-53.422001291622617,-17.648071487421299,60.727575154659948,-49.27406657106169,70.15187359908239,-0.43370102192994255,-58.78348576382592,-71.1557810995975,-63.07068629086842,28.348711644766817,3.7047979636492496,-3.1563404823259657,80.32037062053195,27.689375472048785,-46.701873758046428,28.79762925056315,-30.436328074461128,64.97872136502206,50.28849830143133,-59.792171987095439,5.310277194891731,-74.08833848506346,-37.62566052141946,75.36388181864831,0.15453742885937184,50.42292673624949,37.40206191589578,-61.3738374344763,8.397841080144483,-0.6586909946006762,56.35546897876368],"DNAVersion":10,"PerformanceSolvers":[{"ParameterName":"Timer","EvaluationParameter":537.2105712890625,"EvaluationParameterWeight":1.0,"ParameterType":1,"ExpectedValue":0.0}],"PerformanceCoefficient":444.84071350097659,"NetworkTrainingRate":0.37350237369537356,"InputLayerNeurons":0,"OutputLayerNeurons":0}