{"HasData":true,"NewTraining":false,"autoSaveIncrement":0,"NeuralNetworkName":"JumpV1","StartTrainingRate":0.5,"InstanceWeights":[0.22624326996795986,0.31732535959096877,0.26802268939466347,0.058161191436537199,-0.2939668459789673,0.058884794618415118,0.40602706601192575,-0.05782212668928416,0.4775497531413798,-0.22629554231012967,-0.20809371523004667,-0.032685299652016389,0.13265907281667878,-0.030488121570315275,0.4821512531406019,-0.469633009270594,0.3623701538249712,0.4953470812157481,0.17718114921691886,-0.18540820697574329,0.31690790868220289,0.3480517830923441,0.49190217535565708,-0.4673748016205499,0.19994198377241469,0.0262841426424143,0.434018658909024,0.18762028249335484,0.04681543425974222,-0.41889005010895899,-0.3128754258215779,-0.04667281478022822,-0.20282813427170189,0.48854377911823979,0.1426974728902325,0.26296358823914248,-0.46960570708364515,-0.11899549310048835,-0.1568581553440812,0.4574551656644117,0.005129212748785084,0.21597251236251203,-0.3810422708657767,-0.22654851652986769,0.4070979500688138,0.2947655938541357,-0.1628396607296726,-0.04279121223035792,-0.35317495970668968,-0.27868526046103117,-0.08992672040589467,0.21872683275431716,0.11983028362497239,-0.012031947501018603,-0.30508656325055596,0.37819148687561579,0.3254231842353117,0.23539749101521335,0.3582192076641224,0.17974901137861844,0.12486613570939109,-0.28159321648142918,0.39536243905097359,0.3964398032503388,-0.41342011648855178,0.3385790995501816,-0.3298571653803145,0.144115293698439,0.3268144055394523,-0.28081233509854056,0.4999726978130511,-0.018634353074540534,0.15220523655982932,0.21972598355250717,0.3094625802754716,-0.39906460368030918,0.22909405395812078,0.2184506918855248,-0.3744727516893636,0.4051763899182791,-0.3108761966279131,-0.023190128860618055,0.0407952422000446,-0.17449930527922664,0.1710366702969357,-0.03160225857589499,0.3334969015947994,0.3092038132293168,0.2936303423687957,0.2645059860146167,0.43754040400383079,-0.20500319809885843,0.02278529923538919,0.16339283327730037,-0.16741097004497935,-0.2132775707697857,0.32061007331153848,-0.2774820741161155,-0.3131284000413159,-0.43148114948136787,0.12462275923445021,0.1930450455718884,0.13039438223018985,0.42763737539185089,-0.27865795827408226,0.42870763266864589,-0.43347840380551219,0.4001043000724652,0.17850547222350977,-0.4060219595702467,-0.350902567082505,-0.3930275076502131,0.1098702427045769,0.4530428177458433,-0.009374791993468412,-0.3519437354299909,0.1776115413185263,0.0698617443302002,-0.2745968670465969,0.11818214208734324,-0.4949178020446178,-0.1390609786096313,0.3504849513296433,-0.4376915804751644,-0.2183527391023714,0.20497589591190958,0.45858034769007019,0.48881240328252897,-0.11286304640251355,0.022740151045257285,-0.21967467699184768,0.006576128074236243,0.03157909192684061,-0.44299160220799579,-0.21944636931617113,-0.0039212421998015,0.34641548890919218,0.11315786680819362,-0.3958413470051444,0.24232903762828984,-0.09812385477038283,0.43339260152233419,-0.36930165899419306,0.19965230193904238,0.11540855309712173,0.33056791165404389,0.18512655919656463,0.06974248148954587,-0.32723237472923119,-0.31546723461498846,0.10911088791168799,-0.2492516710186618,0.49711479293048146,0.06868945787134084,-0.43656334743675,-0.2363162621559185,0.342560094242245,0.06808596270535417,0.14599011449422229,0.016366145814008194,0.4701272849785757,-0.4222908070880411,0.01296734647497877,-0.3442346788217475,0.31365271742160097,0.14252130484325876,0.07539340042294629,0.05286184491257273,0.17248918706201445,0.49454645020633306,-0.19835922433918308,-0.43554632548966745,-0.034296908664655349,-0.016925904674886695,-0.283694003142274,-0.42831040356695207,-0.26975931961543828,-0.3491673506093991,-0.053100133572286049,-0.048920650756415277,-0.48015066328465508,-0.1111621337994757,0.3160447780117601,-0.2973958117875251,0.4136292631335693,-0.47042300597318589,0.009461335143754912,0.46288963405549979,0.49357174522875427,-0.48313010716025259,0.15351866355795353,-0.22167047379616207,0.46716775231397147,0.08779250718084741,0.27220175264971416,-0.1758330476823417,-0.07957474495264455,0.4749330198275544,0.38599958451744156,0.47288724825386299,-0.24482548876890238,-0.36773528571600808,0.39725329442753146,-0.3217788249355642,0.3828919897241946,0.04465721340135542,0.28504523764599357,0.01404069760536808,-0.1476165389863851,0.4917470561302021,-0.46655694254048027,0.19172744485164407,-0.37881390372235976,-0.30508923474936247,-0.003483190901336808,0.0812894187780514,-0.23833558509980125,-0.18963684173749613,-0.2578639419553168,0.2840757233947868,-0.36694003030049618,0.11250376636744652,0.05929009968381849,0.15561929422226707,-0.15897221335162049,-0.476688750543021,-0.40271407780363879,0.3779105841544972,0.21087234267539924,0.39213904454006767,0.15126434138569257,-0.24469233944299274,-0.23516693512684057,-0.025987381826149015,-0.3040951619875129,0.38758462243135308,-0.008415428227007138,0.13782360294732433,-0.18028780151171976,-0.13102795026778614,-0.25546824361917949,0.49542063753838685,0.11050617304188482,-0.4981753109014478,0.4834268353802277,0.46179121870630948,-0.3428565700738023,0.2722569870633339,-0.4087243019178157,-0.30908766612833729,-0.43749746258254049,-0.38993790321514845,0.23279696178287125,-0.39807613887734535,0.3398272785543591,0.14267074486365106,0.07297461460017352,-0.25836599979473559,0.3371933884160563,0.35958074026721567,-0.05262870879500581,0.40713465349149649,0.30316835492996888,-0.03975558352645281,-0.15951728525549048,0.27813539690251246,-0.07310562002151533,0.14717347810378923,0.4990059272381505,0.1089321866673102,-0.4102951529949415,0.12384081195287444,0.49065095977422359,0.3731640083124693,0.03954396701396623,-0.362360667838883,-0.49800240667443837,0.05746541058526622,0.17219245884203938,-0.12076343205792989,0.36616781953078128,-0.17497106486697268,0.2866348860723129,0.019960008803736386,0.32963650712260819,0.04120224460084099,0.02251069877413603,-0.33709079624949525,0.13418533961949187,0.05323409314883598,-0.18538999216882047,-0.2500494284322715,0.30063021453126817,-0.039868541778935399,0.4216007585272197,-0.16260289711067589,-0.3077477173915821,-0.3497382434316623,0.16134197435404264,-0.29470856152228477,0.034896838727824789,0.009969951822408452,0.2732510598251834,-0.017656488585125864,-0.3987925131333957,-0.061338274535414908,-0.38058886298937208,0.3596329534704019,0.06237989410868838,0.2021879463932421,0.14067315153808947,-0.48449079598509278,0.06944154136322511,-0.042043179526013888,0.4934129207364344,-0.37765764392803316,-0.3795002325808165,-0.21679165387376754,0.13060790935093903,0.29928047014366856,-0.24437530187162355,-0.2360148237720201,-0.48701186151570266,-0.05422816591068552,-0.2056778211638694,0.33975427543733008,0.3232105974216064,0.030519501553158969,0.45156324978524978,-0.29785313587535786,0.44538704955269917,0.351735836757224,0.3961234362312236,-0.033098979635675877,0.3443397292142454,-0.1438021322916272,0.051777875307843949,-0.19570862534256124,-0.08124747806286786,-0.10902521834197698,-0.07820889240978701,0.1628777453037341,0.10052930964181628,0.43199739322624977,0.4125609416107465,-0.2008991961837277,0.18050903020450338,-0.15732660594271803,-0.03328146251536973,0.2992584024552528,-0.28310266452985946,0.4090439364821855,0.0196538472173986,0.3620615042103741,0.44966674034933876,-0.22908833750015512,-0.003018186661888911,-0.1725207742641311,-0.31197866742125648,-0.23854678857072576,0.11545112804297875,0.08889163545746903,0.40806970368515219,-0.13976697001595374,0.25680089684054299,0.2889373147808655,-0.3806142322163164,-0.397459479001099,0.11361709125974085,0.13721505302806159,0.07056448076412292,0.3162083927617447,0.3644558241891004,-0.260366872307084,-0.12251063744654445,0.0927469528246424,0.16345586658616363,-0.4190092547419524,0.03321089247856801,0.4952213750198583,-0.3407547547671733,-0.019462796635675629,-0.4361990359314713,-0.34769515267000308,0.48524952865450157,-0.46365688692948639,-0.16791801046017464,-0.4659380679791505,0.017234280014985394,0.0734280667144005,0.3592160543702617,-0.2757013504280249,-0.3837299579213047,-0.34270068949214219,0.2755236536150443,0.33289947213274409,0.25480804161858186,-0.2597037203422299,-0.3248035036142932,-0.37637637317011898,-0.3202849639674113,0.07796850920560239,0.2290563027975412,0.32950348445656876,-0.2713060783088701,-0.09931105729160417,-0.4554118877069149,-0.2199792804755174,-0.015427858343081469,-0.14308021247530368,0.10745579591368126,-0.08400893191993653,0.29426833325730097,-0.30720004244111479,-0.39779203380355246,-0.3650860753213456,0.025090671388940279,0.25576485635515536,-0.12501649867045529,0.22045778377002935,-0.04314467475895989,-0.4146761642371659,0.0853062409839156,-0.45981097545465968,0.27799899865779978,-0.15373416880785219,0.19993835068304945,0.20715651368124245,-0.03589052592212827,0.0445898904207116,0.33793891120606059,-0.0768404130716065,0.4057942488723407,-0.09041273435131309,0.31550633898726956,0.0812767360272243,0.2514809005667832,-0.26570252038804,0.42361092563886706,0.08456058594610572,0.4917550007774285,-0.4479387299846572,0.049489790363930977,-0.33968550750971096,0.4659722708007191,-0.0567750137098017,-0.06996968368532586,0.42347008451981008,-0.4449086556885897,0.1406097289363899,-0.19219119925619627,0.4990431852634266,0.3653127783282254,-0.0452612873843225,0.16676830158884094,-0.4056087997302454,0.4926622682216867,0.18886727825220085,-0.44849551420123109,0.3824280904989821,0.2007505920253464,-0.16256840138815738,0.31591124544661089,0.43998225123620696,0.018980876318635877,-0.31570379101471227,0.010196819207722752,-0.11531893239138597,-0.12270638142838442,0.02093123016922327,-0.11656697588812887,-0.20920680822301974,0.3321539307162883,0.290422915383439,0.22870278299260084,-0.09520594477430261,0.035834045398903117,-0.07500825150637342,-0.42578324625537886,-0.16522598763239849,0.4162355148774737,0.2764682661632394,0.15206516936983228,0.32349974514148185,-0.2632189103230922,0.33889572594263397,0.05784680860016811,-0.04894446374333672,0.24281896405984605,0.22111513871751499,0.08861446780553761,-0.4373863776854176,-0.3172070061868089,-0.458817164860115,0.3838099939207593,0.15432340216558583,-0.2638499754312681,0.10950753912772404,0.1413336161716532,0.28167606181543139,0.4330281670824756,-0.4546507512939399,0.04617646594819447,0.034160114142187007,-0.24282329517548124,-0.48298439103317655,-0.3331107454528617,-0.4251101370552136,0.22603592962307662,-0.23802575363685647,0.05855715487085156,0.06767051972806015,0.11465052450757962,0.21673047343116737,0.4661925756215083,0.424282325862107,0.1853664292420104,0.49241150030512906,0.20320116155929913,0.18008515037600193,0.12644940038511966,-0.4408587170489406,0.14186210354876806,0.1561784798541006,0.43231676236368568,-0.17918059820271127,-0.3919998020362108,0.2909710955764032,0.4066129214626797,-0.425620619172985,-0.3313559693430346,0.4263265062711791,0.28365813232197337,-0.2074593080708102,-0.09825415471487409,0.3708862661714136,-0.2697081997849551,-0.3820949447723548,0.06632304031696312,-0.2802345192899157,0.17200647139549553,-0.01704305434461828,0.22501960663358668,-0.01915528230329755,-0.3374420161533365,-0.4790560519225225,-0.052036902192997228,-0.03393747961797633,-0.4250097404816233,0.4595276680586523,0.4689569729235754,-0.25626147573639709,0.4063063775684248,0.46124846579565129,-0.3447733385696883,0.37388688413141615,-0.09651285484270794,0.38999798609409389,0.10184335177850135,0.43635730302722999,0.4090154110030343,-0.1240818410292649,-0.3317230585178933,0.15165654879606173,-0.40666978429382197,0.13223064859967249,0.2840123874060867,-0.17789016742161019,-0.1850153718539585,-0.4046936905499053,0.1939905256470621,0.06746137401436525,-0.07391154001183414,-0.016564319150785157,-0.49192132101949367,-0.35650754527026209,-0.1658783236825272,-0.3389826141479344,-0.006379503992562874,0.4113728142862082,0.372856303990286,0.14193767758176557,0.21598083605802655,0.4470852534040274,-0.39457759209656048,0.42490550639336258,-0.4799798712972458,0.3224096665263221,-0.36268596950112189,0.027858961153709784,-0.03260087898587849,-0.159706185879049,0.016061703449143928,0.12996573728973316,-0.18924993029294996,-0.20391168757523954,-0.18531999582672493,-0.42663694216247508,-0.11248549800947566,0.03032733524699105,-0.26306843932860926,-0.37414673477138707,-0.34892210776401785,0.4796839500682819,-0.23446285758840985,-0.09850440109078979,0.31765006427543709,-0.07712930328078999,0.45316978681514499,-0.4882657932994262,0.039765207813943329,-0.2575302406947735,-0.10362250991334327,0.19047053749229315,-0.436499000963056,-0.23292226657873128,0.15993732291270858,-0.2788083119219208,0.04623414089262212,-0.33157529068718447,0.11221051989691822,0.4616027208797646,-0.31520419792048828,0.28712566699233169,0.12790718843597327,-0.1463032884738889,-0.4486003294347787,0.29612272269843278,-0.32731438885783517,0.21199036655574589,0.3288124505564628,-0.23924138152005215,0.2735028838615412,0.463293160760446,0.17444125361481745,0.24700303876167307,-0.00914021465421666,0.23629688598974464,0.18154811099243729,0.20392680899422933,-0.3927445578820745,0.0971494319835442,0.3692398797111771,-0.37442017620169568,0.48809375333976648,-0.275070638291105,0.44391632403429429,0.32559116595685069,0.06646473825278909,-0.45632766371421876,0.13615098951205197,-0.40651168390480416,0.027128916944902827,-0.2809102073222912,0.41811681535007286,-0.22467116020837386,0.4410574631491012,-0.1360477747563495,-0.1482232383676913,0.41184043088547908,-0.14990407165601106,-0.4784726584229957,-0.24981491442295485,-0.2588205797406009,-0.31707824385588909,-0.22099341066600448,-0.03103312455631474,-0.06691567067378929,-0.48397071612252426,-0.18350203972472907,0.2762179480754854,0.42364043692296396,0.03964357708564192,0.3423073318983928,-0.4388307328051099,-0.484938912086626,-0.4076371588314125,-0.4407840217187926,0.2990319136525653,-0.09702217327292179,-0.09021961250818317,-0.2741914953916294,-0.2703420155543564,-0.3709867251436164,-0.424160622956306,0.235324134461267,0.23362970153504504,0.05441309118383242,-0.45482365458962678,-0.10088758617680871,0.30594557561257187,-0.3730924398978671,-0.11547987564256407,0.2697076801069582,-0.14616911934975958,-0.41427189945907885,-0.1530356535935009,0.12806045945177803,0.44265806765419349,0.20908716400577088,0.2559624862652097,0.010831994708083604,0.30956188207937498,-0.2500332220224818,-0.23254561178970413,0.21251055258908803,0.05384473900955389,0.18482158504651004,-0.34207947451718126,0.4030557274366988,-0.31703400137696138,0.3818414848678938,0.06492031159108525,0.4487989349052305,0.00206004339366217,-0.3757125762643817,0.29186935713136077,-0.3788281892793384,-0.3346599567842949,-0.05240237831715605,0.04537688779895044,0.4145537842598529,-0.11209201608416253,0.11691687005428453,0.010552384662699144,0.1493103879733525,0.03912031256552795,0.2699358969786837,-0.011523548751847635,0.47544116665396898,0.16809674150687493,-0.03569761828319057,-0.3834420893729861,-0.4100552503532056,0.14701534046186849,0.3989483927837333,-0.08375337747100431,0.47969120646812549,0.3615588866460877,-0.13667117554539405,-0.3185206045482869,-0.451191883511465,-0.10350743429898629,-0.35787938202632565,-0.28385358479984737,0.4241040907446779,0.06198724851104764,-0.06427881054779461,-0.232352363286704,-0.2704565430853779,-0.20614125659043959,-0.2742074643141625,-0.03727958376392704,-0.004939554028650539,-0.33628972379317959,0.3414087020053569,-0.3770759892077539,-0.30735498797490959,0.23941439331481907,0.11814400023694338,-0.32660975997644,0.2839088420308702,-0.3036548662016424,-0.3175206411711502,-0.26504101407017607,0.21866361690622927,0.2652835742408799,-0.025024438055709198,-0.198216405556638,0.103111650609929,0.2080408012066226,0.3121781506632353,-0.24038707592542614,0.30201121876109918,-0.23388177376886916,-0.003431228689584509,0.01806121855883913,-0.2542126340578369,-0.09922954514586813,0.08644829391802111,-0.41267686053769517,-0.3966008768866774,0.0022882602653877539,-0.2410670056664697,0.18158242324440855,-0.05769579417896259,-0.4984180345192636,0.12149746465566447,0.426234473439974,0.3056066384565116,0.27602438199148718,-0.27639838949609477,-0.2597231868466936,-0.2565851135908557,-0.31006141556895408,-0.10242944657915709,0.3524629826901774,-0.2859867931278361,0.4071616320438505,-0.0025172017060766107,-0.3411794834962019,-0.4129883134332431,-0.3660624049911566,0.16453598610336707,0.021502655707999475,-0.01831940725367487,0.46617961161126367,0.1607091974749738,-0.27105778025978147,0.1671415048964049,-0.1766525165534823,0.377136644850083,0.29187455717095858,-0.34703390060320218,0.030820860774638527,-0.4300088830897626,-0.2183794182345175,0.43741213946482729,0.0008969355844412608,0.29265478010878656,0.21708165142549275,-0.3562138904147846,0.0487410885043168,-0.00382304401314959,0.32708726861844175],"DNAVersion":1,"PerformanceSolvers":[{"ParameterName":"Timer","EvaluationParameter":0.9266191720962524,"EvaluationParameterWeight":1.0,"ParameterType":1,"ExpectedValue":0.0}],"PerformanceCoefficient":0.9266191720962524,"NetworkTrainingRate":0.5,"InputLayerNeurons":0,"OutputLayerNeurons":0}