{"HasData":true,"NewTraining":false,"NeuralNetworkName":"JumpV1","StartTrainingRate":5.0,"InstanceWeights":[0.04524865399359196,0.06346507191819376,0.053604537878932687,0.011632238287307445,-0.05879336919579346,0.011776958923683023,0.08120541320238514,-0.011564425337856829,0.09550995062827597,-0.04525910846202594,-0.041618743046009338,-0.00653705993040328,0.026531814563335755,-0.006097624314063049,0.09643025062812039,-0.0939266018541188,0.07247403076499423,0.09906941624314963,0.035436229843383768,-0.03708164139514866,0.06338158173644057,0.06961035661846882,0.09838043507113142,-0.09347496032410999,0.03998839675448293,0.00525682852848286,0.08680373178180481,0.037524056498670969,0.009363086851948449,-0.0837780100217918,-0.06257508516431558,-0.00933456295604565,-0.04056562685434038,0.09770875582364797,0.028539494578046499,0.052592717647828499,-0.09392114141672903,-0.023799098620097674,-0.03137163106881624,0.09149103313288235,0.0010258425497570168,0.043194502472502397,-0.07620845417315535,-0.04530970330597354,0.08141959001376276,0.05895311877082715,-0.03256793214593452,-0.00855824244607159,-0.07063499194133795,-0.055737052092206227,-0.01798534408117894,0.04374536655086342,0.02396605672499448,-0.0024063895002037207,-0.061017312650111187,0.07563829737512315,0.06508463684706234,0.04707949820304266,0.07164384153282449,0.0359498022757237,0.024973227141878219,-0.05631864329628583,0.07907248781019472,0.07928796065006777,-0.08268402329771035,0.06771581991003634,-0.0659714330760629,0.028823058739687797,0.06536288110789046,-0.05616246701970812,0.09999453956261023,-0.003726870614908104,0.03044104731196587,0.04394519671050143,0.061892516055094329,-0.07981292073606185,0.04581881079162414,0.04369013837710495,-0.07489455033787274,0.08103527798365581,-0.06217523932558263,-0.004638025772123605,0.00815904844000892,-0.03489986105584533,0.03420733405938714,-0.006320451715179004,0.06669938031895989,0.061840762645863359,0.058726068473759138,0.052901197202923359,0.08750808080076617,-0.041000639619771687,0.004557059847077841,0.03267856665546007,-0.033482194008995869,-0.042655514153957147,0.06412201466230769,-0.0554964148232231,-0.06262568000826319,-0.08629622989627357,0.024924551846890049,0.038609009114377677,0.026078876446037959,0.08552747507837019,-0.055731591654816458,0.08574152653372919,-0.08669568076110244,0.08002086001449305,0.03570109444470196,-0.08120439191404935,-0.070180513416501,-0.07860550153004262,0.021974048540915379,0.09060856354916866,-0.0018749583986936852,-0.07038874708599818,0.035522308263705257,0.01397234886604004,-0.05491937340931938,0.023636428417468645,-0.09898356040892358,-0.027812195721926268,0.07009699026592867,-0.08753831609503288,-0.04367054782047428,0.04099517918238191,0.09171606953801404,0.0977624806565058,-0.022572609280502713,0.004548030209051451,-0.04393493539836954,0.0013152256148472458,0.006315818385368127,-0.08859832044159916,-0.04388927386323423,-0.0007842484399603056,0.06928309778183844,0.02263157336163872,-0.07916826940102889,0.04846580752565796,-0.019624770954076569,0.08667852030446685,-0.07386033179883861,0.03993046038780848,0.02308171061942435,0.06611358233080878,0.03702531183931293,0.013948496297909175,-0.06544647494584624,-0.06309344692299769,0.021822177582337594,-0.04985033420373236,0.09942295858609629,0.013737891574268163,-0.08731266948735,-0.047263252431183708,0.06851201884844902,0.013617192541070828,0.02919802289884446,0.0032732291628016359,0.09402545699571516,-0.08445816141760823,0.002593469294995751,-0.06884693576434951,0.0627305434843202,0.028504260968651747,0.015078680084589264,0.01057236898251454,0.03449783741240289,0.09890929004126661,-0.03967184486783662,-0.08710926509793349,-0.006859381732931075,-0.003385180934977333,-0.0567388006284548,-0.08566208071339042,-0.05395186392308765,-0.06983347012187982,-0.010620026714457207,-0.009784130151283058,-0.09603013265693102,-0.022232426759895148,0.06320895560235204,-0.05947916235750503,0.08272585262671387,-0.09408460119463719,0.0018922670287509769,0.09257792681109997,0.09871434904575086,-0.09662602143205051,0.030703732711590716,-0.04433409475923242,0.09343355046279431,0.01755850143616948,0.05444035052994284,-0.03516660953646834,-0.015914948990528908,0.0949866039655109,0.07719991690348832,0.09457744965077261,-0.048965097753780478,-0.07354705714320162,0.07945065888550629,-0.06435576498711285,0.07657839794483892,0.008931442680271088,0.05700904752919872,0.002808139521073616,-0.02952330779727702,0.09834941122604044,-0.09331138850809606,0.0383454889703288,-0.07576278074447196,-0.061017846949872497,-0.000696638180267356,0.016257883755610285,-0.04766711701996025,-0.03792736834749923,-0.05157278839106336,0.056815144678957377,-0.07338800606009924,0.0225007532734893,0.011858019936763692,0.0311238588444534,-0.031794442670324097,-0.09533775010860421,-0.08054281556072776,0.07558211683089944,0.042174468535079837,0.07842780890801354,0.030252868277138524,-0.04893846788859855,-0.04703338702536811,-0.005197476365229797,-0.06081903239750258,0.07751692448627062,-0.0016830856454014276,0.027564720589464854,-0.03605756030234396,-0.02620559005355723,-0.0510936487238359,0.09908412750767737,0.022101234608376959,-0.09963506218028957,0.09668536707604555,0.09235824374126189,-0.06857131401476047,0.054451397412666777,-0.08174486038356316,-0.06181753322566745,-0.0874994925165081,-0.07798758064302969,0.04655939235657425,-0.07961522777546906,0.06796545571087184,0.02853414897273021,0.014594922920034698,-0.05167319995894712,0.06743867768321127,0.07191614805344313,-0.010525741759001159,0.08142693069829929,0.06063367098599379,-0.007951116705290557,-0.031903457051098097,0.05562707938050249,-0.014621124004303071,0.029434695620757846,0.09980118544763012,0.02178643733346204,-0.08205903059898831,0.024768162390574889,0.09813019195484471,0.07463280166249387,0.00790879340279324,-0.0724721335677766,-0.09960048133488768,0.011493082117053244,0.03443849176840788,-0.02415268641158598,0.07323356390615626,-0.03499421297339454,0.05732697721446259,0.00399200176074728,0.06592730142452164,0.008240448920168203,0.004502139754827203,-0.06741815924989905,0.026837067923898368,0.010646818629767199,-0.037077998433764098,-0.050009885686454317,0.060126042906253649,-0.007973708355787077,0.08432015170544394,-0.03252057942213518,-0.06154954347831642,-0.06994764868633247,0.032268394870808517,-0.05894171230445696,0.006979367745564957,0.001993990364481696,0.054650211965036697,-0.003531297717025178,-0.07975850262667915,-0.012267654907082981,-0.07611777259787442,0.07192659069408039,0.012475978821737677,0.040437589278648437,0.028134630307617898,-0.09689815919701857,0.01388830827264502,-0.008408635905202772,0.0986825841472869,-0.07553152878560664,-0.0759000465161633,-0.04335833077475351,0.026121581870187817,0.05985609402873371,-0.04887506037432471,-0.047202964754404028,-0.09740237230314053,-0.010845633182137105,-0.04113556423277388,0.06795085508746601,0.06464211948432128,0.0061039003106317939,0.09031264995704996,-0.05957062717507157,0.08907740991053984,0.0703471673514448,0.07922468724624474,-0.006619795927135172,0.06886794584284908,-0.02876042645832544,0.010355575061568784,-0.03914172506851225,-0.016249495612573579,-0.02180504366839539,-0.0156417784819574,0.03257554906074683,0.02010586192836325,0.08639947864524997,0.08251218832214932,-0.04017983923674554,0.036101806040900689,-0.0314653211885436,-0.006656292503073952,0.05985168049105058,-0.05662053290597188,0.08180878729643712,0.003930769443479726,0.07241230084207481,0.08993334806986775,-0.04581766750003102,-0.0006036373323777822,-0.03450415485282622,-0.0623957334842513,-0.047709357714145157,0.02309022560859575,0.01777832709149381,0.08161394073703043,-0.027953394003190747,0.051360179368108608,0.0577874629561731,-0.07612284644326328,-0.0794918958002198,0.022723418251948167,0.027443010605612329,0.014112896152824586,0.06324167855234894,0.07289116483782007,-0.0520733744614168,-0.024502127489308885,0.018549390564928479,0.03269117331723273,-0.08380185094839049,0.006642178495713608,0.09904427500397167,-0.06815095095343467,-0.0038925593271351285,-0.08723980718629426,-0.06953903053400063,0.0970499057309003,-0.09273137738589728,-0.033583602092034928,-0.0931876135958301,0.003446856002997073,0.0146856133428801,0.07184321087405235,-0.05514027008560499,-0.07674599158426095,-0.06854013789842843,0.055104730723008869,0.06657989442654883,0.05096160832371638,-0.05194074406844598,-0.06496070072285865,-0.0752752746340238,-0.06405699279348226,0.01559370184112048,0.04581126055950824,0.06590069689131376,-0.054261215661774029,-0.01986221145832083,-0.09108237754138297,-0.04399585609510348,-0.0030855716686162967,-0.028616042495060738,0.021491159182736254,-0.0168017863839873,0.05885366665146019,-0.06144000848822296,-0.07955840676071049,-0.07301721506426913,0.00501813427778805,0.05115297127103108,-0.02500329973409106,0.04409155675400586,-0.008628934951791984,-0.08293523284743318,0.01706124819678312,-0.09196219509093194,0.05559979973155996,-0.030746833761570434,0.03998767013660989,0.04143130273624848,-0.007178105184425659,0.008917978084142325,0.06758778224121212,-0.015368082614321294,0.08115884977446816,-0.018082546870262618,0.06310126779745393,0.01625534720544486,0.05029618011335665,-0.05314050407760801,0.08472218512777341,0.016912117189221144,0.0983510001554857,-0.08958774599693145,0.009897958072786192,-0.0679371015019422,0.09319445416014383,-0.011355002741960344,-0.013993936737065172,0.08469401690396203,-0.08898173113771796,0.028121945787277976,-0.03843823985123926,0.09980863705268534,0.0730625556656451,-0.0090522574768645,0.03335366031776818,-0.08112175994604909,0.09853245364433736,0.03777345565044016,-0.08969910284024622,0.07648561809979643,0.04015011840506927,-0.032513680277631479,0.06318224908932219,0.0879964502472414,0.003796175263727178,-0.06314075820294245,0.0020393638415445449,-0.0230637864782772,-0.024541276285676887,0.004186246033844654,-0.023313395177625777,-0.04184136164460395,0.06643078614325768,0.05808458307668782,0.045740556598520169,-0.019041188954860526,0.007166809079780623,-0.015001650301274678,-0.08515664925107577,-0.033045197526479708,0.08324710297549473,0.05529365323264787,0.03041303387396646,0.06469994902829637,-0.05264378206461845,0.06777914518852679,0.011569361720033617,-0.009788892748667344,0.04856379281196921,0.04422302774350301,0.017722893561107526,-0.08747727553708353,-0.06344140123736178,-0.09176343297202301,0.07676199878415188,0.03086468043311716,-0.05276999508625362,0.021901507825544815,0.028266723234330633,0.05633521236308628,0.08660563341649513,-0.09093015025878798,0.009235293189638894,0.006832022828437395,-0.04856465903509625,-0.0965968782066353,-0.06662214909057233,-0.08502202741104273,0.04520718592461531,-0.047605150727371297,0.011711430974170309,0.013534103945612025,0.022930104901515925,0.04334609468623346,0.09323851512430168,0.0848564651724214,0.03707328584840208,0.09848230006102582,0.040640232311859817,0.03601703007520038,0.02528988007702393,-0.08817174340978812,0.0283724207097536,0.031235695970820128,0.08646335247273715,-0.03583611964054226,-0.07839996040724216,0.05819421911528064,0.08132258429253595,-0.08512412383459701,-0.06627119386860692,0.08526530125423582,0.05673162646439467,-0.041491861614162049,-0.019650830942974819,0.07417725323428273,-0.05394163995699103,-0.07641898895447096,0.013264608063392622,-0.05604690385798314,0.034401294279099107,-0.0034086108689236618,0.04500392132671732,-0.00383105646065951,-0.06748840323066731,-0.0958112103845045,-0.010407380438599443,-0.00678749592359526,-0.08500194809632467,0.09190553361173046,0.09379139458471508,-0.051252295147279417,0.08126127551368498,0.09224969315913026,-0.06895466771393767,0.07477737682628324,-0.019302570968541587,0.07799959721881877,0.020368670355700268,0.087271460605446,0.08180308220060687,-0.02481636820585298,-0.06634461170357867,0.030331309759212334,-0.08133395685876439,0.026446129719934487,0.056802477481217337,-0.035578033484322039,-0.0370030743707917,-0.08093873810998106,0.038798105129412428,0.013492274802873045,-0.014782308002366823,-0.0033128638301570258,-0.09838426420389873,-0.07130150905405242,-0.03317566473650545,-0.0677965228295869,-0.001275900798512572,0.08227456285724164,0.0745712607980572,0.02838753551635312,0.043196167211605299,0.0894170506808055,-0.07891551841931209,0.0849811012786725,-0.09599597425944917,0.06448193330526442,-0.07253719390022438,0.005571792230741959,-0.0065201757971757039,-0.03194123717580981,0.0032123406898287856,0.02599314745794662,-0.037849986058589999,-0.04078233751504791,-0.03706399916534499,-0.08532738843249502,-0.022497099601895139,0.006065467049398213,-0.05261368786572185,-0.07482934695427743,-0.06978442155280357,0.09593679001365638,-0.046892571517681978,-0.019700880218157955,0.06353001285508742,-0.015425860656158003,0.09063395736302901,-0.09765315865988525,0.00795304156278867,-0.0515060481389547,-0.020724501982668648,0.038094107498458627,-0.0872998001926112,-0.04658445331574626,0.0319874645825417,-0.05576166238438415,0.00924682817852443,-0.06631505813743689,0.02244210397938365,0.09232054417595293,-0.06304083958409766,0.05742513339846633,0.025581437687194648,-0.029260657694777788,-0.08972006588695575,0.05922454453968656,-0.06546287777156704,0.04239807331114917,0.06576249011129257,-0.04784827630401043,0.054700576772308249,0.09265863215208922,0.034888250722963479,0.049400607752334627,-0.001828042930843335,0.047259377197948929,0.03630962219848746,0.04078536179884587,-0.07854891157641492,0.01942988639670884,0.07384797594223544,-0.07488403524033914,0.09761875066795331,-0.055014127658221,0.08878326480685886,0.06511823319137014,0.013292947650557816,-0.09126553274284376,0.02723019790241038,-0.08130233678096083,0.0054257833889805599,-0.05618204146445824,0.08362336307001459,-0.04493423204167477,0.08821149262982026,-0.027209554951269908,-0.029644647673538264,0.08236808617709582,-0.029980814331202214,-0.09569453168459914,-0.04996298288459097,-0.05176411594812019,-0.06341564877117781,-0.0441986821332009,-0.006206624911262948,-0.013383134134757863,-0.09679414322450485,-0.03670040794494582,0.055243589615097097,0.08472808738459278,0.00792871541712839,0.06846146637967857,-0.087766146561022,-0.09698778241732521,-0.08152743176628251,-0.08815680434375853,0.05980638273051306,-0.019404434654584358,-0.01804392250163664,-0.05483829907832588,-0.05406840311087128,-0.07419734502872329,-0.08483212459126122,0.047064826892253389,0.046725940307008998,0.010882618236766478,-0.09096473091792537,-0.020177517235361737,0.061189115122514379,-0.07461848797957344,-0.023095975128512817,0.05394153602139165,-0.029233823869951923,-0.08285437989181578,-0.03060713071870018,0.0256120918903556,0.08853161353083869,0.041817432801154189,0.05119249725304195,0.002166398941616715,0.06191237641587499,-0.05000664440449637,-0.04650912235794083,0.042502110517817607,0.010768947801910775,0.036964317009302,-0.06841589490343625,0.08061114548733978,-0.06340680027539228,0.07636829697357878,0.012984062318217055,0.08975978698104612,0.00041200867873243674,-0.07514251525287634,0.05837387142627215,-0.07576563785586769,-0.06693199135685898,-0.010480475663431216,0.009075377559790085,0.08291075685197058,-0.0224184032168325,0.02338337401085691,0.002110476932539823,0.029862077594670495,0.007824062513105593,0.053987179395736748,-0.0023047097503695326,0.0950882333307938,0.033619348301374977,-0.007139523656638114,-0.07668841787459721,-0.08201105007064112,0.029403068092373698,0.07978967855674665,-0.016750675494200869,0.0959382412936251,0.07231177732921754,-0.027334235109078815,-0.06370412090965738,-0.09023837670229301,-0.020701486859797254,-0.07157587640526514,-0.05677071695996948,0.08482081814893558,0.012397449702209532,-0.012855762109558925,-0.046470472657340809,-0.05409130861707559,-0.04122825131808792,-0.0548414928628325,-0.00745591675278541,-0.0009879108057301023,-0.06725794475863592,0.06828174040107138,-0.07541519784155079,-0.061470997594981927,0.04788287866296381,0.02362880004738868,-0.06532195199528801,0.05678176840617405,-0.06073097324032847,-0.06350412823423005,-0.05300820281403521,0.04373272338124584,0.05305671484817598,-0.005004887611141845,-0.0396432811113276,0.020622330121985806,0.04160816024132452,0.06243563013264705,-0.04807741518508523,0.060402243752219839,-0.046776354753773837,-0.0006862457379168963,0.0036122437117678265,-0.05084252681156738,-0.01984590902917363,0.017289658783604224,-0.08253537210753904,-0.07932017537733549,0.0004576520530775452,-0.04821340113329395,0.03631648464888171,-0.011539158835792513,-0.09968360690385272,0.0242994929311329,0.08524689468799482,0.061121327691302327,0.05520487639829744,-0.05527967789921895,-0.05194463736933872,-0.05131702271817114,-0.06201228311379081,-0.020485889315831425,0.0704925965380355,-0.05719735862556722,0.0814323264087701,-0.0005034403412153277,-0.06823589669924038,-0.08259766268664863,-0.07321248099823133,0.03290719722067342,0.004300531141599895,-0.003663881450734971,0.09323592232225273,0.03214183949499477,-0.05421155605195629,0.033428300979280987,-0.03533050331069647,0.07542732897001661,0.05837491143419171,-0.06940678012064043,0.006164172154927705,-0.08600177661795253,-0.0436758836469035,0.08748242789296546,0.00017938711688825215,0.05853095602175731,0.04341633028509856,-0.07124277808295693,0.009748217700863357,-0.0007646088026299208,0.06541745372368835],"PerformanceSolvers":[{"ParameterName":"Timer","EvaluationParameter":0.893617570400238,"EvaluationParameterWeight":1.0,"ParameterType":1,"ExpectedValue":0.0}],"PerformanceCoefficient":0.893617570400238,"NetworkTrainingRate":5.0,"DNAVersion":2,"autoSaveIncrement":1,"InputLayerNeurons":0,"OutputLayerNeurons":0}