{"HasData":true,"NewTraining":false,"autoSaveIncrement":0,"NeuralNetworkName":"JumpV1","StartTrainingRate":0.5,"InstanceWeights":[42.97813594495812,60.28047793516616,50.91473254770608,11.048547842480483,-55.84319512171037,11.186006587332237,77.13063218571854,-10.984137657798972,90.71738670457703,-42.98806582189208,-39.530369162869977,-6.209038845862663,25.20048294322638,-5.791653531797802,91.59150725872758,-89.21348829306446,68.83737905525537,94.098243008261,33.65808635548396,-35.22093331590779,60.201177181115578,66.1174003175707,93.443834006864,-88.7845095420543,37.981831507705759,4.993047774823676,82.44803448907914,35.64114861039964,8.893259446888316,-79.57413947439281,-59.43514954809789,-8.866166842631714,-38.530096959020699,92.80585874214425,27.10742021076202,49.95368412733988,-89.20830185325475,-22.60489109812798,-29.797443810850117,86.9001332125047,0.9743671174798475,41.02705905021924,-72.3844139998691,-43.036121882998568,77.33406188590272,55.99492867281068,-30.93371607059006,-8.12880107658596,-67.09062078522287,-52.94023999762055,-17.082863128861747,41.5502814923796,22.76347146452693,-2.2856400345283545,-57.95554401339493,71.84286692138034,61.81877522229526,44.717110795766988,68.04884762876796,34.145888397458659,23.720103392245734,-53.49264771867383,75.10473418930573,75.30939488497659,-78.53504756778705,64.31792897375462,-62.661073180834659,27.376755495074929,62.08305755143286,-53.344308162604558,94.97694485418177,-3.5398611406092739,28.91355552511783,41.74008443697198,58.786830860605117,-75.80801316309642,43.51968302344669,41.497824595869037,-71.13644013396362,76.96903412888867,-59.05536744857935,-4.405295728327647,7.749638101629727,-33.14863184948422,32.49085494846198,-6.003299746484716,63.352492986834068,58.73767436950038,55.779271461546247,50.246684583374847,83.11704019903773,-38.94328135502855,4.3283925670973188,31.03879908568411,-31.80210147373376,-40.51511645783927,60.904456154906629,-52.71167759085279,-59.48320560920458,-81.96599838184467,23.673870559652543,36.671659728327849,24.770272665974077,81.23581867137477,-52.935053557809798,81.43912930574068,-82.34540532673081,76.00551832154834,33.909660398859198,-77.12966214429099,-66.65894739605899,-74.66118066756643,20.87141963573795,86.06194479387264,-1.7808754479549867,-66.8567321734196,33.739845473689488,13.27123474479691,-52.16359135747769,22.450383472690644,-94.01669530707247,-26.416616256342249,66.57961532752212,-83.14575832593441,-41.479217067648928,38.93809491521755,87.1138775862862,92.85688773342727,-21.439945383287016,4.319816024451727,-41.73033802401037,1.2492293203064454,5.998898911080489,-84.15257304611176,-41.68696772475713,-0.7448958829141849,65.8065628996913,21.49595072424813,-75.1957095856673,46.0338569367141,-18.640025713746515,82.32910595927916,-70.1541173233516,37.92680231184406,21.92350068544117,62.79608957261089,35.1674303032267,13.248579067217868,-62.16245676035378,-59.9275005943074,20.727169362464325,-47.3489098838833,94.43404506061799,13.048542212097777,-82.93143436876479,-44.89164447799826,65.0741756947994,12.933899697915719,27.73290444503045,3.108982820965519,89.30738301344673,-80.22016176616575,2.4633324108422567,-65.39228691958545,59.58280717371222,27.07395457762723,14.322051715345684,10.04186138785734,32.76678122463684,93.94615172895283,-37.68116377911763,-82.73823654455161,-6.5151869635287789,-3.2153170001993875,-53.89172210755606,-81.36366997235854,-51.24463022698343,-66.3293182783149,-10.08712771738294,-9.293175346266816,-91.21146668200179,-21.1168327749244,60.03721319978794,-56.49457608297241,78.57477795598025,-89.3635594341192,1.7973155536812,87.93248799297568,93.76099261664543,-91.77745454075228,29.163059716279677,-42.10946809221733,88.74517757321061,16.677438887360187,51.70860521726052,-33.4019952415741,-15.116357745556268,90.22030089022695,73.32612643212463,89.83167740180646,-46.50809343672801,-69.85656237862368,75.46392913657386,-61.12647719531311,72.73579447880337,8.483274613022806,54.14840837363814,2.6672307668246355,-28.0418669743392,93.41436689758688,-88.62914554500792,36.42136267912133,-71.96110387869483,-57.95605150269533,-0.66168179102563,15.442084494378485,-45.27524367195978,-36.02422280017817,-48.984933581572828,53.96423531383935,-69.70549227004702,21.371695016363089,11.263000065204788,29.562104471395828,-30.199039281320674,-90.5538269808937,-76.50128282376928,71.78950544310377,40.05820907653347,74.4924044280115,28.734819067190445,-46.48279982321721,-44.67331341644708,-4.936673825196785,-57.76721320353197,73.62722699061487,-1.5986306175055299,26.181559101107778,-34.24823926778313,-24.890627951035353,-48.529836513765449,94.11221608084937,20.992223673321957,-94.63550557493434,91.83382229824943,87.72382833115164,-65.13049550751576,51.719097781912889,-77.64301061560671,-58.715610571111159,-83.10888286360695,-74.07426623937143,44.22310317780687,-75.62024017570778,64.55503837786104,27.10234284090238,13.862568850164319,-49.08030662881472,64.05469338000028,68.30749016570363,-9.997573857201175,77.34103422452763,57.59115298428438,-7.552140108357699,-30.302583463596606,52.83578557220263,-13.887455198424608,27.95770124049536,94.79329299482933,20.693222512352443,-77.94141618210965,23.52532852092534,93.20614776159809,70.88782566345543,7.511940533611764,-68.83557705690358,-94.60265995095252,10.916374346145997,32.71041346714016,-22.94073631847898,69.55879982061524,-33.23824931168911,54.45038476471825,3.791688353651504,62.61915599762557,7.826954012568547,4.27622829296904,-64.03520453473226,25.490419090935395,10.11257524955885,-35.2174731535426,-47.50045528268384,57.108997015100587,-7.573598139493801,80.08907720015896,-30.888739444299668,-58.46106819742791,-66.437767512313,30.649209182655665,-55.9840945679469,6.629152235583089,1.893934545981577,51.90793608107656,-3.3541018339666506,-75.75632568299493,-11.652080090539533,-72.29828270697608,68.31740880834447,11.849950584673602,38.40848414077125,26.72287149786114,-92.0359367899743,13.191411198038166,-7.98670159551354,93.73082163908114,-71.74145583950478,-72.09148183418391,-41.182666663360297,24.81083518800967,56.85259381782789,-46.422574014759558,-44.834381957685469,-92.51484914443248,-10.301413548722297,-39.07143562809819,64.54117039456769,61.39846279981762,5.797614607098778,85.78087975728983,-56.58145131608168,84.60762243451728,66.8172388553544,75.24929645748354,-6.287623258905934,65.41224273993098,-27.317266019359125,9.835945901227243,-37.177644695308128,-15.43411725734623,-20.710895205827776,-14.856894574448287,30.940950778617876,19.096976174586904,82.06406624415621,78.37183504569035,-38.16366765756103,34.29026481327109,-29.88643268337922,-6.322288484581852,56.84840174567079,-53.77938890410881,77.7037297599257,3.7335285936700468,68.77874665882034,85.42061074080606,-43.51859710072424,-0.5733476035786225,-32.77278166419383,-59.264797499861497,-45.31536478357015,21.93158840363554,16.886233979918207,77.5186603450483,-26.55072939323785,48.78299300024728,54.88776393649973,-72.30310195346493,-75.50309683704853,21.583186958548674,26.065956364447137,13.404729553260758,60.06829415511685,69.23358188797886,-49.460400900155587,-23.27264290171687,17.618606500615976,31.05077316172083,-79.59678409459666,6.308882699580075,94.07436332345636,-64.73122571269617,-3.697235810796064,-82.86222820231227,-66.04965328237442,92.18006888202008,-88.07823861940065,-31.898421032308755,-88.5115814953302,3.2738972942815569,13.948708546662518,68.23821287821245,-52.373403728571627,-72.89497848943933,-65.1008837677694,52.339647684529399,63.23900273962635,48.404421727563,-49.33442572616857,-61.70105805008343,-71.49806018480197,-60.84269699808933,14.81123035632677,43.51251165206517,62.59388644496413,-51.53845910158314,-18.865551765232739,-86.51198342204701,-41.78820180016714,-2.930741733455384,-27.180127053803419,20.412761031547359,-15.958694802975075,55.90046693021885,-58.35702952932445,-75.56627036486734,-69.35330707956112,4.76633088823749,48.58618233342942,-23.74866698126481,41.87910032565533,-8.195946325184238,-78.77365175212799,16.205137162662579,-87.34765288210702,52.80987478022722,-29.203998012160495,37.981141350563678,39.35233436175528,-6.8179172906921059,8.470485652649572,64.19631606704603,-14.596932406103904,77.08640524948003,-17.17518840961055,59.93492902755201,15.439675224970037,47.772383831131758,-50.47398335328324,80.47093711320231,16.063489353259916,93.41587609663893,-85.09235052613389,9.401291532118176,-64.52810694590818,88.51807880910795,-10.785223612805228,-13.291739364797591,80.44418233387721,-84.51674469689492,26.710823470098025,-36.50945944260419,94.80037068812656,69.39637254908969,-8.598027081745757,31.680017434375107,-77.05117653995397,93.58822448765744,35.87803324017918,-85.19811962925627,72.64767020457053,38.13543817819658,-30.88218648980898,60.01184678451769,83.58090390788738,3.605688173143433,-59.97243785634156,1.937031241538075,-21.906475954163466,-23.30982726288315,3.9761857041559045,-22.143559616700043,-39.74181705247235,63.097376514220787,55.16997495946763,43.445355523009428,-18.085727093042789,6.807188009747081,-14.24888718542243,-80.8836003972219,-31.387032900960088,79.06987264662958,52.51909031067913,28.8869477646574,61.45339053320306,-50.002186198739149,64.37807667291314,10.988826338799278,-9.29769896276737,46.12692545000744,42.003974273512998,16.83358203130579,-83.08778070304098,-60.25799501802023,-87.15886438536205,72.91018246905631,29.315931292454854,-50.122066016659207,20.80251891822309,26.84833617494153,53.50838537145639,82.25987643964918,-86.36739470462644,8.771878302768024,6.489200892941969,-46.12774820719495,-91.74977368412408,-63.279137120087558,-80.75573370437118,42.938748689237609,-45.21638676657492,11.123766744291743,12.854980379086655,21.7795023434081,41.17104456569661,88.55992885193368,80.59847916151046,35.21299703952667,93.54058754530793,38.600958812634569,34.20974279422354,24.020867098852244,-83.7474010896879,26.94872988982223,29.668329757596955,82.12473496684338,-34.03791020765227,-74.4659533284453,55.27410960559038,77.24192378440432,-80.8527070634384,-62.945792370376718,80.98680038551731,53.884907933629,-39.409854474685328,-18.664778046616953,70.45513605726416,-51.23491928608201,-72.58438442227743,12.599007446405148,-53.23454380860742,32.675082499006958,-3.2375712508223928,42.74568364198806,-3.6388190774106139,-64.1019237647718,-91.00352964177434,-9.885151752455889,-6.4469082897237028,-80.73666194330289,87.29383460153845,89.08506554692127,-48.68052226797365,77.18369139958138,87.62072467471029,-65.49461302138876,71.02514623534424,-18.333993300456343,74.08567983916389,19.346597220091824,82.89229329445007,77.69831093831341,-23.571115431684008,-63.015526194783,28.809324458682704,-77.25272569019087,25.119097652767853,53.95220373945058,-33.79277447589958,-35.14630868167933,-76.87733849932367,36.851267153599689,12.815250167811204,-14.040551195090453,-3.146628672750963,-93.4474709987763,-67.72369294431837,-31.510953437682635,-64.3945823267599,-1.2118777716243117,78.14613331462432,70.82937283879665,26.963086255271347,41.02864025489977,84.93022047685845,-74.95564131636586,80.71686119159014,-91.17902230805727,61.246314552911247,-68.89737274728907,5.292207012031821,-6.1930019362726,-30.3384678312533,3.0511496516235327,24.688845445947896,-35.95072345292792,-38.73593336330223,-35.20417635003226,-81.0457721106879,-21.36822468121236,5.761109876453295,-49.97360208723157,-71.07450857054919,-66.28273090203733,91.12280785001379,-44.53956384605413,-18.712315914883108,60.34216022111001,-14.65181122166042,86.08606437949396,-92.75305137106307,7.553968379033772,-48.92154226768927,-19.684573683204478,36.182595199460838,-82.91921083833943,-44.24690661095083,30.382375607409217,-52.96361537764881,8.78283448105603,-62.98745558778814,21.315988666832707,87.68802048053186,-59.87753302260295,54.54361560028172,24.29779473094217,-27.792396309139506,-85.21803077780581,56.25273465295435,-62.1780365138158,40.270593658518787,62.462614699707028,-45.447312620987769,51.95577364844488,88.00914364591597,33.13760410786246,46.92175011535263,-1.7363141366841642,44.887963698879449,34.48765302892021,38.73880589250959,-74.60743032351327,18.454920207595746,70.1423814674099,-71.12645267021851,92.72036992699081,-52.253590962576478,84.32823714594442,61.85068574615551,12.625924990294598,-86.68594813597027,25.863822323281626,-77.22269226637619,5.153524702249153,-53.36290038741726,79.42725250361343,-42.67949127377095,83.78515574604669,-25.84421520832624,-28.157118174921665,78.23496375707824,-28.476416431070633,-90.89270572583746,-47.45590600183748,-49.166660573018308,-60.23353477677764,-41.98085029397149,-5.895184622141453,-12.711586035126823,-91.93714020239448,-34.85882965969956,52.47153881972604,80.47654320252268,7.5308628874239329,65.02615988253929,-83.36215655826793,-92.1210628347563,-77.43649228087117,-83.73321164637717,56.805376967284157,-18.43074560047439,-17.138502161090803,-52.08658522996802,-51.355321631333207,-70.4742196718392,-80.57535995875482,44.70317567209071,44.38129397075587,10.336542741869574,-86.40024015169147,-19.165035912359156,58.11872566329902,-70.87423022235055,-21.937049420191973,51.23482056583491,-27.7669089704125,-78.6968558916681,-29.071305084560096,24.326910746435723,84.08921340055173,39.719088926969458,48.62372495355811,2.0576918870780798,58.805694654557758,-47.49737664399852,-44.17535566170298,40.369410414751637,10.228576140192408,35.10949611370298,-64.98287512314201,76.56618404437643,-60.225130286892809,72.53623609843095,12.332539118382778,85.25575871954625,0.39133462417629108,-71.37196249509559,55.44474719948835,-71.9638176239916,-63.57343190825543,-9.954579154875234,8.619987029265412,78.75040392998209,-21.29347717742868,22.210027003957625,2.00457597099442,28.363637748083904,7.431461328722057,51.278173615582087,-2.189062441041446,90.31683062739279,31.932373543796947,-6.781271733313708,-72.84029375293602,-77.8958432536786,27.927660739960368,75.78593724582436,-15.91014859053254,91.12418630665884,68.68326728385722,-25.962639079513939,-60.50753176209481,-85.71033343693994,-19.662713428981257,-67.98429290207504,-53.92203691945905,80.56462085886082,11.77536195325936,-12.210676845744667,-44.13864535233469,-51.37707776930958,-39.15947179716371,-52.08961875456141,-7.081788639301489,-0.9383387385661104,-63.883029396288787,64.8554523175692,-71.63096222948616,-58.38646364339299,45.48017867899933,22.443137884205706,-62.04418220796355,53.93253381860344,-57.6835727392483,-60.31757445654213,-50.348320793413098,41.538272740413749,50.39439855737378,-4.753748921931535,-37.65403331440787,19.587528672345355,39.520317389429759,59.30269218682243,-45.66495361385552,57.37133846525087,-44.429178686773308,-0.6518108277876642,3.430986064970314,-48.291315569346298,-18.850067370576139,16.422086406126384,-78.39385549916851,-75.33999311952624,0.43468767392377308,-45.79411596572455,34.49417113056365,-10.960138995634747,-94.68161438800543,23.08017627962309,80.96931743660318,58.05433971638455,52.434768181317448,-52.505816241132638,-49.338123666334279,-48.74200189434155,-58.90058816554344,-19.457934286705198,66.95537059630157,-54.32727026643223,77.34615918533086,-0.47817836588006459,-64.8119089925057,-78.45302041880189,-69.53877482532963,31.255957269313006,4.08473613525348,-3.4800326899933489,88.55746615328705,30.529004189440383,-51.491291345785587,31.750912725491724,-33.55766504139426,71.64248463385296,55.44573502117634,-65.92403902111977,5.854862089381213,-81.68632038242986,-41.48428514931374,83.0926745204694,0.1703857068873094,55.59394949621497,41.23775583442564,-67.66790901624229,9.259064935458348,-0.7262417367993816,62.1348917850208],"DNAVersion":17,"PerformanceSolvers":[{"ParameterName":"Timer","EvaluationParameter":133.00160217285157,"EvaluationParameterWeight":1.0,"ParameterType":1,"ExpectedValue":0.0}],"PerformanceCoefficient":131.61415553092957,"NetworkTrainingRate":0.19874465465545655,"InputLayerNeurons":0,"OutputLayerNeurons":0}