{"HasData":true,"NewTraining":false,"NeuralNetworkName":"Jumper V9","StartTrainingRate":5.0,"NeuralNetworkDna":{"Weights":[-2.275826930999756,3.763370990753174,-3.913461685180664,-2.110456943511963,-1.5358397960662842,4.350231647491455,-0.6249067783355713,3.7851719856262209,4.261727333068848,0.4272770583629608,-0.44154292345046999,2.9774491786956789,-4.34344482421875,1.2668747901916505,4.296934127807617,1.8810960054397584,-5.14573860168457,-0.8847672939300537,-3.1846914291381838,-2.8961501121520998,4.150315761566162,1.1487743854522706,-2.443303108215332,-0.01310257613658905,3.1140666007995607,1.160110354423523,4.960649013519287,-0.40732771158218386,-0.9527155160903931,-0.4410538077354431,-2.085218906402588,0.6849279999732971,3.821559429168701,-3.7445998191833498,0.6692790389060974,5.203510761260986,3.530183792114258,1.2751206159591675,4.565332889556885,3.4982666969299318,3.7799341678619386,-1.1017889976501465,-3.3517301082611086,0.643987238407135,4.7454423904418949,2.7600347995758058,3.6141164302825929,-3.4814677238464357,-4.160618305206299,6.251896381378174,4.585102081298828,-1.5836132764816285,-3.846057415008545,-3.0057225227355959,-1.4608689546585084,3.4691293239593508,-1.5066418647766114,2.2621476650238039,-2.5673766136169435,0.468015193939209,2.458972692489624,-2.876258373260498,3.403980255126953,2.330242872238159,1.375816822052002,5.173524379730225,-0.3614078164100647,-3.4428415298461916,3.5560901165008547,6.082569122314453,1.6646844148635865,1.3126611709594727,-2.193227529525757,2.993349075317383,-0.6053098440170288,2.989640474319458,-3.9544131755828859,4.437184810638428,4.1823506355285648,3.8977603912353517,2.283613443374634,0.9005752801895142,-3.3148000240325929,0.2809506058692932,4.297229290008545,-1.293419361114502,-0.5797679424285889,-2.6938273906707765,0.7690930366516113,4.837353706359863,0.38584670424461367,3.277085304260254,-0.6290739178657532,-0.031727999448776248,5.659112930297852,-1.2732748985290528,-2.4575557708740236,1.9370465278625489,-2.9854965209960939,-3.1309664249420168,-3.3536486625671388,-4.00584077835083,-5.053374767303467,-1.739875078201294,-1.233717441558838,1.0524145364761353,0.5861252546310425,-3.736367702484131,4.541689872741699,-3.098978281021118,2.545602560043335,1.674206018447876,3.4046382904052736,-0.3371760845184326,-4.420973300933838,-3.5680348873138429,3.770730495452881,4.721100807189941,0.16818355023860932,1.3610684871673585,-3.945667266845703,-1.0031685829162598,-0.21940603852272035,-1.647963047027588,-1.5900334119796754,4.8308610916137699,2.5627238750457765,0.8473224639892578,-2.7266077995300295,-3.1130530834198,-1.2187758684158326,3.606194257736206,5.101956844329834,5.306772708892822,-1.4523802995681763,4.676349639892578,-1.212432622909546,3.466947078704834,4.5934343338012699,-5.478285312652588,-2.200260639190674,-3.9278531074523927,-2.7764739990234377,-3.304238796234131,-1.5480960607528687,-3.5054681301116945,3.696732997894287,4.99882173538208,-2.305067539215088,5.615067481994629,-3.951251745223999,-3.021461009979248,5.025943756103516,2.967360019683838,-4.41335391998291,-4.513489723205566,4.4989399909973148,5.4626688957214359,3.9650039672851564,3.0575156211853029,-2.733534574508667,-1.6186044216156006,1.577934741973877,1.4256806373596192,-1.5651190280914307,-1.878116488456726,-1.9103186130523682,-3.076951503753662,-0.9151790738105774,-3.223950147628784,-0.5757874846458435,2.6891698837280275,-3.585296154022217,2.4028849601745607,5.762570381164551,3.120004415512085,-2.673676013946533,-2.178765296936035,5.433950901031494,1.1924870014190674,5.821846008300781,3.7686920166015627,1.670644998550415,2.1951475143432619,-2.3624374866485597,4.1890869140625,-1.3829915523529053,1.4543752670288087,-4.0270490646362309,4.579238414764404,-2.2360177040100099,4.183094501495361,1.848181962966919,1.2901190519332886,-0.08683717250823975,-3.9796142578125,1.8030604124069214,-0.9521430134773254,-4.052367687225342,-1.6038426160812379,1.0209447145462037,1.1546227931976319,-1.2756012678146363,4.340845584869385,-0.1410730481147766,-4.54945707321167,-4.973575115203857,-1.0793195962905884,-1.999389410018921,0.013372212648391724,-3.6505234241485597,4.0642900466918949,-1.0715715885162354,0.024996504187583925,3.3678481578826906,4.526035308837891,2.9295148849487306,-1.596265435218811,3.366929769515991,2.457986354827881,-2.0314829349517824,-1.7180677652359009,1.5171095132827759,0.2507747411727905,4.761233329772949,4.588779926300049,1.7973756790161133,3.354231834411621,-3.7735748291015627,0.059386592358350757,0.42150986194610598,-0.012212589383125306,2.847472906112671,3.211548328399658,5.334641933441162,-4.2102179527282719,-3.3958778381347658,4.568456649780273,0.794455885887146,6.082780361175537,3.8095152378082277,-0.5990835428237915,-3.2095346450805666,5.434439659118652,-1.2930289506912232,2.4574949741363527,2.303152561187744,-0.38031429052352908,-0.38966646790504458,2.6604557037353517,-0.11300313472747803,-1.660080075263977,1.0038890838623047,-0.8923035860061646,1.3741042613983155,1.3232967853546143,-2.748440742492676,-3.1113109588623049,3.790194034576416,3.7145888805389406,1.4876737594604493,-0.5813424587249756,-2.949314594268799,0.6580013632774353,5.773916244506836,2.8659205436706545,3.1570653915405275,-1.0241833925247193,-2.647209405899048,2.2790000438690187,-1.5202826261520386,-3.610734701156616,-3.038313388824463,0.8799368143081665,4.6137919425964359,0.6259853839874268,-1.6462962627410889,-1.4305404424667359,-2.934809446334839,-0.2483053207397461,1.140089988708496,-1.5335559844970704,0.4132552146911621,-1.4911236763000489,-3.784668207168579,1.0864628553390504,4.8161301612854,0.9029808044433594,5.484622001647949,-3.6913061141967775,2.0236716270446779,-2.9525420665740969,4.9195556640625,-0.9209812879562378,-3.3903164863586427,3.5755600929260256,5.106239318847656,-0.5521767139434815,-3.586308479309082,-2.845428943634033,1.4010002613067628,2.931701183319092,-1.791838526725769,-4.092263221740723,4.350236892700195,-1.3877062797546387,1.234934687614441,3.676177501678467,-2.4948301315307619,0.8868314027786255,4.135115146636963,-2.9624576568603517,-2.46793532371521,4.461939811706543,-3.3675014972686769,-1.4807021617889405,5.9654741287231449,2.5371804237365724,0.19054892659187318,2.135735511779785,-3.770872116088867,2.705615520477295,5.4510087966918949,0.11004149913787842,4.252869606018066,-1.309967041015625,3.774646759033203,2.2795515060424806,-4.420999050140381,4.537196159362793,4.387842178344727,0.013955414295196534,-0.22619745135307313,-2.450287342071533,1.7707791328430176,4.141624450683594,3.3103225231170656,0.14329960942268372,-1.261877417564392,4.6656646728515629,3.043977975845337,5.259970664978027,-2.229480266571045,4.28755521774292,-3.8161544799804689,-1.164629340171814,1.734450340270996,3.630769729614258,-2.2546157836914064,-2.0123214721679689,-5.567492961883545,4.599564552307129,2.83602237701416,-3.691464424133301,-4.757594108581543,2.7756757736206056,0.5554832220077515,-0.10931801795959473,4.540715217590332,3.4429948329925539,-3.298051595687866,0.7123749256134033,3.600181818008423,5.530374526977539,2.8982911109924318,3.5849695205688478,1.388321042060852,3.10190749168396,-3.332540512084961,-0.4766671061515808,-4.223717212677002,3.3127479553222658,-1.698577642440796,-3.9067695140838625,-4.5759382247924809,-2.1865851879119875,-0.9130792021751404,0.5536168813705444,-0.9637821316719055,-1.7783942222595215,-2.347543716430664,-0.9821139574050903,5.847808361053467,-3.527815580368042,-0.6997367143630981,3.885251760482788,2.4333748817443849,-1.7801086902618409,1.726108431816101,-4.437549591064453,-2.3656909465789797,2.2061328887939455,1.6892144680023194,5.93912410736084,-2.025758743286133,3.209022045135498,-2.266528367996216,4.088169097900391,-1.6434731483459473,-2.3566722869873049,3.8771777153015138,-3.5812690258026125,-1.5245460271835328,3.384228229522705,-1.6905922889709473,5.041881084442139,-2.5876965522766115,6.367664337158203,-0.34922197461128237,-3.561478853225708,2.66428804397583,-2.7819247245788576,-2.239373207092285,2.7895760536193849,2.094892978668213,2.248760938644409,4.094561576843262,1.067875862121582,2.7531466484069826,0.28849902749061587,3.2350261211395265,-2.8592514991760256,1.3014729022979737,-3.214191436767578,-2.9831793308258058,-4.325451850891113,4.201690673828125,3.5097975730895998,4.542657852172852,0.2771223485469818,3.0822370052337648,1.6910831928253174,-1.1928329467773438,5.267497539520264,-0.6611589193344116,2.272103786468506,1.8947447538375855,0.6780481934547424,4.283756256103516,2.4546573162078859,1.262236475944519,-0.752605676651001,-2.659195899963379,2.7631845474243166,5.102987289428711,5.894223690032959,0.4384618401527405,-0.038040220737457278,4.620689392089844,3.1310577392578127,0.19919681549072267,2.0165319442749025,1.6700823307037354,-3.7002792358398439,-4.706327438354492,-2.2067642211914064,3.051881790161133,-0.6654354333877564,0.3644898533821106,4.472611904144287,3.2544212341308595,4.536067962646484,-3.395185947418213,1.4666643142700196,2.0552971363067629,2.5926451683044435,2.336458206176758,1.2703777551651,-2.011514902114868,-1.7492733001708985,1.6524925231933594,1.8173694610595704,1.2586184740066529,2.853179693222046,2.089414358139038,-0.391698956489563,-1.303138256072998,3.345109701156616,-4.784665107727051,-1.6709681749343873,1.5045615434646607,-0.8975873589515686,2.3303048610687258,-3.824781894683838,0.6086605787277222,3.9779152870178224,2.727106809616089,0.11909472942352295,-2.962495803833008,-4.035284996032715,2.16660213470459,5.731296539306641,-3.2110118865966799,2.0142321586608888,0.514509916305542,-4.663720607757568,2.113265037536621,-2.762082099914551,-1.560070276260376,-2.425307273864746,4.513441562652588,1.1456865072250367,1.3342652320861817,-5.488040447235107,1.9672149419784547,1.9325461387634278,1.7100054025650025,-3.6530301570892336,-0.7485517859458923,4.980623245239258,4.229605197906494,2.2815802097320558,0.32003411650657656,5.0927958488464359,-2.8868110179901125,-1.110219955444336,1.5892360210418702,-2.2645492553710939,0.44985127449035647,2.5256729125976564,0.702713668346405,-3.401646614074707,0.12933242321014405,4.894107818603516,-3.028583288192749,-0.18188917636871339,3.805475950241089,-1.3338279724121094,-2.4267401695251467,-1.0868290662765504,1.4768805503845215,-2.799971580505371,-1.7375918626785279,4.189874172210693,3.149325370788574,-2.5797412395477297,-1.781651496887207,3.247549533843994,1.8747591972351075,1.1568107604980469,-2.892167329788208,-1.1673760414123536,-1.3738073110580445,0.07319793105125427,-0.7241628170013428,-1.1634349822998047,4.214367389678955,-1.809874415397644,4.635422706604004,1.5927889347076417,-3.7124648094177248,-4.387383937835693,3.0405163764953615,2.5816903114318849,4.277892589569092,4.7519121170043949,2.7852561473846437,0.20719552040100099,3.342073440551758,-3.881381034851074,2.709440231323242,-0.6660651564598084,0.5692843198776245,1.9139320850372315,-2.0205302238464357,2.865211009979248,0.2950732707977295,4.031419277191162,4.77907657623291,0.9531868100166321,0.12373322248458862,3.0594353675842287,5.450768947601318,5.899406433105469,-3.4081997871398927,2.2896568775177,0.8199541568756104,3.9269018173217775,3.85345458984375,0.8284543752670288,-0.5806867480278015,4.724560737609863,-4.521023750305176,0.6906054615974426,-4.708139896392822,1.2377636432647706,-2.155301094055176,4.598871231079102,-1.9380160570144654,-3.2191405296325685,2.3736894130706789,4.538543224334717,3.1590089797973635,-1.304956316947937,1.0103518962860108,1.2678085565567017,-1.8715420961380005,-0.8594956994056702,-1.6380094289779664,-3.525697708129883,4.453113079071045,-4.404012203216553,5.978486061096191,-4.485040187835693,0.2815757095813751,-1.7004321813583375,-4.13983154296875,5.888660430908203,-2.70019793510437,3.9652981758117677,-1.0185296535491944,2.4623048305511476,3.7396039962768556,-0.7967618107795715,-3.3694825172424318,4.721676349639893,-3.861898899078369,-2.2914109230041506,-2.198925495147705,5.078765869140625,2.642272710800171,-3.0916378498077394,-1.6651129722595215,0.5797969102859497,2.2464325428009035,-0.5986564755439758,-2.534794807434082,4.444376468658447,6.399520397186279,1.0141338109970093,5.152820110321045,1.8676598072052003,-5.203178405761719,3.780611038208008,-0.8134459257125855,3.736288547515869,3.0343801975250246,-2.4732847213745119,-3.5187041759490969,2.9696245193481447,0.4202697277069092,-3.92803692817688,-0.8298747539520264,1.7007969617843629,-1.7343263626098633,0.5745947360992432,1.1206085681915284,2.785106897354126,-0.4917309284210205,3.815281629562378,4.6026225090026859,2.521016836166382,4.557609558105469,4.7038726806640629,1.844354271888733,1.4312024116516114,4.432348251342773,4.740267753601074,-3.536315679550171,-0.7849611043930054,4.288634777069092,2.0924317836761476,-4.18731689453125,1.0916693210601807,-3.0184059143066408,4.493486404418945,-0.9327639937400818,0.7591617703437805,-2.303468942642212,-2.7625892162323,5.618252754211426,4.715681076049805,-1.088817834854126,-1.524520754814148,4.998311519622803,3.233813762664795,-0.34518250823020937,1.9462473392486573,1.7179641723632813,-4.657435417175293,2.868842601776123,-3.5374860763549806,-2.2739434242248537,3.6575927734375,-0.9634373784065247,-4.475310802459717,-1.3455256223678589,-3.809375762939453,-1.370609164237976,0.5425253510475159,-0.18348515033721925,-0.8722549676895142,0.3899875581264496,2.8206324577331545,-2.8457956314086916,-4.455254077911377,-1.4298733472824097,3.1029062271118166,6.334097385406494,-4.702727317810059,5.555600643157959,0.02646470069885254,-2.769240140914917,0.17092615365982057,3.5613417625427248,1.0088871717453004,-0.9528752565383911,3.8251352310180666,0.03801998496055603,-2.9701743125915529,1.7982231378555298,-0.2701627016067505,4.732433795928955,-1.4029673337936402,2.30500864982605,0.9083776473999023,-0.701286792755127,0.14766520261764527,5.186446189880371,2.8296701908111574,2.638061761856079,0.05853676795959473,-0.15028269588947297,-0.40523070096969607,5.405059814453125,-3.0051417350769045,4.062319278717041,2.1578497886657717,0.040775805711746219,-1.662319540977478,-2.8935422897338869,-3.4287614822387697,3.3558568954467775,1.9495049715042115,4.201659679412842,-2.7391836643218996,-2.156770706176758,-0.7394019365310669,4.437212944030762,4.0573272705078129,-2.553222417831421,4.459874153137207,-0.4746558368206024,2.3238420486450197,-2.0922722816467287,3.7170214653015138,-2.847377300262451,1.8487796783447266,5.553493022918701,2.0010695457458498,2.0174949169158937,1.0170047283172608,0.3991856575012207,0.5130277872085571,-1.2093967199325562,4.418695449829102,-3.076883554458618,-1.6925498247146607,-4.6750898361206059,-5.35698938369751,2.936117649078369,-2.4948456287384035,-3.2468786239624025,3.1589133739471437,-3.5275774002075197,-2.018585205078125,-0.6597889065742493,0.9628680348396301,-3.728973865509033,-1.851644515991211,1.8263592720031739,2.9248576164245607,4.498475551605225,0.9993003010749817,-0.9684362411499023,2.0902457237243654,-4.088351249694824,0.5579177141189575,-2.2592403888702394,-3.3437552452087404,-2.0819690227508547,-0.4494115710258484,-1.0247129201889039,-3.056126832962036,-0.7528523802757263,-2.3902170658111574,3.829404354095459,1.3024275302886963,-1.1126569509506226,-0.20291480422019959,-4.263917922973633,-0.6874345541000366,-4.902628421783447,-4.781023025512695,-1.9540528059005738,0.3094611167907715,-1.1297063827514649,4.1704254150390629,3.8941099643707277,5.6517438888549809],"Biases":[0.0,1.0,1.0,1.0,1.0,1.0,1.0,0.5]},"NetworkTrainingRate":1.1934970617294312,"PerformanceSolvers":[{"ParameterName":"Timer","EvaluationParameter":71.05805206298828,"EvaluationParameterWeight":1.0,"ParameterType":1,"ExpectedValue":0.0}],"PerformanceCoefficient":10.609489440917969,"DNAVersion":3}