{"HasData":true,"NewTraining":false,"autoSaveIncrement":1,"NeuralNetworkName":"JumpV1","StartTrainingRate":0.5,"InstanceWeights":[50.25828838346191,70.49150870197023,59.53928096431613,12.92008346748693,-65.30258567461435,13.080826624156984,90.19594429486536,-12.844762712750172,106.08418634609294,-50.26990030211759,-46.22649748785355,-7.26080035902741,29.469243170183629,-6.772713311507345,107.10637592985427,-104.3255395736505,80.49788042346624,110.0377326634857,39.35949694644256,-41.18707768044159,70.39877503452616,77.31715904526291,109.27247201199809,-103.82389525370381,44.415649940961738,5.838830127506463,96.41407201346681,41.67847408443567,10.399706458257624,-93.05336217214425,-69.5029884480814,-10.36802458355912,-45.056787174046657,108.52642884072557,31.69920035687332,58.41543862915518,-104.31947459242302,-26.433978829175957,-34.844892436787748,101.62032064742631,1.1394171130265074,47.97671466980243,-84.64575471426602,-50.32609667556517,90.4338333589862,65.48002167552456,-36.17364012806202,-9.505754955079164,-78.45523527515306,-61.907893173813487,-19.976563493704974,48.58856680830516,26.619421441127323,-2.672809173092755,-67.77274957145544,84.0124738926232,72.29038124439613,52.291831663595498,79.57577808094898,39.92992875230335,27.738099165114517,-62.553874343994667,87.82687538341645,88.0662039638133,-91.83825640846014,75.21287165013,-73.27535773940532,32.01415888388266,72.59943088604379,-62.38040725372496,111.06527957319696,-4.13948530178218,33.81128054584899,48.81052085344069,68.7448497609562,-88.64928418970109,50.89156920510473,48.527224133138897,-83.18638405826543,90.00697281986202,-69.05887429885594,-5.151517585878425,9.062364805164647,-38.76374492235333,37.99454587598489,-7.0202107019625139,74.08389852973781,68.68736655347068,65.22783385775601,58.75807101867469,97.19640193918289,-45.5399617015943,5.06158764429915,36.29652336533324,-37.18912307211254,-47.3780530974028,71.22118384081051,-61.640614123654717,-69.55918482152909,-95.8503828455683,27.684034860505478,42.88354554247929,28.966158713301394,94.99651653299596,-61.901828192585778,95.23426636250139,-96.29405829196782,88.88024514211128,39.653685620375359,-90.19480993617906,-77.95043986690581,-87.3081874431671,24.406871167436547,100.64014981551148,-2.082541503265177,-78.18172780343113,39.45510540526491,15.519275751345552,-60.99968646659617,26.253298847926457,-109.94237143403197,-30.891379738451506,77.85766958055098,-97.22998468705475,-48.50546463848365,45.53389672036696,101.8702716083429,108.58610173493988,-25.071700628871058,5.05155830393484,-48.79912347608685,1.4608387743350365,7.015064400243881,-98.4073457671214,-48.748406595067908,-0.8710752869110008,76.9536682552444,25.13719282659312,-87.93326128419155,53.83162406790762,-21.79749696441896,96.27499794205053,-82.03766362132905,44.35129923951051,25.637166331156043,73.43324482792539,41.12451168539315,15.492782383211804,-72.69227968582575,-70.07873982310544,24.23818605175645,-55.36943646495972,110.43041689736529,15.258860884968563,-96.97935596596006,-52.49592995546724,76.09722051635265,15.124798845932123,32.43063661705512,3.635619641471296,104.43533930858284,-93.8088154724837,2.880601216557928,-76.46921723798394,69.67565809433219,31.660065913183538,16.748092711013507,11.742872380133788,38.317211856155079,109.8598783380701,-44.064051504251597,-96.7534319757527,-7.618807518887094,-3.7599659800793656,-63.02054874207887,-95.14602482165928,-59.9250606715467,-77.56497421338415,-11.795806463786694,-10.86736491198491,-106.66195951945093,-24.69385532929318,70.20703686634134,-66.06430536018982,91.88471680660278,-104.50103156555142,2.10176643139377,102.82754806969953,109.64335475326311,-107.32382119402453,34.103048751160368,-49.24247514511196,103.77790076396201,19.502463628761335,60.4676293137491,-39.06002604635972,-17.67694782893123,105.50289817107911,85.74698569960255,105.04844497239697,-54.3861924375122,-81.6897052491649,88.24691508148124,-71.4808134694716,85.05665623557035,9.920273473084818,63.32071560835193,3.119038323020641,-32.791934927376747,109.23801341012356,-103.64221383834465,42.5908501753127,-84.15073924470568,-67.77334302538411,-0.7737653935024369,18.057850083451688,-52.94450778440077,-42.1264379776764,-57.282589490162099,63.10534510545927,-81.51304507263466,24.991889195738226,13.17086218129519,34.5696884957555,-35.314514967514529,-105.89292091356367,-89.45998818529036,83.95007340677545,46.843749260595917,87.11082185870547,33.602267561696709,-54.356614288201459,-52.24061535856251,-5.772906881759165,-67.55251702889703,86.09909028413854,-1.8694258563498652,30.616505781388935,-40.04961704133567,-29.106901220906406,-56.75040261947877,110.05407266279767,24.548138442651987,-110.66600321128419,107.38973719874456,102.58354313027195,-76.16308045483086,60.479899234922097,-90.79511553216055,-68.66156532412676,-97.18686281638333,-86.62185440567869,51.71414310681711,-88.42970396028079,75.4901454906071,31.693262921173866,16.210777123964417,-57.394117968698747,74.90504605246709,79.8782325947099,-11.691082896049096,90.4419867560002,67.346633616849,-8.831412231657636,-35.43559870599791,61.78574500428112,-16.23987902054905,32.69351219147794,110.85051855793691,24.198488876783356,-91.14406861462295,27.510330988634789,108.99452361808358,82.89565628516877,8.784403170514075,-80.49577318100798,-110.62759380133832,12.765520838155105,38.25129585143534,-26.826713543362407,81.34150409569139,-38.86854286578815,63.6738443845121,4.433970030298312,73.22634012066443,9.152777412951366,5.000587159405844,-74.88225595270576,29.808292182058076,11.825564604353352,-41.1830313942502,-55.54665244207526,66.78280428334611,-8.856505081621206,93.65552622956675,-36.12104482105511,-68.36390550847635,-77.69179388011448,35.84094004913786,-65.46735235996097,7.752077596396822,2.214751908115484,60.70072523140911,-3.9222598545195388,-88.58884126392866,-13.625849250593868,-84.54503346933817,79.88983137607248,13.857237423629196,44.91457411719064,31.249512168087656,-107.62608826861509,15.42593073429018,-9.339584958594795,109.60807305344285,-83.89388458468508,-84.30320218293595,-48.158680967873589,29.01359220210232,66.48296843547519,-54.28618670954888,-52.42896762226738,-108.18612454500425,-12.046390600840479,-45.689824283390667,75.47392838187716,71.79887125971308,6.779684145280412,100.31147461002615,-66.16589656285531,98.93947688189235,78.13554463320075,87.99592534344127,-7.352696343028043,76.492553414665,-31.944592366848409,11.502076457227123,-43.47524031539287,-18.04853326019765,-24.219155183166167,-17.3735336721347,36.18210033775772,22.33185117808919,95.96506261929224,91.64739699069001,-44.628287680059397,40.09876137805876,-34.94895531248356,-7.393233580639566,66.47806625982794,-62.889187192543179,90.86612001382214,4.365958472207385,80.42931616808724,99.89017890401249,-50.890299335760008,-0.6704681013044624,-38.32422872217466,-69.30378012555316,-52.99142509138077,25.646624044117226,19.746626939805599,90.64970132047088,-31.048210567939834,57.04644178972228,64.18531208931151,-84.55066905763249,-88.29271747710613,25.239206181164218,30.48132086586679,15.675383512511838,70.24338268688079,80.96119684674835,-57.838597169155658,-27.21484244681462,20.603057507117656,36.31052575406749,-93.07984260987165,7.377556962893914,110.00980795109243,-75.69617755060614,-4.323517982227629,-96.89842682850417,-77.23793620422619,107.79463518411245,-102.99798768635346,-37.301758393430947,-103.50473537906984,3.8284693073837539,16.311508196000895,79.79722028888041,-61.245039375022447,-85.24280474426398,-76.12845272324097,61.20556532714098,73.95118394248407,56.603743571711088,-57.69128280839539,-72.15272372485461,-83.60925965304567,-71.14896317685151,17.32013430074055,50.883183060776428,73.1967901079177,-60.26866180710819,-22.061225324999858,-101.16642138735125,-48.86678891306133,-3.4271859395225046,-31.784223157529387,23.87051946459671,-18.661970045856849,65.36955886935572,-68.24224352222169,-88.36659209519925,-81.10120252807902,5.573709213885648,56.816292970272638,-27.77150119762773,48.97308492165147,-9.584274071681993,-92.11727823298637,18.95015776993446,-102.14364656926078,61.75544513141083,-34.150921666889967,44.41484287672056,46.018305015565157,-7.972817941872406,9.905318165125755,75.07065848983058,-17.06953599196139,90.14422566940678,-20.084527938484706,70.08742657351994,18.055032703077655,55.8646435114201,-59.023872381998,94.1020701573067,18.78451595468789,109.23977825542183,-99.50631403479405,10.993795114876758,-75.45865208951118,103.51233328582849,-12.61215421968709,-15.54325368995381,94.07078333238171,-98.83320518246615,31.235423300795895,-42.69386982582587,110.85879515586309,81.15156294365693,-10.054464092081796,37.04635897306067,-90.10302949828926,109.4413210852306,41.95548507561324,-99.62999957791702,84.9536044142058,44.59527635270372,-36.113381848491929,70.17737358323572,97.7388404497758,4.216462907064226,-70.13128909786619,2.2651488391602836,-25.617257746583954,-27.25832554131735,4.649719756147519,-25.89450148507522,-46.47376295854079,73.78556736739052,64.5153274021086,50.8046512206536,-21.149304591312057,7.9602712065609,-16.662534694978619,-94.58463530066476,-36.7037452033262,92.46367657748799,61.415404098762859,33.78016564360714,71.86310331175604,-58.472156563472449,75.28320788839204,12.850245618806218,-10.87265479293532,53.94045764287904,49.11911151738481,19.68505617227161,-97.16218611861696,-70.46521735850469,-101.92287881132448,85.26058415640856,34.281815549489447,-58.61234306360565,24.326299219525035,31.39622955784888,62.572277829270237,96.19404149557654,-100.99734049779402,10.257764319275106,7.58841961581066,-53.94141976855327,-107.29145142170917,-73.99811676595199,-94.43510901287624,50.212229241688429,-52.87568099005152,13.008043849574243,15.032511225784653,25.46877582185367,48.14509017983344,103.56127239114189,94.2512168083655,41.17779706232521,109.38561482590373,45.13965245882433,40.004599573096417,28.08980983775195,-97.93354092232852,31.51362916496115,34.69390749572214,96.03600813830025,-39.80365992088244,-87.0798901544601,64.6371016242898,90.32608780012468,-94.54850888326028,-73.60830608213094,94.70531654146032,63.01258030159678,-46.08556857551078,-21.826442144478937,82.38967252085802,-59.913704774936579,-84.87959852662786,14.733178525884743,-62.25204969618732,38.20998009991969,-3.785989922741746,49.986460519800349,-4.25520592149366,-74.96027688661386,-106.41879960793753,-11.559617386046537,-7.53896298391399,-94.41280664804181,102.08071190246737,104.17536304158866,-56.92661333508509,90.25799131512527,102.46297453917677,-76.58887656290604,83.05623786348146,-21.439625108331137,86.63520137797723,22.623756031934794,96.93358470675376,90.8597832871752,-27.56387383581761,-73.68985225857698,33.689393570524519,-90.33871946234528,29.374071862538476,63.09127547861215,-39.51700015705961,-41.09981223011191,-89.89974468414003,43.09357702887741,14.986051034528947,-16.418908254405069,-3.6796423994126128,-109.27672508124724,-79.19554479393055,-36.84865688770459,-75.3025094679692,-1.4171601720885568,91.38346319181332,82.82730201958846,31.530417383878118,47.978563717907487,99.31672045208151,-87.65252737042458,94.38965180737873,-106.62401932808939,71.62095031684423,-80.56803656702879,6.1886645464640479,-7.242046925235178,-35.47756159848958,3.5679899958616918,28.870938373555558,-42.0404884289381,-45.297490618687259,-41.16748221858924,-94.77427760514857,-24.98783101357302,6.736995805272133,-58.43873053212508,-83.11396178341095,-77.51049530822658,106.55828259052234,-52.08420968083437,-21.882032547364607,70.56363947374433,-17.133710839886658,100.66835506599959,-108.4646763233995,8.833550196761566,-57.208460194786187,-23.01898300435841,42.31163739454592,-96.96506186725907,-51.74197865112742,35.52890700069925,-61.9352281562342,10.270576386524459,-73.65702671529948,24.926746636203384,102.5416697161925,-70.02030814445468,63.78286777784832,28.413646795519289,-32.500205927057198,-99.65328351575761,65.78149792646387,-72.71049852489897,47.09211009186385,73.04328197908319,-53.14572383698043,60.75666610002787,102.9171885770634,38.750849169514228,54.869919248575339,-2.0304318623197874,52.49162568180867,40.329585578491727,45.30084973136477,-87.24533222078967,21.581036066221765,82.02393980526858,-83.17470479805343,108.42645890412669,-61.10493128487355,98.61276596029293,72.32769715574013,14.764655686390287,-101.36985433223492,30.244946935037907,-90.30359861677967,6.0264905627513178,-62.40214885269809,92.88159372349323,-49.90905569389311,97.97769091546856,-30.22201853165037,-32.926708759420829,91.48734080064706,-33.30009358603176,-106.28920300714428,-55.494556869412047,-57.495099580288279,-70.43661374805854,-49.09207052068239,-6.89378174038959,-14.864827026997724,-107.51055632939284,-40.76363656141014,61.359797765616587,94.10862587331479,8.806530819698436,76.04107120958406,-97.48303904893405,-107.72563398444201,-90.5536146435003,-97.91694790082585,66.42775342814579,-21.552766474031505,-20.04162733292615,-60.909636117072867,-60.0545023143509,-82.41198874708802,-94.22418139759819,52.275536041437998,51.89913015469262,12.087470398301499,-101.03574970085397,-22.411439691017095,67.96357288753132,-82.87975788509357,-25.65301011319457,59.91358933226875,-32.47040123702782,-92.02747376807057,-33.9957516187906,28.44769483113263,98.33325350442877,46.44718487038482,56.860195009940429,2.4062484328665008,68.76690893070853,-55.54305230662376,-51.658307543427287,47.20766561614745,11.961215117946427,41.05676390759146,-75.99045435818832,89.53588315351114,-70.42678560481642,84.82329426186964,14.42157259462796,99.6974022690348,0.4576235791490312,-83.46180202338296,64.83664386163123,-84.153912676748,-74.34226273711451,-11.640805235072257,10.08014387904933,92.090092415733,-24.900421880568194,25.97222791604859,2.344135105482957,33.16821109628595,8.690291432085058,59.96428604185419,-2.5598721078123525,105.6157792735607,37.34146218877215,-7.9299649202091448,-85.17885685083084,-91.0907759966634,32.658383070452419,88.62346878863187,-18.605200493357338,106.5598945466975,80.31766335076361,-30.360502459321368,-70.75702363093285,-100.22897830732335,-22.993419797934324,-79.50028829994095,-63.05599864062468,94.21162318008564,13.770014074702596,-14.279067827805266,-51.61537880130434,-60.079943768069117,-45.792773075277427,-60.91318349646651,-8.281386986177309,-1.0972858149228775,-74.70430356308899,75.84144714863165,-83.76467424098945,-68.27666353976447,53.18415714231732,26.244825914710956,-72.5539703703621,63.06827363051667,-67.4547085390203,-70.53488907732516,-58.87692358968516,48.57452386981673,58.93080655827614,-5.55899596313305,-44.032325355841638,22.905499344941654,46.214743024398469,69.3480938693583,-53.400231473087057,67.08958427663153,-51.955126158564087,-0.7622223680517358,4.012167659243156,-56.471478135051537,-22.043117997751005,19.20385647982129,-91.67314753284117,-88.10198529453388,0.5083202887341631,-53.5512728941676,40.337207794413988,-12.816698869185448,-110.71992248845598,26.989773518516669,94.68487212084992,67.8882804762451,61.31679847519703,-61.399881508017397,-57.69560715004431,-56.99850711837223,-68.87787664338363,-22.753952707025126,78.2970747861216,-63.529875275033237,90.44797984416843,-0.5591779560172423,-75.7905279326145,-91.74233451658886,-81.31808702638789,36.550466408178078,4.776657761956739,-4.069522390211472,103.55839253104463,35.70037329161564,-60.21350421078326,37.129263359387348,-39.24206506503604,83.77814844848629,64.83779901241113,-77.09104389192822,6.846628893127647,-95.52332963025244,-48.51139121264184,97.16790890957133,0.19924768268519633,65.01111983392446,48.223101803848738,-79.13031151466481,10.827476470441307,-0.8492612776625363,72.66004542416903],"DNAVersion":11,"PerformanceSolvers":[{"ParameterName":"Timer","EvaluationParameter":242.56930541992188,"EvaluationParameterWeight":1.0,"ParameterType":1,"ExpectedValue":0.0}],"PerformanceCoefficient":73.92137145996094,"NetworkTrainingRate":0.47227025032043459,"InputLayerNeurons":0,"OutputLayerNeurons":0}