{"HasData":true,"NewTraining":false,"NeuralNetworkName":"Jumper V9","StartTrainingRate":5.0,"NeuralNetworkDna":{"Weights":[-2.3258883953094484,-0.619040846824646,-4.0108184814453129,1.7134807109832764,4.618048191070557,2.618971824645996,-0.6053777933120728,6.118853569030762,2.992403984069824,-2.0396366119384767,5.34157657623291,-3.911073923110962,3.232513427734375,-2.676614284515381,-3.537999153137207,1.559502363204956,0.4872356653213501,-3.9220387935638429,1.1155532598495484,-2.8441896438598635,-2.055495023727417,-2.6002416610717775,4.421708106994629,4.059065341949463,-2.1491873264312746,2.8688247203826906,-3.540771722793579,-0.36717694997787478,5.384613990783691,2.713141441345215,1.479230284690857,5.332831382751465,-4.407831192016602,-0.9003560543060303,1.9161725044250489,4.949615955352783,-4.52566385269165,1.972398042678833,-0.8789074420928955,-1.0328391790390015,2.4803059101104738,-4.120630741119385,-3.143449544906616,2.7598109245300295,4.580461025238037,1.2986539602279664,-0.4005280137062073,3.5658071041107179,2.918088436126709,-2.84102201461792,2.127784252166748,-2.3265433311462404,1.6644130945205689,5.096796989440918,2.4845829010009767,1.350677251815796,-1.6591300964355469,-4.30812406539917,-0.49777501821517947,-3.7016308307647707,3.325620174407959,3.252424716949463,-4.140453338623047,-0.3360775411128998,1.9212368726730347,3.6760199069976808,4.263850212097168,-2.687483072280884,-1.0063608884811402,-0.34574010968208315,5.314109802246094,2.769292116165161,0.434070885181427,1.810563325881958,-1.373333215713501,-3.7220945358276369,-3.4331629276275636,5.229681015014648,-4.412487030029297,-2.681800603866577,0.9908972382545471,-0.25878414511680605,-4.780966758728027,-2.655548334121704,1.9209531545639039,4.227732181549072,-1.5485219955444337,1.4143116474151612,-0.040023721754550937,3.3707025051116945,-1.6183414459228516,0.08443863689899445,-0.07756785303354263,2.9546456336975099,0.3664618730545044,0.42284902930259707,4.37684965133667,2.462038278579712,3.8690383434295656,3.7050118446350099,-4.360872268676758,0.1701776683330536,0.8495610952377319,3.2887279987335207,3.4140496253967287,3.165821075439453,-3.2740111351013185,3.934260845184326,0.5575925707817078,-1.577837586402893,3.266079902648926,0.9060376882553101,2.6025359630584719,4.592006683349609,-1.0612081289291382,-1.8463101387023926,-3.566512107849121,4.1318254470825199,0.2903180718421936,4.880693435668945,2.2666401863098146,-0.630540132522583,-1.1675901412963868,1.1910144090652466,1.4433314800262452,-3.077338218688965,-1.7390631437301636,-2.3691492080688478,0.5738240480422974,-0.394919216632843,1.3965885639190674,0.051528189331293109,-3.099522590637207,1.901784062385559,-2.2248332500457765,5.23205041885376,-2.3876256942749025,2.741407632827759,3.597198009490967,5.453707695007324,1.300221562385559,-2.017829179763794,-3.6697020530700685,4.523739814758301,0.9929392337799072,2.2238547801971437,0.8641364574432373,1.021803617477417,3.49548077583313,-4.1475653648376469,3.364469051361084,2.0497679710388185,2.3574864864349367,-2.1424648761749269,1.3314080238342286,-1.0501047372817994,2.378612518310547,3.259470224380493,-2.1512269973754885,-0.7590979933738709,5.187910079956055,4.7173967361450199,-2.9679408073425295,4.5673508644104,1.4666111469268799,4.028785705566406,3.0230863094329836,-1.8571058511734009,4.7112579345703129,-4.101073265075684,0.5959100127220154,-2.6143267154693605,-3.6402759552001955,2.6750781536102297,-0.05846196785569191,-1.787909746170044,-2.1180453300476076,-0.18321694433689118,-0.3604617714881897,1.6288461685180665,4.932030200958252,-0.4828990697860718,1.0363322496414185,3.1109228134155275,-2.5705013275146486,-0.1691412329673767,1.3880276679992676,-2.4026317596435549,-3.156653881072998,-2.5531468391418459,-0.9906173348426819,5.685588359832764,1.835551381111145,1.8350517749786378,-3.220094680786133,1.9345192909240723,-1.058350682258606,0.15803024172782899,5.132567405700684,-1.6681939363479615,2.714109182357788,-2.0978682041168215,3.457937240600586,0.31285959482192995,-0.5015755891799927,2.591853141784668,-3.1197047233581545,-0.017566412687301637,-1.3307005167007447,3.1677091121673586,4.717340469360352,4.912571430206299,4.269565105438232,4.147157669067383,2.157982349395752,3.1855053901672365,-1.4267008304595948,-1.4415276050567628,-0.1885765641927719,0.5127485990524292,0.40555185079574587,-2.717193126678467,3.9561281204223635,-1.7056246995925904,-4.749195575714111,-3.4175987243652345,-1.0540331602096558,3.339657783508301,-2.2301692962646486,-0.43999189138412478,-1.6329134702682496,0.3977336287498474,-0.6873458027839661,-3.4511208534240724,-2.5364632606506349,-0.7096281051635742,-2.4830946922302248,-1.5754616260528565,-3.9360523223876955,0.17497223615646363,-0.47205623984336855,3.5022692680358888,1.4699846506118775,-2.7389461994171144,0.5141493082046509,-0.675418496131897,-3.3723602294921877,-0.8742258548736572,-0.18823523819446565,0.07890984416007996,1.5831495523452759,2.311380386352539,-3.789259195327759,1.3456780910491944,-4.365382194519043,-4.173768997192383,-3.230844497680664,-2.5274910926818849,4.330979824066162,-0.5412974953651428,0.6553240418434143,5.584014892578125,-2.1356067657470705,3.338623285293579,5.146166801452637,-1.556633472442627,-3.5790936946868898,0.21346937119960786,2.142333507537842,4.674609184265137,-1.1501868963241578,-0.9894477128982544,-0.4638952910900116,0.4739615321159363,4.837325572967529,-0.5709901452064514,-1.744106411933899,-1.7316898107528687,1.581870675086975,-2.632798671722412,3.711359977722168,2.107226848602295,3.218323230743408,4.002411842346191,0.03164004161953926,-1.9599432945251465,-3.2397193908691408,-1.3039500713348389,0.20926575362682343,5.594657897949219,-3.031024694442749,2.707491397857666,4.288267612457275,-2.6923813819885256,3.7552618980407717,1.490729808807373,-4.143823623657227,2.2386255264282228,4.614339351654053,1.4156439304351807,0.8321584463119507,-0.1385018229484558,2.678020715713501,1.9709317684173585,4.823936939239502,-1.2571556568145753,-1.572107195854187,-1.1549811363220215,4.209407806396484,-3.9427895545959474,4.749452114105225,4.564319610595703,-3.965297222137451,4.567246437072754,4.344361782073975,-3.50172758102417,4.232844352722168,-0.633368968963623,-2.9814422130584719,2.6045289039611818,-4.237083911895752,0.5555212497711182,-1.8745880126953126,4.040726661682129,0.9556840062141419,0.39847949147224429,-3.715975761413574,1.2986092567443848,2.0709388256073,4.949186325073242,5.671459674835205,-2.1437320709228517,-1.4995607137680054,-0.5338961482048035,1.149207592010498,-0.9576590061187744,-1.050400733947754,3.948442220687866,-2.7849998474121095,-2.0805764198303224,0.38481098413467409,-2.84047794342041,0.1843927800655365,2.9930312633514406,-1.7261362075805665,1.4782006740570069,5.330601692199707,1.3821250200271607,-0.2072591483592987,2.584097385406494,-2.3927745819091799,1.744278907775879,-2.7609503269195558,-4.171751976013184,-2.570220947265625,1.2736510038375855,3.3600902557373049,-0.5690762996673584,0.4130772352218628,-2.75689959526062,-0.5285916924476624,5.189138412475586,4.385918140411377,1.1235871315002442,-4.402349948883057,3.0548009872436525,4.098007678985596,-3.636059284210205,0.10690723359584809,0.5408893823623657,4.840184211730957,5.238616943359375,5.235348224639893,-0.9280998706817627,-0.3770822584629059,4.731847286224365,1.3180527687072755,1.4759653806686402,-1.7222015857696534,2.386730670928955,-0.9022557735443115,-1.759437918663025,0.9241671562194824,1.9111652374267579,-3.753349542617798,5.0090651512146,-3.6770689487457277,3.384465456008911,1.281275987625122,-2.8139126300811769,2.6760804653167726,0.42409276962280276,-3.6487715244293215,2.2014150619506838,-1.2193472385406495,-4.27631950378418,2.420358657836914,4.360461235046387,-0.5238469839096069,-0.8450742363929749,-1.2031216621398926,-1.7583751678466797,1.5134445428848267,-4.148692607879639,-2.815718412399292,-3.4944069385528566,-2.288593053817749,3.5928115844726564,5.036613941192627,-0.8326483964920044,4.392121315002441,2.047694206237793,1.2776154279708863,1.3063364028930665,1.790975570678711,1.3873463869094849,2.5940394401550295,-0.890253484249115,5.834550857543945,4.206154823303223,5.066710472106934,5.163543224334717,2.758383274078369,1.8616667985916138,2.1926865577697756,0.3398430645465851,-2.3936524391174318,5.416620254516602,-1.6757144927978516,2.108272075653076,2.376645088195801,-2.4441123008728029,-3.4028117656707765,-1.3913261890411378,3.3913328647613527,4.621351718902588,-1.7112667560577393,-0.4938170313835144,3.584195137023926,2.5435791015625,3.126173973083496,-0.9092102646827698,-1.7871613502502442,3.12827205657959,0.9990928173065186,-0.5047252774238586,-2.9568867683410646,3.3548436164855959,-1.7720074653625489,0.19347476959228517,-0.3286013603210449,-3.716172933578491,-3.110036849975586,1.0365092754364014,0.9854300022125244,1.6961650848388672,2.9549031257629396,4.365955352783203,4.672897815704346,-1.5500668287277222,-2.0537729263305666,3.363029956817627,5.378996849060059,5.254673004150391,1.1165775060653687,2.6219027042388918,0.2418420910835266,1.3808772563934327,-3.3698949813842775,-1.8072559833526612,1.2514535188674927,2.453364849090576,3.777280330657959,2.2013378143310549,-2.3462281227111818,-1.8317747116088868,-0.38454538583755495,2.7798497676849367,3.5666911602020265,0.8161758184432983,0.9514967203140259,-1.1734795570373536,2.497114896774292,3.3614468574523927,-4.468132019042969,-1.2277517318725587,4.223237037658691,-1.2609468698501588,-1.3853522539138795,0.44139766693115237,-1.5726186037063599,-4.353396415710449,3.3255386352539064,5.28083610534668,0.3716294765472412,4.769029140472412,-3.3838069438934328,-1.0918035507202149,-3.0381975173950197,3.1290345191955568,2.186169147491455,-0.2251061350107193,2.2455883026123049,-3.207331895828247,4.7729172706604,0.3845844864845276,-1.1426608562469483,-3.6132078170776369,2.1074228286743166,-1.0616700649261475,3.05765962600708,-1.9878971576690674,-0.6938649415969849,0.11737530678510666,-3.5189859867095949,-3.704648494720459,1.1730012893676758,-1.4025392532348633,3.5767836570739748,-1.3972539901733399,2.9640657901763918,-2.84041690826416,-2.859304428100586,-1.930483341217041,-0.4966002404689789,-4.5538811683654789,-3.845292091369629,-1.3003475666046143,0.8121467232704163,-3.1286168098449709,4.984723091125488,5.154560089111328,-3.973376750946045,2.089461088180542,-2.0145301818847658,-0.9172512292861939,-1.72749924659729,1.9169049263000489,-1.2414261102676392,4.845779895782471,2.279226541519165,3.103095293045044,-3.105292797088623,0.3739505112171173,3.1338438987731935,2.3764829635620119,-4.904472827911377,2.5118775367736818,-4.666485786437988,2.0540144443511965,3.658620834350586,-1.5830411911010743,-3.4116814136505129,4.562463283538818,0.35156315565109255,5.321445465087891,-2.959148645401001,-0.9343686103820801,4.338797569274902,0.05532156676054001,4.0594940185546879,2.2922792434692385,3.1089420318603517,3.244828224182129,2.263876438140869,4.583976745605469,-2.4934723377227785,4.64288330078125,4.808801174163818,3.352442979812622,5.2126874923706059,0.7488014698028565,1.7058972120285035,-1.2086551189422608,2.818739891052246,-1.8034486770629883,1.3146734237670899,-3.9845097064971926,-3.9064855575561525,-0.3808097839355469,0.22251902520656587,-0.7271188497543335,-0.425648957490921,-0.9709887504577637,-2.738743782043457,3.1519291400909426,-1.5433101654052735,4.764442443847656,1.4766521453857422,1.7119063138961793,-4.147287368774414,0.04041951522231102,5.396658420562744,0.4227166771888733,-4.36740255355835,3.1902718544006349,2.6594057083129885,4.680771827697754,1.1963376998901368,-2.3104851245880129,0.9192454814910889,-3.7551486492156984,1.3654708862304688,-2.9542036056518556,2.310516119003296,-1.5490825176239014,-4.67604398727417,-2.378765106201172,-3.373023271560669,-3.9009206295013429,-2.5809035301208498,0.3830723762512207,4.521879196166992,0.8413119316101074,2.752981185913086,-1.5055738687515259,4.395930290222168,1.0670191049575806,-3.261716842651367,4.974186897277832,-2.1002519130706789,-0.39859697222709658,-1.8096237182617188,0.4041057229042053,3.6321229934692385,4.439228057861328,5.121482849121094,2.78066349029541,0.8599458932876587,-4.459355354309082,-3.7233309745788576,4.924326419830322,-0.2439364194869995,-0.9985837340354919,0.7288322448730469,1.1108437776565552,1.7080925703048707,-0.34825026988983157,-4.242676258087158,-0.44665998220443728,-1.912793517112732,-3.866748571395874,-3.3472096920013429,4.657978534698486,-0.8871926665306091,1.2768694162368775,1.4206345081329346,-1.9036251306533814,-3.973689079284668,-3.1007988452911379,-3.45064377784729,-2.455836772918701,-0.8553957343101502,-0.6077580451965332,0.9343597292900086,-0.6035741567611694,-2.972442150115967,-3.758240222930908,3.184392213821411,5.035207271575928,-0.6335363388061523,0.9448267221450806,-0.3497353792190552,-1.4667514562606812,2.143953323364258,-3.687093734741211,0.7220973968505859,1.5215097665786744,-3.4015703201293947,0.8246489763259888,0.48626017570495608,-2.6474685668945314,3.565762519836426,4.60566520690918,-1.0457979440689088,2.330385684967041,-3.9135003089904787,-1.9740562438964844,3.449746608734131,-4.207821846008301,1.7474448680877686,4.782660484313965,-0.8591879606246948,5.254222869873047,-2.873807191848755,4.224123954772949,-2.5758655071258547,2.6973471641540529,4.8705220222473148,-0.1530316174030304,-0.5343921184539795,4.40297794342041,0.24559235572814942,0.997258722782135,4.831323623657227,4.233746528625488,-3.2100722789764406,-2.3425421714782717,3.125044822692871,-3.4154398441314699,3.5682663917541506,0.16568568348884583,5.636455535888672,5.059202194213867,-0.67034912109375,4.42972469329834,-0.06887103617191315,-3.663828134536743,1.1590516567230225,1.7271556854248047,-4.1595048904418949,2.5043680667877199,-1.2499771118164063,0.3424260914325714,1.2906007766723633,0.4273999333381653,-3.4569244384765627,-3.1320176124572756,4.744670867919922,0.26818135380744936,-0.6932586431503296,4.143350601196289,2.3746836185455324,-1.6471878290176392,-1.924878716468811,1.8658711910247803,-2.881037950515747,3.638370990753174,1.1052645444869996,-2.2830212116241457,2.9783072471618654,3.979729175567627,3.1927802562713625,2.8113789558410646,0.5298939943313599,2.759392261505127,-0.5539906024932861,1.5841822624206544,-4.475796699523926,0.09225644171237946,5.394537448883057,0.0452108234167099,3.6739816665649416,-3.7670202255249025,-3.2136449813842775,-0.884344220161438,2.558720350265503,2.6324682235717775,-3.176440715789795,1.7193419933319092,-2.2737183570861818,-4.409912109375,-0.7927334904670715,3.1232166290283205,2.4114866256713869,5.284262180328369,-3.57319974899292,-3.611542224884033,3.392515182495117,-1.2588051557540894,1.483471155166626,-2.5052123069763185,1.0258798599243165,-3.9010725021362306,4.001428604125977,1.667643666267395,2.243049144744873,0.0022925660014152529,2.124894618988037,3.0525381565093996,2.7596378326416017,2.825371265411377,-3.0825581550598146,-3.9048070907592775,3.8840599060058595,-0.008423469960689545,3.9611759185791017,5.101475715637207,-2.4125776290893556,2.898212194442749,5.332162380218506,3.4485583305358888,-4.128932476043701,-3.312316417694092,-4.318963050842285,4.1043195724487309,-3.574265241622925,-3.700505256652832,2.5596060752868654,1.4628171920776368,0.5216096043586731,4.08135986328125,1.8922978639602662,3.2502617835998537,5.201169967651367,5.632173538208008,-3.6675148010253908,0.9483338594436646,0.3088485598564148,-0.7020066380500794],"Biases":[0.0,1.0,1.0,1.0,1.0,1.0,1.0,0.5]},"NetworkTrainingRate":9.999999974752428e-7,"PerformanceSolvers":[{"ParameterName":"Timer","EvaluationParameter":124.84712219238281,"EvaluationParameterWeight":1.0,"ParameterType":1,"ExpectedValue":0.0}],"PerformanceCoefficient":53.829856872558597,"DNAVersion":5}