{"HasData":true,"NewTraining":false,"NeuralNetworkName":"JumpV1","StartTrainingRate":0.5,"InstanceWeights":[56.87559276579833,79.77283889554993,67.37857588499218,14.621218299163552,-73.90071148155572,14.803125853374347,102.07167736594605,-14.53598036705296,120.05185961519716,-56.888733578546517,-52.312952364161947,-8.216800405596317,33.34933853846045,-7.664448922051804,121.20863674321804,-118.06165897634625,91.09670887601449,124.52595329330012,44.541801796202729,-46.61001265090713,79.66789536335101,87.49719485301583,123.6599338848874,-117.49396518946529,50.263677887241218,6.607605138220594,109.1085206661109,47.16610922043024,11.768993501942246,-105.30531983124183,-78.65416420110039,-11.733140203683098,-50.989231051680537,122.8156622441327,35.87290511652696,66.10676180131508,-118.05479544371257,-29.914433289030879,-39.43277767602877,115.00025487885006,1.2894395291862402,54.29361352263059,-95.79071690126311,-56.95232909988127,102.34088831541473,74.10150975890139,-40.93647617051,-10.75733904090652,-88.78511695043841,-70.05905362867485,-22.606796344898109,54.9860257432152,30.124292375323458,-3.024727084011433,-76.69611181014574,95.07405457000096,81.80856166788127,59.17688441723808,90.05319706914091,45.18734003744277,31.390261844482759,-70.79008851170357,99.39068278822357,99.66152278921988,-103.9302260346647,85.11584449674005,-82.92322601113482,36.22933295154647,82.15830261864008,-70.59378171531627,125.68879312458535,-4.684514492173664,38.26307431211019,55.2372035745716,77.79620447712533,-100.32137481649838,57.592255097060739,54.91660632754987,-94.13919684766067,101.85782478555878,-78.15157534848825,-5.8297969502018029,10.255569513649793,-43.86760952660182,42.997133170875148,-7.9445332870967129,83.83822407821232,77.7311526895501,73.81611739705973,66.49450720374485,109.99385679065304,-51.53602320373187,5.728026299046929,41.07553894374763,-42.085663622851409,-53.61612861632949,80.59858739162589,-69.75658303326438,-78.71775972243516,-108.4706128385447,31.3290791128174,48.52984753516253,32.78001499767217,107.50432142209653,-70.05219009604149,107.77337480449461,-108.97270522611398,100.58274545797078,44.874725096082098,-102.07039365086594,-88.21385718427885,-98.80370131688723,27.620424607679696,113.89102894080098,-2.3567412712877027,-88.4755978625345,44.64999863186592,17.562635657606529,-69.03126703887406,29.709963909650694,-124.41803623869154,-34.95872204346624,88.10887221170575,-110.03186124232328,-54.89198184875022,51.52915967109838,115.28311586599833,122.88319202558134,-28.3727894597962,5.716676436235899,-55.224305550905459,1.6531814731061932,7.938709392765837,-111.36424066633502,-55.16691098447742,-0.9857662264320932,87.08584470934474,28.446904748772004,-99.51107608777923,60.919415023599579,-24.667484718201668,108.95113527746028,-92.83922906375074,50.190854390706508,29.01270773080443,83.10190145032101,46.53920884580734,17.53265401546481,-82.26337644218347,-79.30572241753555,27.42952940902367,-62.659704923199708,124.97034066282865,17.267933025133073,-109.74823325707162,-59.407855500935507,86.11663198067531,17.116219582776869,36.70064661362762,4.114306890079109,118.18591559571519,-106.16024059447699,3.259878260548263,-86.53760799737289,78.84956855725847,35.82861799983417,18.95324594756581,13.289008616795759,43.362283268059687,124.32468161236324,-49.865785914660687,-109.49256277412509,-8.621944911833067,-4.255025405254753,-71.31820802936636,-107.6735148589331,-67.81514963693431,-87.77763883621963,-13.348912315909053,-12.298226641852175,-120.70570583192832,-27.945194806685536,79.45091181054625,-74.76272369947952,103.98280368443129,-118.26025728492502,2.378497467496585,116.36643302485175,124.07964924795596,-121.45471214076058,38.593258450111218,-55.726031530650917,117.44191479236319,22.070273679360427,68.4291560851034,-44.20290078094405,-20.00439964030676,119.3940355908411,97.03694249066733,118.87974638818912,-61.54700115446347,-92.44545642820708,99.86602740462436,-80.89240139732829,96.25572015434359,11.226435525929827,71.65789664585253,3.5297094108643685,-37.1095156027192,123.62093825908014,-117.28836252121998,48.19861415967636,-95.23052475853335,-76.6967834017393,-0.8756439352119612,20.435453745181648,-59.915495747803898,-47.67305469719127,-64.82475502458498,71.41416918496448,-92.24553612488117,28.282469579933055,14.905016026059072,39.12133875160171,-39.964233494966787,-119.83541104122857,-101.23882090926927,95.0034380660252,53.011475166860929,98.5803494087963,38.026541438592797,-61.51352857055609,-59.118924669667787,-6.53300204687935,-76.44688214460756,97.4354072534985,-2.115565554090712,34.64765655065551,-45.32278719660384,-32.93928849871768,-64.22249727355845,124.54444471385075,27.780291970351969,-125.23694566834301,121.52930703767794,116.09030094765382,-86.19116342933674,68.44304153688334,-102.74973904264651,-77.70195431729714,-109.98306169035893,-98.02700160033415,58.523133958207157,-100.07288335151621,85.42962585585143,35.86618592282234,18.34518420295259,-64.95096800419646,84.76748875485773,90.39547453835321,-13.230400222019619,102.35011523704601,76.21389090122256,-9.994208354296818,-40.101259836731497,69.92082270655517,-18.378117827874968,36.998133945565339,125.44575540008757,27.384605468508615,-103.14463735794682,31.132504358759378,123.34538915663183,93.81019013135175,9.941009801303775,-91.09432418151383,-125.19347904763774,14.446305037183505,43.28768837114266,-30.358877785401878,92.05140904532712,-43.986205788933947,72.05752045145283,5.017772826939026,82.86775444193641,10.357886381708136,5.658994128455761,-84.74169797537027,33.733028754487857,13.382588589789016,-46.60543360667305,-62.86025420711339,75.57582445301667,-10.022605077738069,105.98676838052094,-40.8769558533854,-77.36510284459013,-87.9211563325702,40.55997082560717,-74.08717232609614,8.772762118310034,2.506359282316934,68.69294279401497,-4.438687853936168,-100.25297361656954,-15.419909391899479,-95.67673409974647,90.40860048407459,15.681763504398754,50.828293380146437,35.36400831324129,-121.79677749145017,17.45700028188001,-10.56929011695932,124.03972215024482,-94.93985109030428,-95.40306187162598,-54.499538582935418,32.83369386098559,75.23651043877938,-61.4338280791197,-59.332076509723737,-122.43055146614141,-13.632489846920472,-51.70561758203723,85.41127350638587,81.2523365629618,7.672337577150644,113.5190784080493,-74.87769100253014,111.96643532029583,88.42333394215112,99.58199086879526,-8.320795959980395,86.56401675350718,-36.15060689420874,13.016508074270093,-49.199448351829769,-20.424910213710317,-27.40799282338294,-19.661036175763944,40.946050301600177,25.27219517744998,108.60039203156018,103.7142369337666,-50.504312772442307,45.3784021682256,-39.550542087242799,-8.36667057076401,75.2309628136066,-71.16955063897821,102.83009239556385,4.9408064636631459,91.01911704404697,113.04231241024285,-57.590818029185189,-0.7587459087603719,-43.370224016283518,-78.42872692911823,-59.9685904657365,29.023410702357756,22.346584980321376,102.58517873324382,-35.136202150290248,64.55751471706968,72.63633102830889,-95.68311170302576,-99.91786041535868,28.5623497867526,34.49467238723454,17.739297492644309,79.49204313742253,91.62102828799412,-65.45396997285032,-30.798110042675725,23.315778276499036,41.091384970045307,-105.33528684048355,8.34892987653179,124.49435184762399,-85.66278531905859,-4.892778007014308,-109.65664850930384,-87.40754106277606,121.98751629366719,-116.55931373248699,-42.21312917873099,-117.13278283247051,4.3325482869959519,18.459178125473259,90.30379567177035,-69.30892456666528,-96.46637807993085,-86.15197640519293,69.26425313147841,83.68803550113356,64.05652822557529,-65.28725932947853,-81.65277934272807,-94.61775075176107,-80.51685772663469,19.60060592636527,57.582764783223428,82.8343136992202,-68.20399133625658,-24.96593711918179,-114.48659254964892,-55.30088022070527,-3.878429570496343,-35.96912252347534,27.01345365798856,-21.11911572549602,73.97650276440368,-77.22742211952297,-100.00146180389628,-91.779467947847,6.307576832406712,64.29706313880125,-31.428061786738409,55.42117179233814,-10.846196450179236,-104.24598552777478,21.445247954864486,-115.5924849959395,69.88653337268315,-38.64743459790937,50.26276456013445,52.077348035967847,-9.02256644710972,11.209511113409576,84.95490670814256,-19.317012357695089,102.01314915946377,-22.728976028926018,79.31555291703973,20.43226541179482,63.22011386698104,-66.79530555130558,106.49210693069969,21.257796755629888,123.62293547438012,-112.60790561524448,12.441303395244829,-85.39398584674776,117.14138112470353,-14.27274525995222,-17.589770673849896,106.45670069681104,-111.84617125851588,35.34806442210618,-48.31519798849203,125.45512174399309,91.83645911447874,-11.378294477847034,41.924102355636978,-101.96652885607901,123.8510146287197,47.47959312194411,-112.74787633068132,96.13909991887182,50.46695497790268,-40.86828392839763,79.41734288362334,110.60771597331304,4.771627425600779,-79.36519064153532,2.563391772259313,-28.990177863889377,-30.84731837934396,5.261929441527823,-29.303925157609084,-52.59277427350669,83.5006128653206,73.0097981148506,57.49389297517675,-23.933947492153736,9.008367734199462,-18.856422855606878,-107.03820946342438,-41.53637802458369,104.63799273315922,69.50172052054218,38.22786263726452,81.32502578800319,-66.1709475553173,85.1954416213686,14.542185185045203,-12.304213019908284,61.042578272655919,55.58642511590008,22.27690744029406,-109.95513591218169,-79.74308587784262,-115.34264964539168,96.48649843494596,38.795562745558779,-66.32959184164864,27.52924407915079,35.530043384870499,70.81091510902005,108.85951962500768,-114.29524946717943,11.608362418936072,8.587555957175498,-61.043667077503588,-121.4180803722045,-83.74114777854654,-106.86899565759112,56.82346920419491,-59.83760680942812,14.720760066940306,17.01178082710761,28.822145928149607,54.48415835112117,117.19676384293133,106.66089111457957,46.59951009155673,123.78797375283907,51.08300687141152,45.27184246145102,31.788280830638436,-110.8280518650514,35.66290052067353,39.261913161974948,108.68067865845302,-45.04444590264603,-98.54534505288282,73.14760585349289,102.21895633712366,-106.9973264276013,-83.30001230772432,107.1747803122677,71.30919041674156,-52.15346791522572,-24.70024099237217,93.23758554311989,-67.80229855561265,-96.05534997712978,16.673036208287767,-70.44852384033212,43.24093274269582,-4.284475814582929,56.56797443311559,-4.815471575134789,-84.82999160825905,-120.43053004403241,-13.081625183112508,-8.531587571745025,-106.8437568311034,115.52126397758576,117.89170931122082,-64.4219089372689,102.14189386495818,115.95385758063863,-86.673022378837,93.99191483283974,-24.26249333063399,98.04210591418023,25.60253395594176,109.6964354823615,102.82292133789763,-31.19309697482005,-83.39229533749512,38.125138974576938,-102.23325115892298,33.24163641189154,71.3982470675852,-44.720042813843857,-46.51125731372571,-101.7364783574073,48.767533012973149,16.959203411467788,-18.580719112667617,-4.164125945475365,-123.66474693846357,-89.62290001199769,-41.70036964094788,-85.21728456141041,-1.6037518869850794,103.41555204526616,93.73283593768534,35.68189917608121,54.29570602737745,112.39334901675703,-99.19337908160313,106.81755328676356,-120.66277020990973,81.05098949332218,-91.17610219360695,7.0035008320069809,-8.195577783465055,-40.14874781257365,4.037772724147328,32.67225738314518,-47.57578852101048,-51.26162693970298,-46.58783713430663,-107.25282119868048,-28.277877073430767,7.624028637068322,-66.13312045439867,-94.0572390264874,-87.71598691523843,120.588378183523,-58.9419256926064,-24.7631507574658,79.85446683261755,-19.389636846785409,113.92294786188356,-122.74577902405827,9.996627816568724,-64.74086542644244,-26.04979885605379,47.88263856789438,-109.73205711254257,-58.554634495402847,40.20685365502112,-70.08998769703294,11.622861398961057,-83.35514778846789,28.208749964582176,116.04291423148206,-79.23959727745546,72.18089851148615,32.15475608327664,-36.779375831671938,-112.77422596989855,74.44268016140599,-82.283994081684,53.29253665845811,82.66059377952793,-60.14320509948637,68.75624916923892,116.46787613316578,43.85301584244581,62.094418306954128,-2.297770565899405,59.40298450107376,45.639618052144147,51.26542833308181,-98.73257020307315,24.42252329409488,92.82369828865773,-94.12597982676779,122.7025296726574,-69.15036901424142,111.59670770069879,81.85079081347192,16.708657838469,-114.71681068282696,34.22717606249496,-102.19350609449249,6.819974059577442,-70.61838594218175,105.11093532970487,-56.480378028661608,110.87801490818731,-34.201228769505529,-37.26203455697273,103.53310679628449,-37.684581444786157,-120.28386998600689,-62.80129942232072,-65.06524545379392,-79.71071614636779,-55.555823741163987,-7.80145793846251,-16.822018332000306,-121.66603393177037,-46.13081876227777,69.43879272771562,106.49952581116614,9.966050908041663,86.05308972309831,-110.31823424261384,-121.90942998673185,-102.47644071439498,-110.80927410790682,75.17402549604816,-24.390531559700756,-22.68042687515181,-68.92936012615118,-67.96163433428174,-93.26284005607616,-106.63029606125585,59.15844321680138,58.73247749815522,13.678978454201918,-114.33871585375869,-25.36226278611147,76.91206005598623,-93.79219845361289,-29.03063759917221,67.80216791307862,-36.74564687935083,-104.14435687428485,-38.47183394080348,32.19328708523288,111.2803929768188,52.562696756602118,64.34674558143989,2.7230693754801846,77.82116808802319,-62.856180056472,-58.459946753323318,53.42330690854786,13.536099654684865,46.46254099369824,-85.9958083567871,101.32470865921757,-79.69959397148556,95.99163235887463,16.320402391665426,112.82415365994642,0.5178770142174625,-94.45087797585392,73.3734210054935,-95.23411602346319,-84.13060604975688,-13.17350270594988,11.407355417900034,104.21522026455438,-28.17895913546075,29.39188551156006,2.652777838955078,37.53533452410927,9.834506753119364,67.8595396521821,-2.896920054769924,119.5217792888897,42.25806061129095,-8.974071142408766,-96.39401042750662,-103.08432791777294,36.95837951607829,100.29216040658676,-21.05487155695566,120.5902023794092,90.89276335446606,-34.3579463125847,-80.07331309510238,-113.42572015276198,-26.02086984623011,-89.96776785575719,-71.3583254718448,106.61608435433034,15.583055811940707,-16.159134601900079,-58.411365758357849,-67.99042556071604,-51.82212122255908,-68.93337457455923,-9.371763522229202,-1.2417609744500829,-84.54031531851718,85.8271819741043,-94.79362814627794,-77.26637408075558,60.1866987617918,29.70037537978648,-82.10685650179048,71.37221665972166,-76.33619560875086,-79.82193098845788,-66.62900860929196,54.970133828142198,66.68998612916313,-6.290926347780519,-49.829882513350607,25.92137326484942,52.29965023832069,78.47887528330326,-60.43122272071036,75.9229969200469,-58.795846268066359,-0.8625810865568283,4.540433453565685,-63.906847936922137,-24.94544567381406,21.73235014184378,-103.74337794505056,-99.70201530219959,0.5752487533210722,-60.60215115127285,45.64824385422985,-14.50422147136885,-125.2979642773987,30.543407204161988,107.15164405796287,76.82685419919302,69.39013189564592,-69.48415413341877,-65.2921530396015,-64.50326868253952,-77.94674646801303,-25.74987309760534,88.6061321132077,-71.89459551499125,102.35689741075352,-0.6328026427679427,-85.76955843205163,-103.82167449749774,-92.0249087457684,41.362917634011548,5.4055808581821849,-4.6053398486433549,117.19350480337002,40.400896214943099,-68.1415713636027,42.017922425258777,-44.40890813668049,94.80887644786309,73.37472825027712,-87.24130803727124,7.748096667617817,-108.10049785681022,-54.898688750818127,109.96161219974104,0.2254818145311407,73.57086951929594,54.572441448321587,-89.54907773221813,12.253086251475443,-0.9610800553245789,82.22689802642218],"PerformanceSolvers":[{"ParameterName":"Timer","EvaluationParameter":110.94585418701172,"EvaluationParameterWeight":1.0,"ParameterType":1,"ExpectedValue":0.0}],"PerformanceCoefficient":65.96643447875977,"NetworkTrainingRate":0.28511083126068118,"DNAVersion":14,"autoSaveIncrement":1,"InputLayerNeurons":0,"OutputLayerNeurons":0}